svm_type c_svc
kernel_type polynomial
degree 3
gamma 0.00520833
coef0 0
nr_class 2
total_sv 26
rho -1.16217
label 1 -1
nr_sv 21 5
SV
1.679532903825994e-12 0:115 1:154 2:156 3:115 4:154 5:156 6:128 7:165 8:165 9:127 10:164 11:164 12:127 13:163 14:161 15:132 16:168 17:166 18:130 19:164 20:160 21:123 22:157 23:153 24:111 25:152 26:154 27:116 28:157 29:159 30:133 31:170 32:170 33:130 34:167 35:167 36:122 37:158 38:154 39:129 40:165 41:161 42:127 43:165 44:156 45:116 46:154 47:145 48:111 49:150 50:152 51:121 52:160 53:162 54:137 55:170 56:169 57:129 58:162 59:161 60:107 61:144 62:138 63:112 64:149 65:143 66:110 67:154 68:147 69:102 70:146 71:139 72:129 73:158 74:163 75:138 76:167 77:172 78:108 79:142 80:138 81:81 82:115 83:111 84:60 85:113 86:100 87:82 88:135 89:122 90:90 91:144 92:135 93:72 94:126 95:117 96:97 97:129 98:125 99:120 100:152 101:148 102:105 103:140 104:134 105:94 106:129 107:123 108:104 109:141 110:135 111:118 112:155 113:149 114:113 115:153 116:152 117:94 118:134 119:133 120:36 121:92 122:89 123:57 124:113 125:110 126:88 127:138 128:134 129:102 130:152 131:148 132:137 133:171 134:167 135:143 136:177 137:173 138:128 139:168 140:167 141:106 142:146 143:145 144:50 145:105 146:105 147:35 148:90 149:90 150:87 151:138 152:130 153:102 154:153 155:145 156:120 157:159 158:153 159:129 160:168 161:162 162:132 163:175 164:172 165:120 166:163 167:160 168:85 169:129 170:130 171:68 172:112 173:113 174:102 175:145 176:142 177:113 178:156 179:153 180:109 181:151 182:144 183:112 184:154 185:147 186:121 187:168 188:160 189:118 190:165 191:157 192:-1 
1.079677362424954e-12 0:84 1:126 2:119 3:93 4:135 5:128 6:101 7:140 8:135 9:92 10:131 11:126 12:86 13:121 14:113 15:118 16:153 17:145 18:134 19:173 20:160 21:115 22:154 23:141 24:83 25:127 26:120 27:79 28:123 29:116 30:88 31:137 32:129 33:82 34:131 35:123 36:44 37:96 38:92 39:60 40:112 41:108 42:85 43:141 44:132 45:94 46:150 47:141 48:72 49:125 50:118 51:60 52:113 53:106 54:79 55:131 56:127 57:89 58:141 59:137 60:78 61:128 62:130 63:54 64:104 65:106 66:48 67:109 68:105 69:76 70:137 71:133 72:59 73:118 74:113 75:60 76:119 77:114 78:78 79:136 80:135 81:89 82:147 83:146 84:90 85:138 86:145 87:66 88:114 89:121 90:52 91:108 92:113 93:77 94:133 95:138 96:91 97:141 98:137 99:85 100:135 101:131 102:91 103:139 104:141 105:92 106:140 107:142 108:90 109:135 110:145 111:77 112:122 113:132 114:73 115:121 116:128 117:88 118:136 119:143 120:139 121:173 122:169 123:125 124:159 125:155 126:112 127:144 128:147 129:111 130:143 131:146 132:103 133:143 134:149 135:104 136:144 137:150 138:94 139:145 140:145 141:91 142:142 143:142 144:123 145:156 146:163 147:107 148:140 149:147 150:104 151:136 152:145 153:110 154:142 155:151 156:106 157:146 158:150 159:113 160:153 161:157 162:96 163:147 164:147 165:65 166:116 167:116 168:104 169:144 170:150 171:96 172:136 173:142 174:101 175:138 176:146 177:106 178:143 179:151 180:105 181:148 182:151 183:113 184:156 185:159 186:100 187:147 188:152 189:53 190:100 191:105 192:-1 
7.75543944637502e-13 0:42 1:97 2:77 3:131 4:166 5:158 6:189 7:224 8:216 9:197 10:208 11:212 12:159 13:170 14:174 15:113 16:126 17:138 18:68 19:81 20:93 21:46 22:75 23:85 24:116 25:170 26:159 27:186 28:211 29:215 30:194 31:219 32:223 33:176 34:188 35:190 36:145 37:157 38:159 39:95 40:117 41:122 42:70 43:92 44:97 45:45 46:84 47:86 48:181 49:219 50:217 51:202 52:218 53:221 54:185 55:201 56:204 57:164 58:170 59:175 60:129 61:135 62:140 63:69 64:96 65:93 66:76 67:103 68:100 69:57 70:100 71:97 72:200 73:210 74:218 75:175 76:182 77:191 78:174 79:181 80:190 81:140 82:148 83:155 84:77 85:85 86:92 87:9 88:26 89:27 90:43 91:60 92:61 93:29 94:53 95:53 96:183 97:191 98:198 99:168 100:171 101:185 102:162 103:165 104:179 105:73 106:86 107:90 108:37 109:50 110:54 111:43 112:73 113:68 114:59 115:89 116:84 117:35 118:67 119:62 120:188 121:191 122:199 123:169 124:168 125:182 126:117 127:116 128:130 129:14 130:24 131:32 132:33 133:43 134:51 135:84 136:118 137:108 138:90 139:124 140:114 141:94 142:130 143:120 144:161 145:162 146:176 147:83 148:95 149:103 150:17 151:29 152:37 153:40 154:78 155:69 156:68 157:106 158:97 159:71 160:124 161:103 162:72 163:125 164:104 165:86 166:128 167:113 168:98 169:108 170:121 171:24 172:47 173:56 174:0 175:17 176:26 177:67 178:109 179:102 180:88 181:130 182:123 183:82 184:128 185:122 186:65 187:111 188:105 189:59 190:94 191:94 192:-1 
7.58243148582534e-13 0:87 1:126 2:115 3:26 4:61 5:53 6:57 7:92 8:84 9:154 10:171 11:177 12:194 13:211 14:217 15:197 16:200 17:208 18:188 19:191 20:199 21:169 22:168 23:182 24:95 25:139 26:132 27:76 28:110 29:106 30:102 31:136 32:132 33:164 34:177 35:189 36:165 37:178 38:190 39:167 40:168 41:182 42:161 43:162 44:176 45:83 46:95 47:103 48:74 49:119 50:109 51:88 52:117 53:108 54:120 55:149 56:140 57:163 58:176 59:188 60:174 61:187 62:199 63:169 64:179 65:192 66:98 67:108 68:121 69:24 70:47 71:56 72:10 73:51 74:33 75:70 76:100 77:82 78:125 79:155 80:137 81:180 82:189 83:200 84:191 85:200 86:211 87:163 88:169 89:182 90:33 91:39 92:52 93:4 94:16 95:31 96:77 97:104 98:88 99:145 100:155 101:155 102:171 103:181 104:181 105:194 106:190 107:212 108:146 109:142 110:164 111:61 112:64 113:93 114:17 115:20 116:49 117:40 118:58 119:69 120:150 121:168 122:158 123:200 124:201 125:209 126:199 127:200 128:208 129:166 130:167 131:175 132:61 133:62 134:70 135:12 136:19 137:22 138:34 139:41 140:44 141:80 142:95 143:88 144:188 145:201 146:205 147:190 148:195 149:204 150:157 151:162 152:171 153:71 154:87 155:90 156:25 157:41 158:44 159:16 160:44 161:39 162:26 163:54 164:49 165:26 166:64 167:42 168:196 169:203 170:212 171:150 172:160 173:168 174:96 175:106 176:114 177:34 178:56 179:67 180:57 181:79 182:90 183:57 184:95 185:99 186:45 187:83 188:87 189:51 190:90 191:77 192:-1 
3.44288663320025e-13 0:110 1:136 2:142 3:127 4:153 5:159 6:126 7:161 8:161 9:111 10:146 11:146 12:93 13:140 14:138 15:91 16:138 17:136 18:93 19:140 20:138 21:91 22:138 23:136 24:104 25:133 26:143 27:81 28:110 29:120 30:65 31:113 32:120 33:83 34:131 35:138 36:92 37:150 38:149 39:72 40:130 41:129 42:58 43:123 44:121 45:51 46:116 47:114 48:114 49:143 50:153 51:64 52:93 53:103 54:35 55:90 56:98 57:56 58:111 59:119 60:57 61:129 62:132 63:40 64:112 65:115 66:38 67:114 68:112 69:39 70:115 71:113 72:135 73:160 74:170 75:86 76:111 77:121 78:29 79:72 80:82 81:45 82:88 83:98 84:28 85:91 86:95 87:21 88:84 89:88 90:44 91:106 92:100 93:67 94:129 95:123 96:157 97:179 98:184 99:128 100:150 101:155 102:27 103:62 104:69 105:13 106:48 107:55 108:23 109:84 110:74 111:29 112:90 113:80 114:20 115:89 116:75 117:24 118:93 119:79 120:143 121:178 122:172 123:151 124:186 125:180 126:79 127:127 128:128 129:59 130:107 131:108 132:44 133:118 134:116 135:34 136:108 137:106 138:21 139:98 140:86 141:3 142:80 143:68 144:126 145:154 146:141 147:165 148:193 149:180 150:139 151:163 152:163 153:109 154:133 155:133 156:78 157:126 158:127 159:85 160:133 161:134 162:74 163:132 164:124 165:59 166:117 167:109 168:75 169:110 170:97 171:144 172:179 173:166 174:153 175:175 176:173 177:114 178:136 179:134 180:77 181:120 182:115 183:92 184:135 185:130 186:92 187:145 188:132 189:91 190:144 191:131 192:-1 
6.50576842546008e-13 0:86 1:144 2:156 3:71 4:129 5:141 6:95 7:144 8:149 9:117 10:166 11:171 12:121 13:166 14:163 15:83 16:128 17:125 18:107 19:157 20:166 21:142 22:192 23:201 24:87 25:151 26:166 27:76 28:140 29:155 30:76 31:137 32:154 33:89 34:150 35:167 36:108 37:156 38:163 39:90 40:138 41:145 42:101 43:149 44:151 45:126 46:174 47:176 48:120 49:166 50:180 51:123 52:169 53:183 54:110 55:150 56:169 57:105 58:145 59:164 60:106 61:149 62:159 63:109 64:152 65:162 66:104 67:148 68:155 69:102 70:146 71:153 72:86 73:150 74:165 75:93 76:157 77:172 78:60 79:128 80:138 81:82 82:150 83:160 84:113 85:173 86:178 87:96 88:156 89:161 90:96 91:142 92:156 93:98 94:144 95:158 96:74 97:147 98:161 99:78 100:151 101:165 102:54 103:137 104:141 105:66 106:149 107:153 108:105 109:175 110:178 111:86 112:156 113:159 114:71 115:130 116:146 117:65 118:124 119:140 120:94 121:161 122:165 123:83 124:150 125:154 126:80 127:159 128:161 129:58 130:137 131:139 132:49 133:128 134:130 135:83 136:162 137:164 138:103 139:167 140:174 141:98 142:162 143:169 144:63 145:148 146:140 147:57 148:142 149:134 150:82 151:164 152:157 153:79 154:161 155:154 156:79 157:152 158:153 159:79 160:152 161:153 162:103 163:166 164:169 165:115 166:178 167:181 168:49 169:134 170:125 171:68 172:153 173:144 174:100 175:166 176:160 177:109 178:175 179:169 180:119 181:176 182:177 183:84 184:141 185:142 186:63 187:133 188:136 189:85 190:155 191:158 192:-1 
2.026758378957816e-12 0:46 1:125 2:129 3:58 4:130 5:133 6:86 7:158 8:161 9:108 10:166 11:165 12:81 13:139 14:138 15:104 16:159 17:160 18:137 19:192 20:193 21:111 22:164 23:170 24:70 25:135 26:139 27:85 28:144 29:140 30:107 31:166 32:162 33:129 34:177 35:179 36:128 37:176 38:178 39:123 40:173 41:175 42:133 43:183 44:185 45:103 46:160 47:161 48:133 49:174 50:182 51:153 52:189 53:187 54:153 55:189 56:187 57:143 58:183 59:182 60:142 61:182 62:181 63:125 64:180 65:181 66:124 67:179 68:180 69:81 70:152 71:151 72:71 73:129 74:141 75:95 76:144 77:149 78:117 79:166 80:171 81:121 82:166 83:163 84:83 85:128 86:125 87:107 88:157 89:166 90:142 91:192 92:201 93:109 94:168 95:171 96:76 97:140 98:155 99:76 100:137 101:154 102:89 103:150 104:167 105:108 106:156 107:163 108:90 109:138 110:145 111:101 112:149 113:151 114:126 115:174 116:176 117:114 118:166 119:168 120:123 121:169 122:183 123:110 124:150 125:169 126:105 127:145 128:164 129:106 130:149 131:159 132:109 133:152 134:162 135:104 136:148 137:155 138:102 139:146 140:153 141:107 142:159 143:168 144:93 145:157 146:172 147:60 148:128 149:138 150:82 151:150 152:160 153:113 154:173 155:178 156:96 157:156 158:161 159:96 160:142 161:156 162:98 163:144 164:158 165:119 166:174 167:188 168:78 169:151 170:165 171:54 172:137 173:141 174:66 175:149 176:153 177:105 178:175 179:178 180:86 181:156 182:159 183:71 184:130 185:146 186:65 187:124 188:140 189:109 190:175 191:196 192:-1 
2.806768351028552e-13 0:97 1:148 2:154 3:80 4:131 5:137 6:79 7:127 8:136 9:90 10:138 11:147 12:123 13:160 14:168 15:112 16:149 17:157 18:113 19:144 20:149 21:142 22:173 23:178 24:124 25:159 26:166 27:114 28:149 29:156 30:125 31:154 32:164 33:139 34:168 35:178 36:109 37:150 38:158 39:65 40:106 41:114 42:32 43:84 44:80 45:106 46:158 47:154 48:109 49:149 50:155 51:99 52:139 53:145 54:95 55:132 56:140 57:100 58:137 59:145 60:64 61:120 62:125 63:41 64:97 65:102 66:21 67:87 68:82 69:76 70:142 71:137 72:96 73:137 74:145 75:93 76:134 77:142 78:63 79:102 80:110 81:34 82:73 83:81 84:45 85:97 86:101 87:61 88:113 89:117 90:62 91:122 92:114 93:78 94:138 95:130 96:98 97:137 98:145 99:98 100:137 101:145 102:58 103:104 104:105 105:3 106:49 107:50 108:12 109:63 110:55 111:53 112:104 113:96 114:94 115:147 116:134 117:89 118:142 119:129 120:92 121:140 122:142 123:97 124:145 125:147 126:80 127:132 128:134 129:47 130:99 131:101 132:32 133:86 134:75 135:47 136:101 137:90 138:96 139:157 140:132 141:100 142:161 143:136 144:95 145:139 146:140 147:104 148:148 149:149 150:128 151:161 152:160 153:132 154:165 155:164 156:127 157:159 158:154 159:114 160:146 161:141 162:111 163:154 164:143 165:128 166:171 167:160 168:88 169:136 170:130 171:88 172:136 173:130 174:116 175:155 176:144 177:134 178:173 179:162 180:136 181:168 182:163 183:117 184:149 185:144 186:90 187:134 188:127 189:127 190:171 191:164 192:-1 
4.726409050258094e-12 0:108 1:149 2:157 3:95 4:136 5:144 6:99 7:141 8:147 9:105 10:147 11:153 12:124 13:164 14:163 15:123 16:163 17:162 18:104 19:147 20:144 21:87 22:130 23:127 24:91 25:142 26:148 27:90 28:141 29:147 30:91 31:137 32:144 33:82 34:128 35:135 36:89 37:137 38:138 39:96 40:144 41:145 42:98 43:148 44:144 45:100 46:150 47:146 48:71 49:125 50:142 51:94 52:148 53:165 54:86 55:142 56:152 57:53 58:109 59:119 60:43 61:106 62:110 63:66 64:129 65:133 66:95 67:148 68:148 69:98 70:151 71:151 72:79 73:128 74:146 75:88 76:137 77:155 78:96 79:144 80:159 81:84 82:132 83:147 84:68 85:120 86:130 87:70 88:122 89:132 90:112 91:158 92:165 93:113 94:159 95:166 96:77 97:134 98:148 99:73 100:130 101:144 102:80 103:136 104:154 105:82 106:138 107:156 108:75 109:131 110:136 111:74 112:130 113:135 114:120 115:164 116:165 117:127 118:171 119:172 120:108 121:153 122:163 123:102 124:147 125:157 126:98 127:143 128:154 129:90 130:135 131:146 132:80 133:130 134:132 135:70 136:120 137:122 138:88 139:135 140:132 141:116 142:163 143:160 144:106 145:153 146:158 147:103 148:150 149:155 150:98 151:145 152:150 153:83 154:130 155:135 156:75 157:130 158:125 159:67 160:122 161:117 162:75 163:127 164:123 165:98 166:150 167:146 168:76 169:139 170:143 171:78 172:141 173:145 174:85 175:140 176:140 177:78 178:133 179:133 180:74 181:133 182:129 183:74 184:133 185:129 186:86 187:137 188:135 189:95 190:146 191:144 192:-1 
9.619126158705526e-13 0:103 1:147 2:154 3:115 4:159 5:166 6:91 7:135 8:149 9:63 10:107 11:121 12:6 13:50 14:49 15:27 16:71 17:70 18:76 19:123 20:107 21:112 22:159 23:143 24:97 25:148 26:154 27:107 28:158 29:164 30:57 31:117 32:130 33:38 34:98 35:111 36:11 37:73 38:80 39:36 40:98 41:105 42:44 43:106 44:98 45:64 46:126 47:118 48:111 49:151 50:163 51:120 52:160 53:172 54:84 55:129 56:139 57:96 58:141 59:151 60:97 61:147 62:149 63:102 64:152 65:154 66:86 67:134 68:136 69:84 70:132 71:134 72:99 73:147 74:156 75:105 76:153 77:162 78:85 79:130 80:140 81:93 82:138 83:148 84:96 85:144 86:151 87:91 88:139 89:146 90:87 91:135 92:142 93:86 94:134 95:141 96:84 97:141 98:142 99:81 100:138 101:139 102:52 103:119 104:123 105:56 106:123 107:127 108:58 109:129 110:136 111:59 112:130 113:137 114:77 115:137 116:144 117:74 118:134 119:141 120:84 121:135 122:141 123:82 124:133 125:139 126:68 127:128 128:135 129:74 130:134 131:141 132:78 133:136 134:141 135:74 136:132 137:137 138:83 139:131 140:138 141:80 142:128 143:135 144:80 145:122 146:115 147:84 148:126 149:119 150:108 151:145 152:145 153:115 154:152 155:152 156:115 157:151 158:154 159:98 160:134 161:137 162:88 163:125 164:132 165:88 166:125 167:132 168:39 169:92 170:85 171:63 172:116 173:109 174:97 175:147 176:136 177:104 178:154 179:143 180:107 181:147 182:146 183:87 184:127 185:126 186:75 187:119 188:125 189:77 190:121 191:127 192:-1 
1.698228341085805e-12 0:98 1:150 2:146 3:107 4:159 5:155 6:101 7:153 8:149 9:96 10:148 11:144 12:100 13:152 14:148 15:102 16:154 17:150 18:102 19:156 20:147 21:98 22:152 23:143 24:78 25:139 26:135 27:96 28:157 29:153 30:107 31:156 32:154 33:109 34:158 35:156 36:120 37:164 38:163 39:121 40:165 41:164 42:112 43:158 44:152 45:102 46:148 47:142 48:52 49:130 50:123 51:87 52:165 53:158 54:109 55:165 56:162 57:115 58:171 59:168 60:139 61:179 62:178 63:132 64:172 65:171 66:116 67:156 68:154 69:104 70:144 71:142 72:102 73:151 74:149 75:123 76:172 77:170 78:135 79:172 80:172 81:131 82:168 83:168 84:141 85:176 86:176 87:127 88:162 89:162 90:106 91:146 92:145 93:101 94:141 95:140 96:120 97:160 98:159 99:125 100:165 101:164 102:133 103:165 104:166 105:132 106:164 107:165 108:130 109:162 110:163 111:117 112:149 113:150 114:93 115:136 116:133 117:92 118:135 119:132 120:115 121:159 122:158 123:107 124:151 125:150 126:108 127:153 128:150 129:115 130:160 131:157 132:98 133:148 134:144 135:90 136:140 137:136 138:72 139:131 140:126 141:64 142:123 143:118 144:123 145:166 146:161 147:121 148:164 149:159 150:111 151:158 152:155 153:106 154:153 155:150 156:81 157:140 158:136 159:80 160:139 161:135 162:68 163:136 164:131 165:47 166:115 167:110 168:121 169:160 170:154 171:127 172:166 173:160 174:122 175:162 176:160 177:117 178:157 179:155 180:111 181:160 182:158 183:109 184:158 185:156 186:92 187:145 188:145 189:69 190:122 191:122 192:-1 
5.538845770568773e-13 0:110 1:143 2:150 3:104 4:151 5:162 6:80 7:127 8:138 9:44 10:102 11:107 12:18 13:76 14:81 15:0 16:49 17:41 18:47 19:98 20:90 21:60 22:109 23:101 24:111 25:140 26:145 27:137 28:173 29:184 30:139 31:175 32:186 33:48 34:106 35:111 36:2 37:60 38:65 39:0 40:57 41:51 42:30 43:94 44:88 45:38 46:96 47:87 48:110 49:138 50:139 51:128 52:154 53:167 54:151 55:177 56:190 57:125 58:162 59:170 60:120 61:157 62:165 63:107 64:151 65:157 66:83 67:127 68:133 69:75 70:115 71:119 72:95 73:128 74:133 75:94 76:126 77:135 78:119 79:151 80:160 81:155 82:186 83:191 84:161 85:192 86:197 87:155 88:180 89:189 90:118 91:143 92:152 93:106 94:137 95:142 96:81 97:107 98:120 99:59 100:98 101:100 102:70 103:109 104:111 105:94 106:138 107:131 108:90 109:134 110:127 111:100 112:137 113:145 114:101 115:138 116:146 117:89 118:129 119:135 120:88 121:117 122:129 123:91 124:121 125:129 126:91 127:121 128:129 129:88 130:127 131:129 132:83 133:122 134:124 135:102 136:139 137:147 138:118 139:155 140:163 141:104 142:146 143:152 144:75 145:114 146:122 147:71 148:116 149:119 150:68 151:113 152:116 153:86 154:133 155:125 156:97 157:144 158:136 159:115 160:153 161:151 162:108 163:146 164:144 165:94 166:138 167:137 168:79 169:119 170:123 171:47 172:91 173:92 174:0 175:42 176:43 177:7 178:42 179:34 180:9 181:44 182:36 183:39 184:73 185:55 186:80 187:114 188:96 189:80 190:122 191:100 192:-1 
2.127120270688094e-12 0:39 1:104 2:82 3:38 4:103 5:81 6:47 7:104 8:84 9:94 10:151 11:131 12:100 13:151 14:149 15:109 16:160 17:158 18:50 19:115 20:106 21:30 22:95 23:86 24:31 25:106 26:94 27:24 28:99 29:87 30:28 31:101 32:89 33:77 34:150 35:138 36:91 37:151 38:150 39:102 40:162 41:161 42:88 43:148 44:155 45:62 46:122 47:129 48:79 49:133 50:130 51:45 52:99 53:96 54:21 55:82 56:78 57:88 58:149 59:145 60:108 61:156 62:158 63:123 64:171 65:173 66:129 67:168 68:176 69:108 70:147 71:155 72:104 73:147 74:144 75:87 76:130 77:127 78:74 79:122 80:124 81:102 82:150 83:152 84:122 85:159 86:167 87:127 88:164 89:172 90:137 91:168 92:173 93:136 94:167 95:172 96:98 97:148 98:144 99:100 100:150 101:146 102:104 103:149 104:152 105:100 106:145 107:148 108:103 109:144 110:152 111:118 112:159 113:167 114:137 115:170 116:177 117:143 118:176 119:183 120:95 121:148 122:148 123:98 124:151 125:151 126:118 127:158 128:164 129:123 130:163 131:169 132:109 133:145 134:156 135:106 136:142 137:153 138:103 139:139 140:150 141:109 142:145 143:156 144:112 145:158 146:165 147:113 148:159 149:166 150:127 151:164 152:172 153:118 154:155 155:163 156:98 157:144 158:151 159:90 160:136 161:143 162:61 163:114 164:128 165:71 166:124 167:138 168:120 169:164 170:165 171:127 172:171 173:172 174:121 175:162 176:170 177:89 178:130 179:138 180:72 181:133 182:142 183:69 184:130 185:139 186:38 187:108 188:118 189:56 190:126 191:136 192:-1 
8.592398561593384e-13 0:85 1:144 2:140 3:107 4:166 5:162 6:129 7:177 8:179 9:128 10:176 11:178 12:123 13:173 14:175 15:133 16:183 17:185 18:103 19:160 20:161 21:96 22:153 23:154 24:153 25:189 26:187 27:153 28:189 29:187 30:143 31:183 32:182 33:142 34:182 35:181 36:125 37:180 38:181 39:124 40:179 41:180 42:81 43:152 44:151 45:65 46:136 47:135 48:95 49:144 50:149 51:117 52:166 53:171 54:121 55:166 56:163 57:83 58:128 59:125 60:107 61:157 62:166 63:142 64:192 65:201 66:109 67:168 68:171 69:84 70:143 71:146 72:76 73:137 74:154 75:89 76:150 77:167 78:108 79:156 80:163 81:90 82:138 83:145 84:101 85:149 86:151 87:126 88:174 89:176 90:114 91:166 92:168 93:107 94:159 95:161 96:110 97:150 98:169 99:105 100:145 101:164 102:106 103:149 104:159 105:109 106:152 107:162 108:104 109:148 110:155 111:102 112:146 113:153 114:107 115:159 116:168 117:101 118:153 119:162 120:60 121:128 122:138 123:82 124:150 125:160 126:113 127:173 128:178 129:96 130:156 131:161 132:96 133:142 134:156 135:98 136:144 137:158 138:119 139:174 140:188 141:103 142:158 143:172 144:54 145:137 146:141 147:66 148:149 149:153 150:105 151:175 152:178 153:86 154:156 155:159 156:71 157:130 158:146 159:65 160:124 161:140 162:109 163:175 164:196 165:119 166:185 167:206 168:80 169:159 170:161 171:58 172:137 173:139 174:49 175:128 176:130 177:83 178:162 179:164 180:103 181:167 182:174 183:98 184:162 185:169 186:131 187:180 188:191 189:140 190:189 191:200 192:-1 
3.352156907550762e-12 0:114 1:157 2:160 3:112 4:155 5:158 6:115 7:153 8:164 9:125 10:163 11:174 12:117 13:156 14:164 15:104 16:143 17:151 18:101 19:148 20:153 21:97 22:144 23:149 24:140 25:172 26:175 27:121 28:153 29:156 30:100 31:139 32:147 33:117 34:156 35:164 36:108 37:152 38:158 39:87 40:131 41:137 42:90 43:141 44:147 45:83 46:134 47:140 48:120 49:164 50:165 51:100 52:144 53:145 54:82 55:126 56:133 57:103 58:147 59:154 60:96 61:143 62:148 63:92 64:139 65:144 66:102 67:146 68:153 69:108 70:152 71:159 72:82 73:133 74:133 75:90 76:141 77:141 78:102 79:139 80:146 81:122 82:159 83:166 84:120 85:156 86:160 87:113 88:149 89:153 90:109 91:144 92:151 93:117 94:152 95:159 96:92 97:132 98:130 99:90 100:130 101:128 102:100 103:133 104:132 105:117 106:150 107:149 108:125 109:157 110:158 111:122 112:154 113:155 114:100 115:139 116:141 117:95 118:134 119:136 120:78 121:141 122:137 123:54 124:117 125:113 126:32 127:100 128:95 129:46 130:114 131:109 132:53 133:119 134:114 135:61 136:127 137:122 138:77 139:132 140:127 141:73 142:128 143:123 144:94 145:151 146:159 147:95 148:152 149:160 150:74 151:137 152:141 153:50 154:113 155:117 156:43 157:111 158:106 159:56 160:124 161:119 162:60 163:128 164:117 165:62 166:130 167:119 168:121 169:161 170:167 171:116 172:156 173:162 174:90 175:139 176:144 177:64 178:113 179:118 180:62 181:128 182:122 183:81 184:147 185:141 186:42 187:115 188:101 189:30 190:103 191:89 192:-1 
2.05668783231202e-12 0:64 1:119 2:99 3:117 4:172 5:152 6:121 7:170 8:168 9:84 10:133 11:131 12:39 13:101 14:101 15:45 16:107 17:107 18:56 19:121 20:119 21:64 22:129 23:127 24:28 25:75 26:80 27:109 28:156 29:161 30:127 31:168 32:176 33:101 34:142 35:150 36:71 37:131 38:136 39:67 40:127 41:132 42:62 43:125 44:128 45:65 46:128 47:131 48:52 49:96 50:110 51:86 52:130 53:144 54:126 55:168 56:174 57:121 58:163 59:169 60:103 61:150 62:155 63:95 64:142 65:147 66:49 67:111 68:111 69:41 70:103 71:103 72:133 73:164 74:189 75:116 76:147 77:172 78:95 79:133 80:152 81:90 82:128 83:147 84:92 85:141 86:139 87:102 88:151 89:149 90:104 91:154 92:150 93:83 94:133 95:129 96:152 97:188 98:212 99:130 100:166 101:190 102:81 103:130 104:149 105:74 106:123 107:142 108:96 109:145 110:143 111:104 112:153 113:151 114:121 115:164 116:159 117:129 118:172 119:167 120:155 121:191 122:202 123:153 124:189 125:200 126:105 127:148 128:164 129:90 130:133 131:149 132:66 133:129 134:133 135:62 136:125 137:129 138:47 139:123 140:121 141:79 142:155 143:153 144:131 145:160 146:172 147:127 148:156 149:168 150:103 151:146 152:156 153:81 154:124 155:134 156:58 157:120 158:133 159:58 160:120 161:133 162:41 163:117 164:128 165:48 166:124 167:135 168:89 169:123 170:126 171:84 172:118 173:121 174:107 175:144 176:152 177:91 178:128 179:136 180:98 181:135 182:148 183:113 184:150 185:163 186:104 187:149 188:160 189:78 190:123 191:134 192:-1 
7.377377385791313e-13 0:130 1:162 2:165 3:114 4:151 5:159 6:72 7:109 8:117 9:23 10:79 11:84 12:39 13:95 14:100 15:57 16:125 17:114 18:77 19:145 20:134 21:112 22:169 23:164 24:91 25:128 26:128 27:114 28:151 29:151 30:116 31:153 32:153 33:98 34:146 35:153 36:82 37:130 38:137 39:49 40:114 41:112 42:59 43:124 44:122 45:108 46:168 47:160 48:76 49:124 50:125 51:113 52:157 53:150 54:123 55:167 56:160 57:121 58:164 59:167 60:95 61:138 62:141 63:82 64:132 65:134 66:91 67:141 68:143 69:116 70:167 71:160 72:86 73:137 74:129 75:111 76:162 77:154 78:85 79:136 80:128 81:79 82:127 83:128 84:104 85:152 86:153 87:123 88:168 89:171 90:119 91:164 92:167 93:106 94:153 95:151 96:75 97:133 98:125 99:89 100:148 101:144 102:71 103:130 104:126 105:66 106:117 107:117 108:94 109:145 110:145 111:123 112:169 113:170 114:115 115:161 116:162 117:93 118:142 119:140 120:43 121:117 122:114 123:46 124:127 125:124 126:57 127:138 128:135 129:63 130:126 131:129 132:55 133:118 134:121 135:102 136:148 137:155 138:98 139:144 140:151 141:85 142:133 143:135 144:74 145:126 146:128 147:33 148:104 149:103 150:55 151:126 152:125 153:60 154:130 155:133 156:31 157:101 158:104 159:40 160:101 161:110 162:37 163:98 164:107 165:24 166:86 167:86 168:104 169:149 170:159 171:64 172:128 173:136 174:63 175:127 176:135 177:63 178:135 179:138 180:58 181:130 182:133 183:62 184:125 185:129 186:60 187:123 188:127 189:51 190:112 191:115 192:-1 
4.215307325858565e-12 0:81 1:117 2:120 3:76 4:112 5:115 6:73 7:114 8:109 9:79 10:120 11:115 12:69 13:118 14:110 15:60 16:109 17:101 18:53 19:104 20:96 21:47 22:98 23:90 24:79 25:112 26:124 27:76 28:109 29:121 30:77 31:110 32:122 33:75 34:108 35:120 36:75 37:113 38:117 39:75 40:113 41:117 42:76 43:120 44:113 45:95 46:139 47:132 48:81 49:109 50:123 51:70 52:98 53:112 54:80 55:108 56:129 57:98 58:126 59:147 60:100 61:132 62:141 63:89 64:121 65:130 66:82 67:120 68:124 69:85 70:123 71:127 72:89 73:110 74:119 75:95 76:116 77:125 78:101 79:121 80:139 81:100 82:120 83:138 84:94 85:120 86:133 87:100 88:126 89:139 90:57 91:86 92:96 93:26 94:55 95:65 96:101 97:113 98:121 99:123 100:135 101:143 102:120 103:130 104:151 105:86 106:96 107:117 108:69 109:86 110:113 111:89 112:106 113:133 114:33 115:62 116:72 117:10 118:39 119:49 120:76 121:97 122:112 123:97 124:118 125:133 126:119 127:131 128:159 129:96 130:108 131:136 132:75 133:97 134:123 135:73 136:95 137:121 138:42 139:85 140:95 141:47 142:90 143:100 144:17 145:50 146:62 147:47 148:80 149:92 150:70 151:95 152:118 153:60 154:85 155:108 156:67 157:94 158:111 159:97 160:124 161:141 162:99 163:135 164:139 165:92 166:128 167:132 168:27 169:56 170:66 171:11 172:40 173:50 174:8 175:27 176:49 177:0 178:19 179:41 180:35 181:55 182:66 183:114 184:134 185:145 186:110 187:138 188:146 189:102 190:130 191:138 192:-1 
1.075973653267415e-12 0:100 1:143 2:132 3:104 4:141 5:135 6:87 7:124 8:118 9:46 10:83 11:70 12:0 13:37 14:24 15:31 16:55 17:48 18:89 19:113 20:106 21:156 22:166 23:174 24:100 25:144 26:130 27:120 28:153 29:145 30:95 31:128 32:120 33:33 34:62 35:53 36:0 37:23 38:14 39:118 40:138 41:136 42:161 43:181 44:179 45:180 46:188 47:201 48:82 49:132 50:120 51:116 52:152 53:142 54:86 55:122 56:112 57:26 58:54 59:47 60:28 61:56 62:49 63:150 64:168 65:171 66:175 67:193 68:196 69:178 70:193 71:199 72:79 73:115 74:105 75:113 76:147 77:137 78:89 79:123 80:113 81:83 82:114 83:106 84:112 85:143 86:135 87:145 88:163 89:166 90:143 91:161 92:164 93:132 94:139 95:155 96:101 97:125 98:138 99:84 100:104 101:115 102:67 103:87 104:98 105:115 106:132 107:138 108:150 109:167 110:173 111:167 112:181 113:191 114:148 115:162 116:172 117:104 118:119 119:125 120:86 121:107 122:122 123:24 124:35 125:54 126:61 127:72 128:91 129:144 130:151 131:167 132:178 133:185 134:201 135:178 136:187 137:198 138:136 139:145 140:156 141:48 142:61 143:65 144:23 145:42 146:49 147:84 148:98 149:108 150:139 151:153 152:163 153:167 154:177 155:192 156:173 157:183 158:198 159:140 160:148 161:161 162:81 163:89 164:102 165:9 166:21 167:29 168:82 169:93 170:97 171:134 172:140 173:153 174:174 175:180 176:193 177:177 178:183 179:195 180:166 181:172 182:184 183:63 184:78 185:77 186:24 187:39 188:38 189:59 190:89 191:90 192:-1 
5.026229383266688e-14 0:77 1:104 2:88 3:145 4:155 5:155 6:171 7:181 8:181 9:194 10:190 11:212 12:146 13:142 14:164 15:61 16:64 17:93 18:17 19:20 20:49 21:40 22:58 23:69 24:150 25:168 26:158 27:200 28:201 29:209 30:199 31:200 32:208 33:166 34:167 35:175 36:61 37:62 38:70 39:12 40:19 41:22 42:34 43:41 44:44 45:80 46:95 47:88 48:188 49:201 50:205 51:190 52:195 53:204 54:157 55:162 56:171 57:71 58:87 59:90 60:25 61:41 62:44 63:16 64:44 65:39 66:26 67:54 68:49 69:26 70:64 71:42 72:196 73:203 74:212 75:150 76:160 77:168 78:96 79:106 80:114 81:34 82:56 83:67 84:57 85:79 86:90 87:57 88:95 89:99 90:45 91:83 92:87 93:51 94:90 95:77 96:185 97:191 98:196 99:89 100:92 101:93 102:29 103:32 104:33 105:14 106:25 107:29 108:56 109:67 110:71 111:81 112:104 113:106 114:116 115:139 116:141 117:132 118:157 119:153 120:140 121:140 122:150 123:26 124:30 125:35 126:15 127:19 128:24 129:26 130:46 131:38 132:70 133:90 134:82 135:102 136:129 137:118 138:114 139:141 140:130 141:98 142:126 143:121 144:64 145:69 146:78 147:27 148:40 149:46 150:46 151:59 152:65 153:75 154:104 155:101 156:87 157:116 158:113 159:84 160:123 161:118 162:43 163:82 164:77 165:11 166:49 167:47 168:33 169:56 170:58 171:75 172:114 173:108 174:84 175:123 176:117 177:64 178:111 179:109 180:52 181:99 182:97 183:22 184:67 185:64 186:0 187:34 188:31 189:3 190:38 191:32 192:-1 
1.900259423884908e-13 0:64 1:128 2:102 3:52 4:107 5:87 6:42 7:97 8:77 9:131 10:166 11:158 12:189 13:224 14:216 15:197 16:208 17:212 18:159 19:170 20:174 21:113 22:126 23:138 24:43 25:116 26:89 27:41 28:95 29:84 30:116 31:170 32:159 33:186 34:211 35:215 36:194 37:219 38:223 39:176 40:188 41:190 42:145 43:157 44:159 45:95 46:117 47:122 48:34 49:88 50:77 51:95 52:133 53:131 54:181 55:219 56:217 57:202 58:218 59:221 60:185 61:201 62:204 63:164 64:170 65:175 66:129 67:135 68:140 69:69 70:96 71:93 72:80 73:106 74:99 75:171 76:181 77:189 78:200 79:210 80:218 81:175 82:182 83:191 84:174 85:181 86:190 87:140 88:148 89:155 90:77 91:85 92:92 93:9 94:26 95:27 96:147 97:174 98:165 99:197 100:205 101:212 102:183 103:191 104:198 105:168 106:171 107:185 108:162 109:165 110:179 111:73 112:86 113:90 114:37 115:50 116:54 117:43 118:73 119:68 120:194 121:211 122:217 123:197 124:200 125:208 126:188 127:191 128:199 129:169 130:168 131:182 132:117 133:116 134:130 135:14 136:24 137:32 138:33 139:43 140:51 141:84 142:118 143:108 144:165 145:178 146:190 147:167 148:168 149:182 150:161 151:162 152:176 153:83 154:95 155:103 156:17 157:29 158:37 159:40 160:78 161:69 162:68 163:106 164:97 165:71 166:124 167:103 168:174 169:187 170:199 171:169 172:179 173:192 174:98 175:108 176:121 177:24 178:47 179:56 180:0 181:17 182:26 183:67 184:109 185:102 186:88 187:130 188:123 189:82 190:128 191:122 192:-1 
-6.838124146205226e-13 0:144 1:178 2:168 3:144 4:178 5:168 6:137 7:173 8:163 9:143 10:179 11:169 12:155 13:184 14:175 15:161 16:190 17:181 18:175 19:195 20:187 21:177 22:197 23:189 24:154 25:184 26:172 27:154 28:184 29:172 30:157 31:184 32:173 33:161 34:188 35:177 36:170 37:190 38:182 39:180 40:200 41:192 42:189 43:205 44:200 45:186 46:202 47:197 48:164 49:185 50:179 51:164 52:185 53:179 54:169 55:189 56:181 57:177 58:197 59:189 60:184 61:198 62:193 63:188 64:202 65:197 66:193 67:208 68:201 69:191 70:206 71:199 72:175 73:194 74:188 75:175 76:194 77:188 78:173 79:193 80:185 81:181 82:201 83:193 84:187 85:201 86:196 87:188 88:202 89:197 90:194 91:208 92:203 93:194 94:208 95:203 96:197 97:210 98:208 99:182 100:195 101:193 102:139 103:158 104:152 105:132 106:151 107:145 108:127 109:150 110:146 111:141 112:164 113:160 114:156 115:178 116:170 117:160 118:182 119:174 120:211 121:220 122:216 123:195 124:204 125:200 126:144 127:164 128:156 129:130 130:150 131:142 132:116 133:142 134:135 135:131 136:157 137:150 138:136 139:167 140:158 141:143 142:174 143:165 144:220 145:228 146:222 147:207 148:215 149:209 150:169 151:183 152:172 153:154 154:168 155:157 156:131 157:158 158:149 159:125 160:152 161:143 162:113 163:153 164:144 165:124 166:164 167:155 168:187 169:202 170:188 171:185 172:200 173:186 174:160 175:181 176:162 177:148 178:169 179:150 180:125 181:159 182:142 183:119 184:153 185:136 186:108 187:153 188:143 189:113 190:158 191:148 192:-1 
-3.96374170040933e-12 0:198 1:208 2:202 3:178 4:195 5:188 6:175 7:192 8:185 9:175 10:196 11:184 12:173 13:194 14:182 15:176 16:197 17:185 18:171 19:192 20:180 21:167 22:189 23:174 24:185 25:197 26:191 27:191 28:203 29:197 30:193 31:205 32:199 33:191 34:206 35:199 36:183 37:198 38:191 39:176 40:197 41:185 42:161 43:182 44:170 45:146 46:176 47:156 48:181 49:193 50:188 51:197 52:207 53:201 54:202 55:212 56:206 57:204 58:214 59:208 60:202 61:212 62:206 63:183 64:200 65:193 66:166 67:183 68:176 69:151 70:180 71:164 72:197 73:204 74:200 75:202 76:212 77:206 78:202 79:212 80:206 81:191 82:206 83:199 84:185 85:200 86:193 87:173 88:196 89:185 90:173 91:196 92:185 93:168 94:196 95:183 96:191 97:201 98:195 99:190 100:206 101:196 102:188 103:204 104:194 105:174 106:194 107:184 108:169 109:189 110:179 111:157 112:187 113:175 114:158 115:188 116:176 117:154 118:187 119:173 120:186 121:198 122:193 123:174 124:194 125:184 126:170 127:190 128:180 129:148 130:183 131:170 132:148 133:183 134:170 135:144 136:181 137:168 138:142 139:179 140:166 141:136 142:176 143:161 144:167 145:187 146:179 147:140 148:175 149:167 150:122 151:157 152:149 153:101 154:154 155:141 156:113 157:166 158:153 159:118 160:173 161:153 162:111 163:166 164:146 165:114 166:161 167:145 168:154 169:178 170:171 171:131 172:170 173:157 174:115 175:154 176:141 177:100 178:157 179:139 180:109 181:166 182:148 183:108 184:167 185:149 186:105 187:164 188:146 189:110 190:164 191:147 192:-1 
-1.117866138459863e-12 0:27 1:23 2:53 3:81 4:82 5:117 6:150 7:151 8:186 9:153 10:158 11:187 12:141 13:146 14:175 15:118 16:133 17:166 18:102 19:117 20:150 21:70 22:104 23:147 24:46 25:44 26:67 27:95 28:95 29:125 30:144 31:144 32:174 33:160 34:160 35:190 36:153 37:153 38:183 39:134 40:142 41:170 42:120 43:128 44:156 45:102 46:122 47:159 48:58 49:56 50:79 51:106 52:105 53:126 54:131 55:130 56:151 57:154 58:150 59:180 60:173 61:169 62:199 63:158 64:158 65:188 66:138 67:138 68:168 69:119 70:130 71:162 72:62 73:57 74:83 75:114 76:113 77:134 78:118 79:117 80:138 81:132 82:127 83:153 84:170 85:165 86:191 87:179 88:173 89:201 90:166 91:160 92:188 93:138 94:142 95:173 96:62 97:58 98:80 99:119 100:117 101:134 102:112 103:110 104:127 105:90 106:86 107:108 108:124 109:120 110:142 111:167 112:163 113:191 114:186 115:182 116:210 117:175 118:178 119:207 120:44 121:42 122:72 123:103 124:106 125:128 126:123 127:126 128:148 129:91 130:96 131:125 132:73 133:78 134:107 135:101 136:104 137:146 138:142 139:145 140:187 141:159 142:159 143:197 144:14 145:23 146:60 147:67 148:73 149:112 150:134 151:140 152:179 153:115 154:122 155:152 156:66 157:73 158:103 159:35 160:43 161:97 162:51 163:59 164:113 165:65 166:77 167:139 168:55 169:60 170:103 171:27 172:29 173:80 174:115 175:117 176:168 177:125 178:129 179:160 180:104 181:108 182:139 183:67 184:74 185:117 186:41 187:48 188:91 189:19 190:30 191:102 192:-1 
-2.118538737873784e-12 0:136 1:178 2:171 3:137 4:179 5:172 6:139 7:179 8:170 9:139 10:179 11:170 12:145 13:180 14:174 15:149 16:184 17:178 18:148 19:183 20:177 21:147 22:182 23:176 24:144 25:180 26:170 27:143 28:179 29:169 30:144 31:180 32:170 33:144 34:180 35:170 36:150 37:181 38:172 39:158 40:189 41:180 42:168 43:197 44:188 45:163 46:192 47:183 48:146 49:182 50:172 51:146 52:182 53:172 54:145 55:180 56:172 57:140 58:175 59:167 60:146 61:174 62:167 63:156 64:184 65:177 66:172 67:196 68:188 69:171 70:195 71:187 72:150 73:183 74:175 75:151 76:184 77:176 78:154 79:182 80:177 81:144 82:172 83:167 84:144 85:170 86:163 87:150 88:176 89:169 90:165 91:189 92:182 93:171 94:195 95:188 96:149 97:181 98:176 99:154 100:186 101:181 102:170 103:196 104:189 105:174 106:200 107:193 108:165 109:189 110:181 111:158 112:182 113:174 114:158 115:180 116:172 117:165 118:187 119:179 120:145 121:173 122:168 123:162 124:190 125:185 126:187 127:205 128:202 129:192 130:210 131:207 132:185 133:199 134:194 135:179 136:193 137:188 138:174 139:191 140:184 141:173 142:190 143:183 144:163 145:190 146:181 147:181 148:208 149:199 150:202 151:218 152:215 153:195 154:211 155:208 156:192 157:203 158:201 159:196 160:207 161:205 162:200 163:212 164:207 165:187 166:199 167:194 168:171 169:195 170:187 171:180 172:204 173:196 174:197 175:212 176:205 177:195 178:210 179:203 180:198 181:208 182:202 183:203 184:213 185:207 186:208 187:217 188:213 189:198 190:207 191:203 192:-1 
-2.231628549294202e-11 0:47 1:92 2:142 3:46 4:91 5:141 6:42 7:89 8:141 9:43 10:90 11:142 12:44 13:89 14:146 15:44 16:89 17:146 18:44 19:89 20:147 21:46 22:91 23:149 24:45 25:93 26:142 27:43 28:91 29:140 30:43 31:90 32:142 33:43 34:90 35:142 36:43 37:90 38:142 39:44 40:91 41:143 42:47 43:91 44:145 45:47 46:91 47:145 48:51 49:95 50:143 51:48 52:92 53:140 54:45 55:90 56:142 57:45 58:90 59:142 60:45 61:90 62:142 63:45 64:90 65:142 66:44 67:89 68:146 69:43 70:88 71:145 72:52 73:96 74:144 75:49 76:93 77:141 78:47 79:89 80:142 81:46 82:88 83:141 84:44 85:87 86:144 87:44 88:87 89:144 90:43 91:88 92:146 93:43 94:88 95:146 96:49 97:97 98:146 99:46 100:94 101:143 102:44 103:91 104:143 105:43 106:90 107:142 108:44 109:88 110:142 111:44 112:88 113:142 114:45 115:86 116:143 117:46 118:87 119:144 120:52 121:97 122:147 123:50 124:95 125:145 126:48 127:93 128:145 129:46 130:91 131:143 132:45 133:90 134:142 135:44 136:89 137:141 138:45 139:85 140:144 141:44 142:84 143:143 144:50 145:98 146:147 147:48 148:96 149:145 150:46 151:93 152:145 153:44 154:91 155:143 156:45 157:89 158:143 159:44 160:88 161:142 162:44 163:84 164:143 165:44 166:84 167:143 168:52 169:100 170:149 171:48 172:96 173:145 174:46 175:93 176:145 177:44 178:91 179:143 180:47 181:88 182:143 183:46 184:87 185:142 186:42 187:85 188:142 189:42 190:85 191:142 192:-1 
