svm_type c_svc
kernel_type rbf
gamma 0.0078125
nr_class 2
total_sv 19
rho -0.538462
label 1 -1
nr_sv 13 6
SV
0.4609375 0:35 1:99 2:35 3:101 4:35 5:92 6:35 7:94 8:32 9:61 10:32 11:49 12:28 13:34 14:28 15:35 16:32 17:94 18:32 19:98 20:35 21:112 22:35 23:112 24:41 25:90 26:41 27:81 28:40 29:64 30:40 31:64 32:37 33:123 34:37 35:126 36:37 37:143 38:37 39:150 40:41 41:155 42:41 43:168 44:39 45:153 46:39 47:118 48:41 49:132 50:41 51:147 52:40 53:137 54:40 55:152 56:42 57:181 58:42 59:221 60:41 61:172 62:41 63:106 64:45 65:136 66:45 67:136 68:39 69:112 70:39 71:105 72:35 73:104 74:35 75:108 76:36 77:124 78:36 79:113 80:39 81:119 82:39 83:120 84:36 85:126 86:36 87:125 88:33 89:146 90:33 91:145 92:33 93:147 94:33 95:166 96:35 97:90 98:35 99:92 100:35 101:99 102:35 103:107 104:35 105:130 106:35 107:121 108:34 109:124 110:34 111:139 112:37 113:110 114:37 115:102 116:35 117:82 118:35 119:91 120:35 121:98 122:35 123:90 124:35 125:82 126:35 127:87 128:-1 
0.4619140625 0:24 1:122 2:24 3:126 4:23 5:123 6:23 7:121 8:28 9:114 10:28 11:115 12:29 13:70 14:29 15:67 16:25 17:86 18:25 19:89 20:24 21:93 22:24 23:98 24:29 25:100 26:29 27:109 28:32 29:89 30:32 31:74 32:27 33:84 34:27 35:86 36:27 37:88 38:27 39:98 40:33 41:108 42:33 43:115 44:32 45:104 46:32 47:88 48:28 49:119 50:28 51:118 52:30 53:100 54:30 55:105 56:32 57:113 58:32 59:113 60:31 61:95 62:31 63:89 64:27 65:100 66:27 67:102 68:32 69:96 70:32 71:91 72:29 73:83 74:29 75:83 76:25 77:80 78:25 79:80 80:31 81:85 82:31 83:92 84:34 85:103 86:34 87:99 88:32 89:85 90:32 91:89 92:31 93:78 94:31 95:77 96:34 97:111 98:34 99:107 100:36 101:112 102:36 103:111 104:36 105:122 106:36 107:132 108:38 109:174 110:38 111:157 112:35 113:123 114:35 115:108 116:35 117:108 118:35 119:115 120:36 121:120 122:36 123:124 124:37 125:142 126:37 127:136 128:-1 
0.4609375 0:15 1:84 2:19 3:109 4:19 5:114 6:24 7:127 8:24 9:138 10:33 11:163 12:33 13:117 14:34 15:90 16:8 17:133 18:12 19:152 20:12 21:144 22:21 23:174 24:21 25:156 26:31 27:101 28:31 29:62 30:29 31:58 32:3 33:192 34:7 35:137 36:7 37:111 38:15 39:151 40:15 41:110 42:26 43:67 44:26 45:50 46:31 47:64 48:6 49:159 50:11 51:128 52:11 53:126 54:20 55:138 56:20 57:106 58:28 59:73 60:28 61:66 62:35 63:95 64:7 65:112 66:12 67:98 68:12 69:136 70:20 71:199 72:20 73:117 74:32 75:103 76:32 77:86 78:39 79:98 80:6 81:79 82:14 83:75 84:14 85:87 86:27 87:170 88:27 89:181 90:37 91:167 92:37 93:119 94:44 95:71 96:11 97:110 98:12 99:81 100:12 101:77 102:28 103:84 104:28 105:100 106:35 107:156 108:35 109:198 110:36 111:168 112:11 113:202 114:12 115:164 116:12 117:118 118:26 119:86 120:26 121:90 122:29 123:113 124:29 125:142 126:29 127:184 128:-1 
0.4609375 0:18 1:73 2:18 3:77 4:21 5:88 6:21 7:97 8:29 9:122 10:29 11:119 12:32 13:122 14:32 15:193 16:19 17:75 18:19 19:81 20:21 21:82 22:21 23:89 24:31 25:113 26:31 27:113 28:34 29:110 30:34 31:104 32:22 33:78 34:22 35:85 36:25 37:87 38:25 39:95 40:33 41:124 42:33 43:128 44:34 45:129 46:34 47:114 48:27 49:106 50:27 51:128 52:29 53:155 54:29 55:151 56:34 57:139 58:34 59:138 60:35 61:144 62:35 63:147 64:29 65:135 66:29 67:177 68:33 69:208 70:33 71:195 72:41 73:132 74:41 75:124 76:38 77:130 78:38 79:168 80:30 81:114 82:30 83:141 84:33 85:197 86:33 87:193 88:39 89:147 90:39 91:139 92:37 93:117 94:37 95:139 96:30 97:89 98:30 99:93 100:31 101:90 102:31 103:100 104:37 105:153 106:37 107:169 108:40 109:122 110:40 111:98 112:32 113:114 114:32 115:111 116:35 117:108 118:35 119:126 120:38 121:194 122:38 123:155 124:32 125:109 126:32 127:85 128:-1 
0.4609375 0:34 1:142 2:34 3:139 4:35 5:119 6:35 7:153 8:33 9:134 10:33 11:111 12:30 13:160 14:30 15:131 16:36 17:159 18:36 19:145 20:35 21:103 22:35 23:104 24:32 25:75 26:32 27:73 28:29 29:135 30:29 31:124 32:41 33:197 34:41 35:159 36:38 37:137 38:38 39:165 40:36 41:107 42:36 43:93 44:35 45:135 46:35 47:173 48:29 49:207 50:29 51:218 52:36 53:201 54:36 55:246 56:40 57:152 58:40 59:115 60:37 61:94 62:37 63:101 64:26 65:151 66:26 67:162 68:32 69:161 70:32 71:162 72:39 73:118 74:39 75:112 76:37 77:83 78:37 79:76 80:26 81:77 82:26 83:82 84:26 85:89 86:26 87:86 88:29 89:95 90:29 91:164 92:34 93:142 94:34 95:74 96:25 97:65 98:25 99:71 100:26 101:109 102:26 103:109 104:28 105:135 106:28 107:198 108:31 109:189 110:31 111:116 112:25 113:91 114:25 115:105 116:22 117:148 118:22 119:111 120:28 121:98 122:28 123:95 124:27 125:107 126:27 127:114 128:-1 
0.4609375 0:44 1:101 2:34 3:130 4:34 5:143 6:35 7:146 8:35 9:126 10:43 11:111 12:43 13:135 14:40 15:152 16:43 17:109 18:35 19:144 20:35 21:183 22:36 23:193 24:36 25:190 26:42 27:163 28:42 29:148 30:37 31:131 32:43 33:137 34:40 35:158 36:40 37:180 38:35 39:197 40:35 41:206 42:41 43:170 44:41 45:132 46:45 47:103 48:48 49:141 50:47 51:94 52:47 53:101 54:37 55:134 56:37 57:134 58:43 59:141 60:43 61:136 62:45 63:125 64:44 65:105 66:44 67:83 68:44 69:104 70:37 71:159 72:37 73:146 74:40 75:171 76:40 77:136 78:39 79:103 80:45 81:75 82:42 83:84 84:42 85:105 86:34 87:149 88:34 89:147 90:35 91:177 92:35 93:135 94:35 95:101 96:42 97:124 98:39 99:88 100:39 101:95 102:33 103:99 104:33 105:97 106:35 107:104 108:35 109:104 110:36 111:100 112:37 113:111 114:35 115:95 116:35 117:100 118:35 119:105 120:35 121:105 122:35 123:106 124:35 125:101 126:39 127:123 128:-1 
0.4619140625 0:31 1:151 2:34 3:96 4:34 5:83 6:24 7:49 8:24 9:66 10:19 11:64 12:19 13:51 14:34 15:68 16:29 17:104 18:29 19:85 20:29 21:72 22:22 23:60 24:22 25:72 26:24 27:94 28:24 29:83 30:29 31:113 32:34 33:110 34:34 35:95 36:34 37:89 38:31 39:74 40:31 41:87 42:25 43:155 44:25 45:133 46:28 47:126 48:35 49:135 50:35 51:117 52:35 53:116 54:35 55:114 56:35 57:111 58:29 59:135 60:29 61:136 62:28 63:121 64:32 65:118 66:35 67:118 68:35 69:112 70:36 71:116 72:36 73:104 74:31 75:92 76:31 77:100 78:27 79:100 80:32 81:101 82:37 83:114 84:37 85:114 86:42 87:106 88:42 89:91 90:35 91:92 92:35 93:102 94:31 95:108 96:32 97:147 98:35 99:163 100:35 101:180 102:39 103:143 104:39 105:108 106:36 107:113 108:36 109:130 110:32 111:158 112:35 113:136 114:36 115:133 116:36 117:137 118:39 119:121 120:39 121:92 122:35 123:83 124:35 125:87 126:32 127:105 128:-1 
0.4619140625 0:40 1:93 2:38 3:95 4:38 5:91 6:32 7:114 8:32 9:107 10:35 11:107 12:35 13:96 14:35 15:82 16:35 17:56 18:34 19:79 20:34 21:74 22:32 23:79 24:32 25:82 26:32 27:75 28:32 29:70 30:32 31:61 32:35 33:62 34:32 35:66 36:32 37:66 38:32 39:78 40:32 41:81 42:29 43:100 44:29 45:94 46:29 47:73 48:34 49:71 50:27 51:109 52:27 53:104 54:28 55:124 56:28 57:127 58:28 59:140 60:28 61:128 62:29 63:106 64:34 65:71 66:25 67:181 68:25 69:143 70:27 71:150 72:27 73:146 74:29 75:133 76:29 77:131 78:31 79:139 80:29 81:62 82:29 83:100 84:29 85:98 86:28 87:113 88:28 89:105 90:30 91:97 92:30 93:122 94:29 95:133 96:31 97:56 98:35 99:51 100:35 101:53 102:31 103:72 104:31 105:71 106:32 107:94 108:32 109:107 110:35 111:113 112:34 113:134 114:39 115:59 116:39 117:57 118:32 119:92 120:32 121:94 122:34 123:112 124:34 125:121 126:36 127:111 128:-1 
0.4619140625 0:35 1:135 2:35 3:120 4:35 5:107 6:32 7:90 8:32 9:94 10:32 11:102 12:32 13:102 14:34 15:110 16:32 17:125 18:32 19:115 20:32 21:89 22:35 23:77 24:35 25:84 26:37 27:109 28:37 29:106 30:41 31:100 32:30 33:131 34:29 35:150 36:29 37:112 38:35 39:93 40:35 41:95 42:40 43:109 44:40 45:105 46:45 47:80 48:30 49:113 50:29 51:161 52:29 53:155 54:36 55:113 56:36 57:98 58:41 59:114 60:41 61:116 62:46 63:91 64:31 65:86 66:34 67:157 68:34 69:151 70:38 71:136 72:38 73:106 74:38 75:121 76:38 77:121 78:41 79:87 80:32 81:104 82:34 83:128 84:34 85:122 86:37 87:109 88:37 89:97 90:39 91:105 92:39 93:101 94:36 95:80 96:32 97:103 98:32 99:100 100:32 101:94 102:37 103:81 104:37 105:82 106:41 107:70 108:41 109:68 110:37 111:64 112:34 113:112 114:34 115:96 116:34 117:87 118:37 119:80 120:37 121:88 122:42 123:62 124:42 125:56 126:40 127:44 128:-1 
0.4619140625 0:37 1:143 2:35 3:98 4:35 5:110 6:28 7:161 8:28 9:138 10:34 11:115 12:34 13:103 14:34 15:87 16:36 17:124 18:38 19:75 20:38 21:68 22:31 23:83 24:31 25:89 26:32 27:103 28:32 29:95 30:35 31:83 32:33 33:96 34:37 35:198 36:37 37:97 38:35 39:62 40:35 41:74 42:32 43:158 44:32 45:148 46:38 47:138 48:27 49:155 50:24 51:166 52:24 53:115 54:21 55:84 56:21 57:86 58:32 59:115 60:32 61:111 62:36 63:149 64:26 65:255 66:26 67:143 68:26 69:103 70:29 71:88 72:29 73:83 74:34 75:86 76:34 77:107 78:34 79:165 80:25 81:129 82:28 83:137 84:28 85:125 86:33 87:118 88:33 89:118 90:34 91:117 92:35 93:255 94:32 95:185 96:30 97:125 98:29 99:130 100:29 101:128 102:29 103:115 104:29 105:122 106:31 107:131 108:31 109:153 110:28 111:154 112:28 113:158 114:28 115:128 116:28 117:116 118:29 119:81 120:29 121:83 122:29 123:90 124:29 125:72 126:28 127:97 128:-1 
0.4619140625 0:39 1:120 2:38 3:141 4:38 5:145 6:38 7:172 8:38 9:178 10:38 11:192 12:38 13:189 14:36 15:182 16:38 17:120 18:38 19:143 20:38 21:142 22:39 23:167 24:39 25:173 26:39 27:180 28:39 29:178 30:37 31:158 32:37 33:120 34:36 35:141 36:36 37:141 38:36 39:166 40:36 41:170 42:37 43:158 44:37 45:143 46:36 47:118 48:38 49:129 50:36 51:138 52:36 53:138 54:36 55:151 56:36 57:147 58:37 59:142 60:37 61:134 62:35 63:124 64:39 65:130 66:38 67:153 68:38 69:146 70:36 71:149 72:36 73:143 74:37 75:157 76:37 77:172 78:35 79:161 80:39 81:141 82:38 83:147 84:38 85:150 86:38 87:150 88:38 89:145 90:38 91:154 92:38 93:171 94:38 95:174 96:38 97:149 98:37 99:167 100:37 101:179 102:36 103:198 104:36 105:182 106:36 107:169 108:36 109:176 110:36 111:187 112:40 113:135 114:38 115:133 116:38 117:138 118:36 119:156 120:36 121:154 122:37 123:156 124:37 125:156 126:38 127:151 128:-1 
0.4619140625 0:37 1:101 2:34 3:107 4:34 5:118 6:30 7:111 8:30 9:95 10:28 11:111 12:28 13:128 14:25 15:138 16:36 17:139 18:34 19:121 20:34 21:120 22:35 23:87 24:35 25:71 26:30 27:55 28:30 29:59 30:26 31:67 32:35 33:144 34:40 35:140 36:40 37:122 38:38 39:78 40:38 41:69 42:30 43:45 44:30 45:48 46:32 47:45 48:32 49:111 50:37 51:130 52:37 53:99 54:37 55:97 56:37 57:97 58:32 59:99 60:32 61:143 62:35 63:172 64:28 65:86 66:34 67:92 68:34 69:87 70:35 71:106 72:35 73:115 74:35 75:125 76:35 77:133 78:41 79:168 80:22 81:95 82:22 83:94 84:22 85:96 86:27 87:92 88:27 89:92 90:35 91:94 92:35 93:81 94:35 95:96 96:20 97:96 98:17 99:97 100:17 101:85 102:23 103:74 104:23 105:80 106:27 107:86 108:27 109:84 110:28 111:115 112:21 113:61 114:16 115:70 116:16 117:70 118:20 119:75 120:20 121:72 122:22 123:104 124:22 125:153 126:26 127:235 128:-1 
0.4619140625 0:37 1:92 2:35 3:119 4:35 5:141 6:35 7:129 8:35 9:116 10:34 11:128 12:34 13:139 14:32 15:125 16:29 17:160 18:27 19:138 20:27 21:113 22:31 23:100 24:31 25:97 26:34 27:91 28:34 29:99 30:32 31:89 32:26 33:196 34:35 35:114 36:35 37:105 38:39 39:125 40:39 41:131 42:42 43:107 44:42 45:100 46:44 47:108 48:34 49:124 50:38 51:98 52:38 53:98 54:36 55:124 56:36 57:141 58:41 59:118 60:41 61:105 62:46 63:97 64:32 65:94 66:32 67:95 68:32 69:97 70:35 71:123 72:35 73:131 74:39 75:166 76:39 77:166 78:39 79:136 80:31 81:118 82:29 83:101 84:29 85:102 86:32 87:130 88:32 89:139 90:35 91:186 92:35 93:233 94:35 95:193 96:29 97:81 98:34 99:75 100:34 101:79 102:33 103:106 104:33 105:107 106:35 107:126 108:35 109:161 110:33 111:125 112:30 113:97 114:34 115:80 116:34 117:81 118:34 119:87 120:34 121:122 122:34 123:144 124:34 125:102 126:32 127:94 128:-1 
-1 0:26 1:18 2:26 3:18 4:38 5:5 6:38 7:5 8:0 9:0 10:0 11:0 12:38 13:5 14:38 15:5 16:80 17:3 18:80 19:3 20:80 21:4 22:80 23:4 24:80 25:3 26:80 27:3 28:80 29:3 30:80 31:3 32:80 33:16 34:80 35:13 36:80 37:14 38:80 39:13 40:80 41:3 42:80 43:3 44:80 45:3 46:80 47:4 48:58 49:18 50:58 51:15 52:60 53:9 54:60 55:9 56:54 57:5 58:54 59:5 60:78 61:6 62:78 63:6 64:43 65:10 66:43 67:10 68:0 69:0 70:0 71:0 72:80 73:3 74:80 75:3 76:60 77:6 78:60 79:7 80:38 81:4 82:38 83:4 84:38 85:4 86:38 87:4 88:54 89:6 90:54 91:7 92:55 93:15 94:55 95:14 96:80 97:3 98:80 99:3 100:0 101:0 102:0 103:0 104:54 105:6 106:54 107:7 108:43 109:12 110:43 111:11 112:38 113:4 114:38 115:4 116:0 117:0 118:0 119:0 120:80 121:3 122:80 123:4 124:60 125:7 126:60 127:6 128:-1 
-1 0:80 1:15 2:80 3:13 4:80 5:3 6:80 7:4 8:37 9:11 10:37 11:12 12:32 13:18 14:32 15:18 16:79 17:10 18:79 19:10 20:80 21:4 22:80 23:4 24:0 25:0 26:0 27:0 28:38 29:5 30:38 31:5 32:0 33:0 34:0 35:0 36:78 37:6 38:78 39:6 40:80 41:4 42:80 43:4 44:80 45:4 46:80 47:4 48:80 49:3 50:80 51:4 52:78 53:6 54:78 55:6 56:68 57:10 58:68 59:11 60:51 61:17 62:51 63:18 64:110 65:8 66:110 67:7 68:97 69:11 70:97 71:11 72:79 73:11 74:79 75:12 76:51 77:20 78:51 79:20 80:78 81:7 82:78 83:6 84:90 85:8 86:90 87:9 88:80 89:16 90:80 91:17 92:54 93:21 94:54 95:20 96:43 97:18 98:43 99:16 100:60 101:6 102:60 103:7 104:69 105:14 106:69 107:14 108:55 109:15 110:55 111:13 112:35 113:9 114:35 115:10 116:60 117:7 118:60 119:7 120:79 121:11 122:79 123:11 124:47 125:9 126:47 127:9 128:-1 
-1 0:60 1:8 2:60 3:7 4:103 5:9 6:103 7:8 8:101 9:13 10:101 11:13 12:97 13:11 14:97 15:11 16:54 17:7 18:54 19:7 20:97 21:12 22:97 23:11 24:107 25:11 26:107 27:11 28:98 29:4 30:98 31:5 32:43 33:13 34:43 35:14 36:60 37:8 38:60 39:7 40:98 41:6 42:98 43:5 44:98 45:4 46:98 47:4 48:45 49:18 50:45 51:18 52:35 53:9 54:35 55:8 56:120 57:3 58:120 59:3 60:113 61:21 62:113 63:19 64:45 65:18 66:45 67:19 68:23 69:6 70:23 71:6 72:0 73:1 74:0 75:1 76:25 77:12 78:25 79:12 80:37 81:12 82:37 83:12 84:0 85:1 86:0 87:1 88:0 89:0 90:0 91:0 92:35 93:20 94:35 95:20 96:35 97:15 98:35 99:14 100:38 101:5 102:38 103:5 104:60 105:6 106:60 107:6 108:43 109:12 110:43 111:12 112:32 113:21 114:32 115:21 116:35 117:15 118:35 119:14 120:53 121:10 122:53 123:10 124:60 125:9 126:60 127:10 128:-1 
-1 0:35 1:25 2:35 3:24 4:60 5:10 6:60 7:9 8:80 9:4 10:80 11:3 12:38 13:4 14:38 15:4 16:35 17:17 18:35 19:18 20:60 21:7 22:60 23:6 24:54 25:5 26:54 27:5 28:54 29:5 30:54 31:5 32:53 33:11 34:53 35:11 36:60 37:6 38:60 39:5 40:38 41:4 42:38 43:4 44:38 45:4 46:38 47:4 48:63 49:14 50:63 51:12 52:80 53:3 54:80 55:3 56:54 57:5 58:54 59:5 60:38 61:4 62:38 63:4 64:37 65:11 66:37 67:10 68:38 69:4 70:38 71:4 72:35 73:7 74:35 75:7 76:35 77:7 78:35 79:7 80:79 81:9 82:79 83:9 84:80 85:3 86:80 87:3 88:38 89:4 90:38 91:4 92:38 93:4 94:38 95:4 96:87 97:23 98:87 99:20 100:87 101:10 102:87 103:10 104:54 105:5 106:54 107:5 108:35 109:7 110:35 111:7 112:60 113:10 114:60 115:10 116:79 117:9 118:79 119:9 120:47 121:8 122:47 123:8 124:35 125:7 126:35 127:7 128:-1 
-1 0:51 1:15 2:80 3:3 4:80 5:4 6:103 7:9 8:103 9:8 10:97 11:11 12:97 13:11 14:80 15:3 16:80 17:15 18:87 19:11 20:87 21:11 22:90 23:6 24:90 25:6 26:90 27:8 28:90 29:8 30:80 31:3 32:79 33:23 34:90 35:16 36:90 37:16 38:103 39:9 40:103 41:9 42:110 43:7 44:110 45:7 46:90 47:7 48:73 49:22 50:83 51:27 52:83 53:26 54:92 55:23 56:92 57:22 58:103 59:9 60:103 61:9 62:80 63:17 64:60 65:24 66:71 67:27 68:71 69:24 70:80 71:11 72:80 73:11 74:0 75:0 76:0 77:0 78:48 79:14 80:78 81:5 82:80 83:3 84:80 85:3 86:0 87:0 88:0 89:0 90:0 91:0 92:0 93:0 94:60 95:6 96:80 97:3 98:80 99:3 100:80 101:3 102:0 103:0 104:0 105:0 106:80 107:3 108:80 109:3 110:69 111:12 112:90 113:6 114:90 115:6 116:90 117:6 118:78 119:6 120:78 121:6 122:80 123:12 124:80 125:12 126:63 127:25 128:-1 
-1 0:58 1:17 2:58 3:18 4:54 5:22 6:54 7:21 8:45 9:17 10:45 11:17 12:60 13:7 14:60 15:7 16:54 17:6 18:54 19:6 20:45 21:17 22:45 23:18 24:55 25:16 26:55 27:16 28:80 29:13 30:80 31:13 32:53 33:9 34:53 35:10 36:49 37:23 38:49 39:23 40:44 41:21 42:44 43:21 44:60 45:12 46:60 47:12 48:54 49:6 50:54 51:7 52:48 53:14 54:48 55:14 56:35 57:15 58:35 59:15 60:60 61:11 62:60 63:11 64:47 65:10 66:47 67:9 68:53 69:10 70:53 71:11 72:60 73:11 74:60 75:11 76:68 77:12 78:68 79:12 80:43 81:16 82:43 83:17 84:43 85:18 86:43 87:19 88:63 89:15 90:63 91:14 92:80 93:18 94:80 95:18 96:42 97:25 98:42 99:27 100:54 101:34 102:54 103:36 104:71 105:30 106:71 107:25 108:90 109:17 110:90 111:16 112:41 113:53 114:41 115:54 116:47 117:48 118:47 119:46 120:62 121:20 122:62 123:16 124:90 125:6 126:90 127:5 128:-1 
