svm_type c_svc
kernel_type polynomial
degree 3
gamma 0.0078125
coef0 0
nr_class 2
total_sv 5
rho 0.979725
label 1 -1
nr_sv 3 2
SV
9.791299833481211e-13 0:24 1:122 2:24 3:126 4:23 5:123 6:23 7:121 8:28 9:114 10:28 11:115 12:29 13:70 14:29 15:67 16:25 17:86 18:25 19:89 20:24 21:93 22:24 23:98 24:29 25:100 26:29 27:109 28:32 29:89 30:32 31:74 32:27 33:84 34:27 35:86 36:27 37:88 38:27 39:98 40:33 41:108 42:33 43:115 44:32 45:104 46:32 47:88 48:28 49:119 50:28 51:118 52:30 53:100 54:30 55:105 56:32 57:113 58:32 59:113 60:31 61:95 62:31 63:89 64:27 65:100 66:27 67:102 68:32 69:96 70:32 71:91 72:29 73:83 74:29 75:83 76:25 77:80 78:25 79:80 80:31 81:85 82:31 83:92 84:34 85:103 86:34 87:99 88:32 89:85 90:32 91:89 92:31 93:78 94:31 95:77 96:34 97:111 98:34 99:107 100:36 101:112 102:36 103:111 104:36 105:122 106:36 107:132 108:38 109:174 110:38 111:157 112:35 113:123 114:35 115:108 116:35 117:108 118:35 119:115 120:36 121:120 122:36 123:124 124:37 125:142 126:37 127:136 128:-1 
9.117716954630268e-12 0:40 1:93 2:38 3:95 4:38 5:91 6:32 7:114 8:32 9:107 10:35 11:107 12:35 13:96 14:35 15:82 16:35 17:56 18:34 19:79 20:34 21:74 22:32 23:79 24:32 25:82 26:32 27:75 28:32 29:70 30:32 31:61 32:35 33:62 34:32 35:66 36:32 37:66 38:32 39:78 40:32 41:81 42:29 43:100 44:29 45:94 46:29 47:73 48:34 49:71 50:27 51:109 52:27 53:104 54:28 55:124 56:28 57:127 58:28 59:140 60:28 61:128 62:29 63:106 64:34 65:71 66:25 67:181 68:25 69:143 70:27 71:150 72:27 73:146 74:29 75:133 76:29 77:131 78:31 79:139 80:29 81:62 82:29 83:100 84:29 85:98 86:28 87:113 88:28 89:105 90:30 91:97 92:30 93:122 94:29 95:133 96:31 97:56 98:35 99:51 100:35 101:53 102:31 103:72 104:31 105:71 106:32 107:94 108:32 109:107 110:35 111:113 112:34 113:134 114:39 115:59 116:39 117:57 118:32 119:92 120:32 121:94 122:34 123:112 124:34 125:121 126:36 127:111 128:-1 
1.538573434149499e-12 0:37 1:101 2:34 3:107 4:34 5:118 6:30 7:111 8:30 9:95 10:28 11:111 12:28 13:128 14:25 15:138 16:36 17:139 18:34 19:121 20:34 21:120 22:35 23:87 24:35 25:71 26:30 27:55 28:30 29:59 30:26 31:67 32:35 33:144 34:40 35:140 36:40 37:122 38:38 39:78 40:38 41:69 42:30 43:45 44:30 45:48 46:32 47:45 48:32 49:111 50:37 51:130 52:37 53:99 54:37 55:97 56:37 57:97 58:32 59:99 60:32 61:143 62:35 63:172 64:28 65:86 66:34 67:92 68:34 69:87 70:35 71:106 72:35 73:115 74:35 75:125 76:35 77:133 78:41 79:168 80:22 81:95 82:22 83:94 84:22 85:96 86:27 87:92 88:27 89:92 90:35 91:94 92:35 93:81 94:35 95:96 96:20 97:96 98:17 99:97 100:17 101:85 102:23 103:74 104:23 105:80 106:27 107:86 108:27 109:84 110:28 111:115 112:21 113:61 114:16 115:70 116:16 117:70 118:20 119:75 120:20 121:72 122:22 123:104 124:22 125:153 126:26 127:235 128:-1 
-6.968470149818431e-14 0:35 1:25 2:35 3:24 4:60 5:10 6:60 7:9 8:80 9:4 10:80 11:3 12:38 13:4 14:38 15:4 16:35 17:17 18:35 19:18 20:60 21:7 22:60 23:6 24:54 25:5 26:54 27:5 28:54 29:5 30:54 31:5 32:53 33:11 34:53 35:11 36:60 37:6 38:60 39:5 40:38 41:4 42:38 43:4 44:38 45:4 46:38 47:4 48:63 49:14 50:63 51:12 52:80 53:3 54:80 55:3 56:54 57:5 58:54 59:5 60:38 61:4 62:38 63:4 64:37 65:11 66:37 67:10 68:38 69:4 70:38 71:4 72:35 73:7 74:35 75:7 76:35 77:7 78:35 79:7 80:79 81:9 82:79 83:9 84:80 85:3 86:80 87:3 88:38 89:4 90:38 91:4 92:38 93:4 94:38 95:4 96:87 97:23 98:87 99:20 100:87 101:10 102:87 103:10 104:54 105:5 106:54 107:5 108:35 109:7 110:35 111:7 112:60 113:10 114:60 115:10 116:79 117:9 118:79 119:9 120:47 121:8 122:47 123:8 124:35 125:7 126:35 127:7 128:-1 
-1.15657356706297e-11 0:58 1:17 2:58 3:18 4:54 5:22 6:54 7:21 8:45 9:17 10:45 11:17 12:60 13:7 14:60 15:7 16:54 17:6 18:54 19:6 20:45 21:17 22:45 23:18 24:55 25:16 26:55 27:16 28:80 29:13 30:80 31:13 32:53 33:9 34:53 35:10 36:49 37:23 38:49 39:23 40:44 41:21 42:44 43:21 44:60 45:12 46:60 47:12 48:54 49:6 50:54 51:7 52:48 53:14 54:48 55:14 56:35 57:15 58:35 59:15 60:60 61:11 62:60 63:11 64:47 65:10 66:47 67:9 68:53 69:10 70:53 71:11 72:60 73:11 74:60 75:11 76:68 77:12 78:68 79:12 80:43 81:16 82:43 83:17 84:43 85:18 86:43 87:19 88:63 89:15 90:63 91:14 92:80 93:18 94:80 95:18 96:42 97:25 98:42 99:27 100:54 101:34 102:54 103:36 104:71 105:30 106:71 107:25 108:90 109:17 110:90 111:16 112:41 113:53 114:41 115:54 116:47 117:48 118:47 119:46 120:62 121:20 122:62 123:16 124:90 125:6 126:90 127:5 128:-1 
