svm_type c_svc
kernel_type polynomial
degree 3
gamma 0.0078125
coef0 0
nr_class 2
total_sv 17
rho 0.806883
label 1 -1
nr_sv 6 11
SV
4.43694180265746e-11 0:68 1:21 2:63 3:44 4:63 5:94 6:53 7:54 8:53 9:31 10:53 11:25 12:53 13:42 14:49 15:87 16:57 17:45 18:54 19:63 20:54 21:75 22:45 23:80 24:45 25:70 26:35 27:90 28:35 29:112 30:29 31:92 32:46 33:85 34:45 35:80 36:45 37:81 38:41 39:57 40:41 41:51 42:35 43:40 44:35 45:29 46:25 47:43 48:45 49:170 50:43 51:106 52:43 53:102 54:79 55:64 56:79 57:46 58:80 59:41 60:80 61:28 62:19 63:19 64:47 65:167 66:55 67:100 68:55 69:97 70:0 71:0 72:0 73:0 74:120 75:13 76:120 77:10 78:38 79:11 80:52 81:60 82:64 83:35 84:64 85:33 86:0 87:0 88:0 89:0 90:170 91:31 92:170 93:31 94:21 95:27 96:55 97:41 98:69 99:20 100:69 101:19 102:78 103:13 104:78 105:15 106:0 107:0 108:0 109:0 110:80 111:8 112:52 113:50 114:42 115:38 116:42 117:41 118:46 119:89 120:46 121:72 122:42 123:52 124:42 125:56 126:80 127:7 128:-1 
4.161680726689348e-11 0:48 1:94 2:46 3:55 4:46 5:49 6:40 7:57 8:40 9:72 10:42 11:67 12:42 13:54 14:56 15:58 16:46 17:90 18:51 19:66 20:51 21:59 22:45 23:41 24:45 25:45 26:47 27:47 28:47 29:44 30:54 31:31 32:52 33:57 34:55 35:68 36:55 37:75 38:54 39:74 40:54 41:59 42:49 43:39 44:49 45:34 46:35 47:24 48:52 49:90 50:57 51:64 52:57 53:55 54:35 55:57 56:35 57:68 58:30 59:34 60:30 61:26 62:54 63:34 64:54 65:109 66:67 67:46 68:67 69:35 70:48 71:30 72:48 73:59 74:58 75:48 76:58 77:48 78:52 79:76 80:49 81:65 82:80 83:84 84:80 85:63 86:83 87:45 88:83 89:47 90:74 91:37 92:74 93:39 94:57 95:41 96:48 97:93 98:67 99:90 100:67 101:73 102:84 103:32 104:84 105:30 106:80 107:28 108:80 109:32 110:60 111:44 112:47 113:88 114:54 115:50 116:54 117:49 118:80 119:27 120:80 121:26 122:68 123:26 124:68 125:37 126:64 127:55 128:-1 
2.451289800320746e-12 0:57 1:56 2:56 3:59 4:56 5:62 6:44 7:82 8:44 9:83 10:39 11:75 12:39 13:72 14:44 15:89 16:55 17:62 18:54 19:66 20:54 21:71 22:44 23:95 24:44 25:94 26:40 27:70 28:40 29:66 30:44 31:69 32:48 33:85 34:49 35:70 36:49 37:69 38:49 39:62 40:49 41:62 42:50 43:63 44:50 45:61 46:50 47:53 48:48 49:81 50:45 51:60 52:45 53:54 54:42 55:44 56:42 57:46 58:42 59:50 60:42 61:50 62:45 63:51 64:44 65:78 66:41 67:61 68:41 69:58 70:39 71:40 72:39 73:40 74:36 75:39 76:36 77:40 78:36 79:43 80:44 81:64 82:39 83:54 84:39 85:52 86:32 87:41 88:32 89:39 90:26 91:38 92:26 93:40 94:32 95:40 96:43 97:70 98:47 99:50 100:47 101:50 102:35 103:32 104:35 105:31 106:37 107:24 108:37 109:24 110:32 111:40 112:44 113:63 114:35 115:51 116:35 117:52 118:35 119:52 120:35 121:55 122:32 123:49 124:32 125:48 126:26 127:46 128:-1 
1.693906792652074e-10 0:47 1:79 2:47 3:80 4:47 5:76 6:47 7:74 8:48 9:72 10:48 11:69 12:48 13:69 14:48 15:70 16:48 17:72 18:48 19:70 20:47 21:73 22:47 23:72 24:43 25:62 26:43 27:61 28:45 29:51 30:45 31:52 32:49 33:65 34:49 35:61 36:48 37:64 38:48 39:58 40:42 41:40 42:42 43:45 44:35 45:51 46:35 47:45 48:45 49:78 50:45 51:78 52:50 53:57 54:50 55:50 56:47 57:33 58:47 59:37 60:29 61:52 62:29 63:50 64:49 65:77 66:49 67:83 68:49 69:80 70:49 71:75 72:50 73:44 74:50 75:41 76:36 77:33 78:36 79:42 80:45 81:68 82:45 83:70 84:47 85:69 86:47 87:75 88:47 89:49 90:47 91:42 92:35 93:26 94:35 95:31 96:51 97:56 98:51 99:57 100:48 101:59 102:48 103:64 104:49 105:56 106:49 107:47 108:63 109:22 110:63 111:22 112:51 113:71 114:51 115:69 116:44 117:48 118:44 119:47 120:36 121:43 122:36 123:47 124:35 125:30 126:35 127:28 128:-1 
2.723786520377436e-11 0:65 1:71 2:65 3:73 4:47 5:58 6:47 7:70 8:40 9:107 10:40 11:56 12:35 13:33 14:35 15:34 16:51 17:33 18:51 19:34 20:41 21:29 22:41 23:32 24:35 25:29 26:35 27:25 28:35 29:27 30:35 31:31 32:62 33:29 34:62 35:27 36:54 37:27 38:54 39:30 40:47 41:15 42:47 43:12 44:35 45:13 46:35 47:19 48:52 49:61 50:52 51:51 52:51 53:33 54:51 55:52 56:60 57:31 58:60 59:17 60:43 61:22 62:43 63:25 64:50 65:60 66:50 67:79 68:58 69:81 70:58 71:116 72:60 73:47 74:60 75:20 76:53 77:38 78:53 79:31 80:26 81:37 82:26 83:52 84:22 85:109 86:22 87:109 88:21 89:118 90:21 91:127 92:37 93:64 94:37 95:41 96:26 97:26 98:26 99:29 100:19 101:61 102:19 103:64 104:35 105:87 106:35 107:120 108:33 109:95 110:33 111:83 112:32 113:49 114:32 115:47 116:18 117:78 118:18 119:69 120:33 121:59 122:33 123:82 124:39 125:96 126:39 127:84 128:-1 
8.388374208566581e-10 0:41 1:68 2:46 3:36 4:46 5:34 6:39 7:31 8:39 9:33 10:35 11:33 12:35 13:38 14:36 15:35 16:47 17:43 18:46 19:35 20:46 21:38 22:39 23:43 24:39 25:42 26:42 27:31 28:42 29:32 30:37 31:16 32:47 33:33 34:42 35:48 36:42 37:58 38:42 39:79 40:42 41:70 42:44 43:44 44:44 45:45 46:44 47:28 48:46 49:37 50:41 51:53 52:41 53:64 54:40 55:88 56:40 57:81 58:42 59:53 60:42 61:56 62:54 63:43 64:39 65:28 66:35 67:27 68:35 69:27 70:30 71:41 72:30 73:45 74:33 75:46 76:33 77:52 78:47 79:44 80:63 81:15 82:60 83:11 84:60 85:11 86:35 87:20 88:35 89:23 90:40 91:50 92:40 93:57 94:44 95:55 96:60 97:38 98:62 99:32 100:62 101:31 102:49 103:34 104:49 105:37 106:42 107:35 108:42 109:33 110:35 111:32 112:50 113:77 114:58 115:50 116:58 117:48 118:55 119:45 120:55 121:48 122:47 123:34 124:47 125:32 126:29 127:31 128:-1 
-7.592175594288319e-11 0:79 1:28 2:54 3:22 4:54 5:19 6:54 7:18 8:54 9:21 10:80 11:13 12:80 13:11 14:79 15:10 16:84 17:20 18:78 19:7 20:78 21:7 22:80 23:12 24:80 25:12 26:79 27:10 28:79 29:10 30:53 31:10 32:90 33:17 34:80 35:12 36:80 37:11 38:68 39:10 40:68 41:10 42:60 43:7 44:60 45:7 46:51 47:18 48:99 49:23 50:79 51:11 52:79 53:11 54:58 55:17 56:58 57:18 58:54 59:33 60:54 61:35 62:56 63:39 64:88 65:23 66:60 67:12 68:60 69:13 70:50 71:36 72:50 73:41 74:45 75:103 76:45 77:115 78:43 79:103 80:58 81:24 82:42 83:36 84:42 85:38 86:42 87:57 88:42 89:63 90:48 91:89 92:48 93:76 94:48 95:51 96:39 97:42 98:35 99:67 100:35 101:71 102:35 103:79 104:35 105:77 106:42 107:64 108:42 109:53 110:40 111:35 112:35 113:35 114:35 115:43 116:35 117:48 118:35 119:90 120:35 121:68 122:37 123:49 124:37 125:42 126:35 127:35 128:-1 
-1.032131181495237e-11 0:103 1:30 2:96 3:30 4:96 5:30 6:58 7:23 8:58 9:24 10:42 11:36 12:42 13:38 14:42 15:57 16:79 17:27 18:72 19:20 20:72 21:20 22:39 23:37 24:39 25:42 26:35 27:67 28:35 29:71 30:35 31:79 32:79 33:12 34:43 35:15 36:43 37:16 38:35 39:34 40:35 41:35 42:35 43:43 44:35 45:48 46:35 47:90 48:80 49:4 50:38 51:6 52:38 53:7 54:38 55:6 56:38 57:6 58:23 59:16 60:23 61:19 62:29 63:40 64:80 65:4 66:120 67:3 68:120 69:3 70:120 71:2 72:120 73:2 74:3 75:11 76:3 77:13 78:19 79:36 80:80 81:5 82:97 83:13 84:97 85:11 86:0 87:0 88:0 89:0 90:19 91:26 92:19 93:35 94:20 95:72 96:38 97:7 98:120 99:3 100:120 101:2 102:0 103:0 104:0 105:0 106:22 107:17 108:22 109:21 110:19 111:45 112:23 113:6 114:0 115:2 116:0 117:1 118:120 119:2 120:120 121:2 122:0 123:0 124:0 125:0 126:0 127:0 128:-1 
-1.087667343498864e-10 0:38 1:15 2:38 3:16 4:39 5:52 6:39 7:41 8:35 9:35 10:35 11:34 12:26 13:23 14:26 15:26 16:35 17:15 18:35 19:13 20:35 21:31 22:35 23:28 24:36 25:31 26:36 27:45 28:32 29:44 30:32 31:28 32:30 33:21 34:30 35:20 36:51 37:27 38:51 39:27 40:26 41:39 42:26 43:46 44:26 45:53 46:26 47:35 48:35 49:35 50:35 51:55 52:44 53:48 54:44 55:43 56:22 57:104 58:22 59:100 60:30 61:55 62:30 63:47 64:30 65:18 66:30 67:68 68:23 69:31 70:23 71:26 72:17 73:56 74:17 75:113 76:32 77:128 78:32 79:35 80:19 81:16 82:19 83:29 84:11 85:24 86:11 87:20 88:9 89:12 90:9 91:14 92:150 93:20 94:150 95:15 96:80 97:6 98:80 99:6 100:0 101:0 102:0 103:0 104:97 105:12 106:97 107:12 108:38 109:6 110:38 111:7 112:79 113:14 114:79 115:14 116:69 117:19 118:69 119:18 120:84 121:23 122:84 123:21 124:0 125:0 126:0 127:0 128:-1 
-4.166320783478334e-11 0:94 1:126 2:94 3:65 4:103 5:51 6:103 7:44 8:110 9:40 10:110 11:41 12:109 13:28 14:109 15:31 16:83 17:58 18:83 19:41 20:95 21:57 22:95 23:54 24:101 25:53 26:101 27:49 28:102 29:33 30:102 31:34 32:103 33:65 34:103 35:51 36:96 37:74 38:96 39:76 40:96 41:101 42:96 43:114 44:95 45:88 46:95 47:76 48:96 49:97 50:96 51:88 52:94 53:87 54:94 55:65 56:95 57:62 58:95 59:86 60:93 61:106 62:93 63:85 64:80 65:70 66:80 67:125 68:80 69:86 70:80 71:40 72:87 73:34 74:87 75:46 76:86 77:88 78:86 79:120 80:92 81:30 82:92 83:31 84:84 85:30 86:84 87:25 88:71 89:36 90:71 91:58 92:80 93:84 94:80 95:79 96:100 97:38 98:100 99:39 100:92 101:29 102:92 103:27 104:68 105:36 106:68 107:54 108:68 109:62 110:68 111:45 112:83 113:41 114:83 115:41 116:87 117:38 118:87 119:33 120:88 121:25 122:88 123:27 124:84 125:30 126:84 127:27 128:-1 
-5.505742796223965e-11 0:41 1:21 2:39 3:67 4:39 5:149 6:37 7:73 8:37 9:67 10:39 11:29 12:39 13:24 14:87 15:12 16:57 17:28 18:55 19:27 20:55 21:28 22:42 23:32 24:42 25:43 26:36 27:36 28:36 29:26 30:79 31:11 32:51 33:58 34:64 35:43 36:64 37:40 38:42 39:26 40:42 41:32 42:35 43:37 44:35 45:32 46:80 47:18 48:45 49:53 50:55 51:42 52:55 53:37 54:51 55:26 56:51 57:29 58:45 59:23 60:45 61:21 62:74 63:32 64:40 65:40 66:35 67:45 68:35 69:42 70:57 71:32 72:57 73:33 74:49 75:26 76:49 77:32 78:55 79:55 80:30 81:43 82:30 83:42 84:30 85:41 86:42 87:25 88:42 89:25 90:35 91:20 92:35 93:29 94:35 95:40 96:31 97:51 98:25 99:77 100:25 101:74 102:29 103:50 104:29 105:47 106:35 107:20 108:35 109:22 110:78 111:7 112:14 113:47 114:23 115:51 116:23 117:54 118:32 119:26 120:32 121:24 122:47 123:9 124:47 125:11 126:93 127:14 128:-1 
-4.268055233392497e-11 0:105 1:20 2:105 3:26 4:109 5:34 6:109 7:28 8:107 9:33 10:107 11:37 12:105 13:44 14:105 15:58 16:95 17:39 18:95 19:48 20:105 21:44 22:105 23:37 24:109 25:25 26:109 27:27 28:103 29:45 30:103 31:51 32:95 33:59 34:95 35:97 36:95 37:104 38:95 39:64 40:100 41:47 42:100 43:44 44:101 45:40 46:101 47:38 48:99 49:55 50:99 51:80 52:96 53:120 54:96 55:109 56:98 57:163 58:98 59:124 60:97 61:87 62:97 63:76 64:105 65:36 66:105 67:37 68:103 69:39 70:103 71:84 72:98 73:155 74:98 75:65 76:98 77:28 78:98 79:27 80:99 81:41 82:99 83:38 84:99 85:21 86:99 87:27 88:88 89:26 90:88 91:21 92:84 93:15 94:84 95:15 96:102 97:101 98:102 99:102 100:109 101:62 102:109 103:52 104:100 105:39 106:100 107:36 108:95 109:28 110:95 111:30 112:112 113:107 114:112 115:191 116:114 117:115 118:114 119:77 120:109 121:61 122:109 123:53 124:103 125:31 126:103 127:32 128:-1 
-3.627940543280797e-10 0:35 1:61 2:35 3:58 4:33 5:43 6:33 7:40 8:32 9:52 10:32 11:59 12:35 13:79 14:35 15:70 16:37 17:50 18:37 19:49 20:38 21:31 22:38 23:29 24:39 25:24 26:39 27:25 28:39 29:26 30:39 31:24 32:35 33:54 34:35 35:60 36:38 37:53 38:38 39:47 40:40 41:27 42:40 43:26 44:43 45:10 46:43 47:10 48:32 49:52 50:32 51:64 52:34 53:47 54:34 55:38 56:35 57:20 58:35 59:19 60:37 61:10 62:37 63:10 64:29 65:41 66:29 67:59 68:33 69:27 70:33 71:21 72:35 73:12 74:35 75:12 76:43 77:14 78:43 79:14 80:34 81:46 82:34 83:75 84:38 85:64 86:38 87:42 88:45 89:22 90:45 91:23 92:45 93:26 94:45 95:25 96:35 97:25 98:35 99:29 100:36 101:21 102:36 103:18 104:43 105:10 106:43 107:10 108:49 109:25 110:49 111:25 112:47 113:8 114:47 115:8 116:38 117:4 118:38 119:4 120:47 121:8 122:47 123:8 124:52 125:26 126:52 127:28 128:-1 
-2.04605878767442e-10 0:34 1:61 2:34 3:61 4:37 5:50 6:37 7:49 8:38 9:31 10:38 11:29 12:39 13:24 14:39 15:25 16:34 17:55 18:34 19:54 20:35 21:54 22:35 23:60 24:38 25:53 26:38 27:47 28:40 29:27 30:40 31:26 32:33 33:57 34:33 35:54 36:32 37:52 38:32 39:64 40:34 41:47 42:34 43:38 44:35 45:20 46:35 47:19 48:31 49:57 50:31 51:53 52:29 53:41 54:29 55:59 56:33 57:27 58:33 59:21 60:35 61:12 62:35 63:12 64:33 65:85 66:33 67:75 68:34 69:46 70:34 71:75 72:38 73:64 74:38 75:42 76:45 77:22 78:45 79:23 80:40 81:59 82:40 83:53 84:35 85:25 86:35 87:29 88:36 89:21 90:36 91:18 92:43 93:10 94:43 95:10 96:41 97:16 98:41 99:15 100:47 101:8 102:47 103:8 104:38 105:4 106:38 107:4 108:47 109:8 110:47 111:8 112:38 113:4 114:38 115:4 116:0 117:0 118:0 119:0 120:0 121:0 122:0 123:0 124:53 125:9 126:53 127:10 128:-1 
-1.549353050275313e-10 0:37 1:94 2:37 3:96 4:38 5:103 6:38 7:106 8:38 9:102 10:38 11:95 12:40 13:59 14:40 15:54 16:39 17:86 18:39 19:87 20:40 21:93 22:40 23:102 24:40 25:103 26:40 27:81 28:38 29:40 30:38 31:39 32:39 33:87 34:39 35:86 36:41 37:79 38:41 39:85 40:42 41:67 42:42 43:51 44:39 45:20 46:39 47:20 48:38 49:115 50:38 51:103 52:41 53:72 54:41 55:67 56:45 57:30 58:45 59:27 60:43 61:13 62:43 63:13 64:40 65:49 66:40 67:46 68:40 69:29 70:40 71:29 72:51 73:18 74:51 75:17 76:43 77:10 78:43 79:10 80:49 81:17 82:49 83:17 84:53 85:9 86:53 87:9 88:48 89:11 90:48 91:11 92:47 93:8 94:47 95:8 96:47 97:23 98:47 99:23 100:47 101:8 102:47 103:8 104:54 105:5 106:54 107:5 108:35 109:7 110:35 111:7 112:40 113:29 114:40 115:27 116:35 117:12 118:35 119:12 120:38 121:4 122:38 123:4 124:38 125:4 126:38 127:4 128:-1 
-6.432878590710918e-11 0:53 1:9 2:48 3:11 4:48 5:11 6:47 7:8 8:47 9:8 10:35 11:7 12:35 13:7 14:35 15:7 16:47 17:8 18:54 19:5 20:54 21:5 22:35 23:7 24:35 25:7 26:35 27:7 28:35 29:7 30:38 31:4 32:35 33:12 34:38 35:4 36:38 37:4 38:38 39:4 40:38 41:4 42:38 43:4 44:38 45:4 46:35 47:7 48:35 49:12 50:35 51:7 52:35 53:7 54:35 55:7 56:35 57:6 58:43 59:10 60:43 61:10 62:39 63:22 64:35 65:7 66:38 67:4 68:38 69:4 70:38 71:4 72:38 73:4 74:43 75:10 76:43 77:11 78:40 79:30 80:38 81:4 82:38 83:4 84:38 85:4 86:47 87:8 88:47 89:8 90:39 91:18 92:39 93:19 94:38 95:38 96:35 97:7 98:35 99:7 100:35 101:7 102:44 103:19 104:44 105:21 106:42 107:40 108:42 109:38 110:38 111:49 112:35 113:7 114:47 115:8 116:47 117:8 118:45 119:26 120:45 121:31 122:44 123:49 124:44 125:46 126:38 127:56 128:-1 
-2.828466150596726e-12 0:44 1:66 2:44 3:63 4:50 5:52 6:50 7:50 8:51 9:37 10:51 11:40 12:39 13:22 14:39 15:20 16:46 17:130 18:46 19:126 20:59 21:77 22:59 23:67 24:64 25:32 26:64 27:25 28:53 29:9 30:53 31:9 32:62 33:64 34:62 35:56 36:73 37:49 38:73 39:45 40:79 41:16 42:79 43:15 44:80 45:3 46:80 47:3 48:79 49:23 50:79 51:20 52:85 53:13 54:85 55:13 56:80 57:3 58:80 59:3 60:0 61:0 62:0 63:0 64:105 65:18 66:105 67:18 68:105 69:17 70:105 71:18 72:103 73:30 74:103 75:32 76:100 77:33 78:100 79:30 80:106 81:36 82:106 83:38 84:106 85:38 86:106 87:41 88:104 89:59 90:104 91:58 92:102 93:56 94:102 95:51 96:107 97:53 98:107 99:59 100:102 101:66 102:102 103:76 104:95 105:79 106:95 107:72 108:93 109:63 110:93 111:61 112:107 113:36 114:107 115:37 116:106 117:41 118:106 119:44 120:97 121:47 122:97 123:56 124:89 125:57 126:89 127:57 128:-1 
