svm_type c_svc
kernel_type polynomial
degree 3
gamma 0.0078125
coef0 0
nr_class 2
total_sv 26
rho -5.33187
label 1 -1
nr_sv 10 16
SV
5.793114549971983e-10 0:36 1:11 2:35 3:15 4:25 5:13 6:19 7:17 8:11 9:15 10:177 11:17 12:177 13:19 14:177 15:18 16:24 17:10 18:24 19:11 20:13 21:17 22:6 23:13 24:170 25:13 26:163 27:18 28:163 29:19 30:177 31:18 32:20 33:5 34:24 35:9 36:20 37:7 38:173 39:11 40:173 41:9 42:160 43:13 44:170 45:12 46:11 47:15 48:66 49:12 50:66 51:11 52:66 53:10 54:50 55:6 56:42 57:11 58:36 59:11 60:35 61:13 62:34 63:16 64:52 65:25 66:51 67:16 68:51 69:13 70:43 71:14 72:43 73:14 74:34 75:17 76:35 77:25 78:35 79:27 80:41 81:48 82:38 83:34 84:35 85:28 86:30 87:17 88:30 89:17 90:21 91:22 92:23 93:34 94:23 95:40 96:38 97:44 98:34 99:33 100:30 101:30 102:21 103:26 104:21 105:25 106:16 107:29 108:21 109:35 110:21 111:32 112:38 113:21 114:34 115:17 116:25 117:16 118:19 119:23 120:19 121:22 122:13 123:23 124:8 125:25 126:8 127:24 128:-1 
1.119535598031192e-08 0:56 1:27 2:55 3:33 4:60 5:37 6:63 7:41 8:61 9:43 10:61 11:44 12:59 13:45 14:56 15:43 16:62 17:33 18:60 19:37 20:63 21:41 22:64 23:45 24:64 25:45 26:61 27:43 28:59 29:45 30:56 31:43 32:60 33:37 34:63 35:41 36:64 37:45 38:64 39:45 40:64 41:45 42:61 43:43 44:59 45:40 46:55 47:43 48:63 49:41 50:63 51:41 52:63 53:42 54:63 55:42 56:63 57:42 58:59 59:39 60:59 61:40 62:55 63:44 64:60 65:38 66:60 67:38 68:58 69:36 70:58 71:36 72:58 73:36 74:57 75:38 76:57 77:39 78:54 79:38 80:58 81:37 82:58 83:37 84:55 85:35 86:53 87:35 88:53 89:35 90:54 91:39 92:57 93:40 94:54 95:39 96:58 97:36 98:55 99:35 100:53 101:35 102:51 103:33 104:51 105:33 106:55 107:34 108:55 109:33 110:53 111:33 112:55 113:32 114:55 115:33 116:53 117:34 118:51 119:32 120:51 121:32 122:53 123:32 124:55 125:30 126:53 127:31 128:-1 
1.779220004302245e-07 0:60 1:37 2:60 3:37 4:60 5:37 6:60 7:36 8:60 9:36 10:60 11:36 12:60 13:37 14:58 15:35 16:60 17:37 18:60 19:37 20:60 21:37 22:60 23:37 24:60 25:37 26:60 27:36 28:60 29:36 30:58 31:35 32:60 33:37 34:60 35:37 36:60 37:37 38:60 39:37 40:60 41:37 42:60 43:37 44:60 45:36 46:60 47:36 48:60 49:37 50:60 51:37 52:60 53:37 54:60 55:37 56:60 57:37 58:60 59:37 60:60 61:37 62:60 63:36 64:60 65:37 66:60 67:37 68:60 69:37 70:60 71:37 72:60 73:37 74:60 75:37 76:60 77:37 78:60 79:37 80:60 81:37 82:60 83:37 84:60 85:37 86:60 87:37 88:60 89:37 90:60 91:37 92:60 93:37 94:60 95:37 96:60 97:38 98:60 99:37 100:60 101:37 102:60 103:37 104:60 105:37 106:60 107:37 108:60 109:38 110:60 111:38 112:60 113:38 114:60 115:37 116:60 117:37 118:60 119:37 120:60 121:37 122:60 123:38 124:60 125:38 126:60 127:38 128:-1 
1.759106541743163e-08 0:59 1:41 2:59 3:41 4:56 5:39 6:56 7:40 8:56 9:40 10:56 11:40 12:56 13:40 14:56 15:40 16:61 17:39 18:61 19:39 20:61 21:39 22:61 23:39 24:61 25:39 26:61 27:39 28:61 29:39 30:61 31:39 32:61 33:39 34:61 35:39 36:61 37:39 38:61 39:39 40:61 41:39 42:61 43:39 44:61 45:39 46:61 47:39 48:61 49:39 50:61 51:39 52:61 53:39 54:61 55:39 56:61 57:39 58:61 59:39 60:59 61:36 62:59 63:36 64:61 65:39 66:61 67:39 68:61 69:39 70:61 71:40 72:61 73:40 74:61 75:40 76:59 77:36 78:59 79:36 80:61 81:40 82:61 83:40 84:59 85:36 86:59 87:36 88:59 89:36 90:59 91:36 92:59 93:36 94:59 95:36 96:61 97:40 98:61 99:40 100:59 101:36 102:59 103:36 104:59 105:36 106:59 107:37 108:59 109:37 110:59 111:37 112:59 113:37 114:59 115:37 116:59 117:37 118:59 119:36 120:59 121:36 122:59 123:37 124:59 125:37 126:59 127:37 128:-1 
4.981039122781001e-09 0:61 1:40 2:61 3:40 4:61 5:40 6:61 7:40 8:61 9:40 10:61 11:40 12:59 13:37 14:59 15:37 16:59 17:37 18:59 19:37 20:59 21:37 22:59 23:37 24:59 25:37 26:59 27:37 28:59 29:37 30:59 31:37 32:59 33:37 34:59 35:37 36:59 37:37 38:59 39:37 40:59 41:37 42:59 43:37 44:59 45:37 46:59 47:37 48:59 49:38 50:59 51:37 52:59 53:37 54:59 55:37 56:59 57:37 58:59 59:37 60:60 61:35 62:60 63:35 64:59 65:38 66:59 67:38 68:59 69:38 70:59 71:38 72:59 73:38 74:59 75:38 76:60 77:36 78:60 79:36 80:59 81:38 82:59 83:39 84:59 85:39 86:59 87:39 88:57 89:37 90:57 91:37 92:58 93:35 94:58 95:34 96:59 97:39 98:59 99:39 100:59 101:39 102:59 103:39 104:57 105:37 106:57 107:37 108:58 109:35 110:58 111:34 112:59 113:39 114:59 115:39 116:57 117:37 118:57 119:37 120:57 121:37 122:57 123:37 124:58 125:35 126:58 127:34 128:-1 
5.689131428018232e-09 0:60 1:38 2:58 3:36 4:58 5:36 6:60 7:38 8:60 9:38 10:60 11:37 12:58 13:35 14:58 15:35 16:62 17:34 18:62 19:34 20:62 21:34 22:58 23:36 24:58 25:36 26:58 27:35 28:58 29:35 30:58 31:30 32:62 33:34 34:62 35:34 36:62 37:34 38:58 39:36 40:58 41:36 42:58 43:36 44:58 45:35 46:56 47:28 48:62 49:33 50:62 51:34 52:62 53:34 54:62 55:34 56:62 57:34 58:62 59:34 60:62 61:34 62:56 63:28 64:62 65:33 66:62 67:33 68:62 69:34 70:62 71:34 72:62 73:34 74:62 75:34 76:58 77:30 78:56 79:28 80:66 81:32 82:62 83:28 84:62 85:28 86:58 87:30 88:58 89:30 90:58 91:30 92:58 93:30 94:56 95:28 96:66 97:32 98:62 99:28 100:62 101:27 102:58 103:29 104:58 105:29 106:58 107:29 108:58 109:29 110:56 111:28 112:58 113:30 114:58 115:30 116:58 117:30 118:58 119:29 120:58 121:29 122:53 123:33 124:53 125:33 126:53 127:33 128:-1 
5.323707797875234e-09 0:51 1:31 2:51 3:31 4:53 5:33 6:53 7:33 8:53 9:33 10:55 11:33 12:57 13:36 14:57 15:36 16:52 17:36 18:52 19:35 20:52 21:35 22:52 23:35 24:52 25:34 26:54 27:36 28:57 29:36 30:59 31:38 32:50 33:40 34:50 35:40 36:50 37:39 38:52 39:35 40:52 41:35 42:54 43:36 44:57 45:36 46:59 47:38 48:48 49:46 50:48 51:46 52:50 53:40 54:50 55:39 56:49 57:33 58:52 59:35 60:55 61:33 62:58 63:34 64:47 65:50 66:47 67:50 68:50 69:40 70:50 71:39 72:49 73:33 74:52 75:35 76:55 77:33 78:55 79:33 80:47 81:49 82:47 83:49 84:48 85:39 86:48 87:39 88:49 89:33 90:51 91:31 92:56 93:27 94:56 95:27 96:47 97:49 98:48 99:45 100:48 101:39 102:49 103:33 104:51 105:31 106:51 107:31 108:48 109:25 110:48 111:25 112:46 113:43 114:48 115:39 116:46 117:33 118:46 119:29 120:46 121:28 122:48 123:24 124:45 125:22 126:45 127:23 128:-1 
4.275610183254654e-08 0:48 1:25 2:45 3:24 4:48 5:26 6:45 7:24 8:45 9:24 10:43 11:28 12:43 13:29 14:43 15:28 16:54 17:27 18:48 19:26 20:54 21:27 22:48 23:26 24:48 25:26 26:46 27:29 28:46 29:29 30:46 31:29 32:54 33:27 34:54 35:27 36:54 37:27 38:54 39:27 40:54 41:27 42:51 43:31 44:51 45:31 46:46 47:29 48:60 49:23 50:60 51:23 52:60 53:23 54:56 55:27 56:56 57:28 58:56 59:27 60:56 61:27 62:54 63:27 64:62 65:27 66:60 67:23 68:60 69:23 70:56 71:28 72:56 73:27 74:56 75:27 76:56 77:26 78:56 79:26 80:62 81:28 82:62 83:27 84:62 85:27 86:56 87:28 88:56 89:27 90:56 91:26 92:56 93:26 94:56 95:26 96:62 97:29 98:62 99:28 100:62 101:28 102:56 103:28 104:56 105:27 106:56 107:26 108:56 109:26 110:56 111:26 112:56 113:28 114:56 115:28 116:56 117:28 118:54 119:28 120:54 121:27 122:54 123:27 124:54 125:27 126:54 127:27 128:-1 
1.848989766646915e-10 0:49 1:73 2:49 3:73 4:46 5:78 6:44 7:76 8:43 9:76 10:43 11:85 12:43 13:88 14:46 15:63 16:50 17:84 18:49 19:77 20:46 21:83 22:44 23:73 24:42 25:92 26:42 27:129 28:44 29:138 30:47 31:97 32:49 33:122 34:47 35:104 36:45 37:81 38:43 39:81 40:43 41:90 42:43 43:100 44:43 45:103 46:47 47:108 48:46 49:145 50:44 51:117 52:44 53:93 54:44 55:98 56:44 57:102 58:44 59:110 60:46 61:106 62:47 63:104 64:43 65:126 66:42 67:118 68:44 69:115 70:44 71:106 72:44 73:106 74:45 75:112 76:47 77:108 78:47 79:104 80:42 81:109 82:42 83:95 84:43 85:97 86:44 87:97 88:44 89:99 90:46 91:99 92:47 93:95 94:47 95:95 96:40 97:100 98:42 99:80 100:42 101:80 102:44 103:86 104:45 105:89 106:47 107:88 108:47 109:82 110:47 111:78 112:40 113:92 114:43 115:78 116:43 117:73 118:44 119:77 120:46 121:76 122:46 123:64 124:47 125:68 126:47 127:65 128:-1 
6.664292529360836e-09 0:56 1:28 2:56 3:28 4:56 5:28 6:54 7:28 8:53 9:36 10:53 11:36 12:53 13:36 14:53 15:35 16:54 17:28 18:54 19:27 20:54 21:28 22:51 23:32 24:53 25:34 26:53 27:35 28:53 29:35 30:53 31:36 32:48 33:27 34:46 35:31 36:46 37:32 38:46 39:32 40:51 41:33 42:52 43:38 44:52 45:41 46:54 47:41 48:38 49:22 50:39 51:29 52:43 53:30 54:43 55:29 56:46 57:31 58:49 59:36 60:52 61:42 62:54 63:42 64:35 65:24 66:35 67:27 68:39 69:28 70:38 71:29 72:43 73:32 74:49 75:34 76:52 77:40 78:51 79:49 80:30 81:24 82:35 83:30 84:35 85:29 86:39 87:28 88:43 89:28 90:46 91:29 92:51 93:35 94:52 95:40 96:30 97:20 98:35 99:26 100:35 101:24 102:38 103:23 104:45 105:24 106:48 107:26 108:54 109:29 110:54 111:29 112:30 113:21 114:34 115:17 116:34 117:17 118:40 119:20 120:48 121:21 122:48 123:20 124:52 125:22 126:52 127:24 128:-1 
-2.916163877562016e-08 0:63 1:38 2:63 3:38 4:63 5:38 6:63 7:38 8:63 9:37 10:63 11:38 12:63 13:38 14:63 15:38 16:61 17:40 18:63 19:39 20:61 21:40 22:63 23:39 24:61 25:40 26:63 27:38 28:61 29:40 30:63 31:38 32:59 33:42 34:61 35:41 36:59 37:42 38:61 39:40 40:59 41:42 42:61 43:40 44:59 45:42 46:61 47:40 48:59 49:41 50:59 51:42 52:59 53:41 54:59 55:41 56:59 57:41 58:59 59:41 60:59 61:41 62:59 63:41 64:59 65:35 66:59 67:35 68:59 69:35 70:56 71:39 72:56 73:40 74:56 75:39 76:56 77:39 78:59 79:35 80:60 81:34 82:60 83:34 84:59 85:35 86:59 87:36 88:59 89:36 90:59 91:36 92:59 93:36 94:59 95:36 96:62 97:31 98:62 99:31 100:58 101:32 102:60 103:34 104:60 105:34 106:60 107:34 108:60 109:34 110:58 111:33 112:62 113:31 114:62 115:31 116:62 117:31 118:63 119:32 120:60 121:34 122:63 123:32 124:63 125:33 126:62 127:31 128:-1 
-5.839706857270834e-08 0:54 1:45 2:54 3:45 4:56 5:40 6:56 7:40 8:56 9:40 10:59 11:42 12:59 13:42 14:59 15:42 16:57 17:46 18:57 19:46 20:57 21:46 22:57 23:46 24:59 25:41 26:60 27:43 28:60 29:43 30:60 31:43 32:57 33:46 34:57 35:46 36:57 37:46 38:57 39:46 40:60 41:43 42:60 43:43 44:60 45:43 46:60 47:43 48:59 49:41 50:59 51:40 52:60 53:42 54:60 55:42 56:60 57:42 58:60 59:43 60:63 61:42 62:63 63:43 64:59 65:40 66:59 67:41 68:60 69:42 70:60 71:42 72:60 73:42 74:60 75:42 76:63 77:41 78:63 79:41 80:59 81:40 82:59 83:40 84:59 85:40 86:59 87:40 88:61 89:38 90:61 91:38 92:63 93:41 94:63 95:41 96:59 97:40 98:59 99:40 100:59 101:40 102:59 103:40 104:61 105:38 106:61 107:38 108:61 109:38 110:63 111:41 112:56 113:39 114:56 115:39 116:56 117:39 118:56 119:39 120:56 121:39 122:59 123:40 124:59 125:40 126:59 127:40 128:-1 
-5.3721967798637e-08 0:59 1:36 2:59 3:36 4:59 5:36 6:59 7:36 8:59 9:36 10:59 11:36 12:56 13:40 14:56 15:40 16:59 17:36 18:59 19:36 20:56 21:40 22:56 23:40 24:56 25:40 26:56 27:40 28:56 29:40 30:56 31:40 32:59 33:36 34:59 35:36 36:56 37:40 38:56 39:40 40:56 41:40 42:56 43:40 44:56 45:40 46:56 47:40 48:61 49:40 50:61 51:40 52:61 53:40 54:61 55:40 56:59 57:42 58:59 59:41 60:59 61:41 62:59 63:41 64:61 65:40 66:61 67:40 68:61 69:40 70:61 71:40 72:59 73:41 74:59 75:41 76:59 77:41 78:59 79:41 80:61 81:40 82:61 83:40 84:61 85:40 86:61 87:40 88:61 89:39 90:61 91:39 92:59 93:41 94:59 95:41 96:61 97:40 98:61 99:40 100:61 101:39 102:61 103:39 104:61 105:39 106:61 107:39 108:61 109:39 110:59 111:40 112:60 113:31 114:60 115:31 116:60 117:32 118:60 119:32 120:60 121:33 122:59 123:35 124:59 125:35 126:59 127:35 128:-1 
-3.63677650444819e-09 0:55 1:40 2:55 3:40 4:55 5:40 6:55 7:40 8:56 9:40 10:56 11:40 12:56 13:40 14:56 15:40 16:55 17:40 18:56 19:40 20:55 21:40 22:56 23:40 24:56 25:40 26:56 27:40 28:56 29:40 30:56 31:40 32:56 33:40 34:59 35:42 36:56 37:41 38:59 39:42 40:59 41:42 42:59 43:42 44:61 45:40 46:61 47:40 48:59 49:42 50:59 51:42 52:59 53:42 54:59 55:42 56:59 57:42 58:59 59:42 60:61 61:40 62:61 63:40 64:61 65:40 66:61 67:40 68:61 69:40 70:61 71:40 72:61 73:40 74:61 75:40 76:61 77:41 78:61 79:40 80:61 81:40 82:61 83:40 84:61 85:40 86:61 87:39 88:61 89:41 90:61 91:41 92:61 93:41 94:61 95:41 96:63 97:38 98:63 99:38 100:63 101:37 102:63 103:37 104:60 105:32 106:60 107:33 108:60 109:32 110:60 111:32 112:63 113:36 114:63 115:36 116:63 117:36 118:63 119:36 120:60 121:31 122:60 123:31 124:60 125:31 126:60 127:31 128:-1 
-3.737170132040705e-08 0:56 1:26 2:56 3:27 4:56 5:27 6:58 7:28 8:58 9:28 10:55 11:32 12:55 13:32 14:55 15:31 16:56 17:26 18:56 19:26 20:56 21:26 22:58 23:28 24:58 25:28 26:55 27:32 28:55 29:31 30:55 31:31 32:58 33:28 34:55 35:31 36:55 37:31 38:55 39:31 40:55 41:31 42:58 43:27 44:58 45:26 46:58 47:26 48:62 49:31 50:55 51:31 52:55 53:30 54:55 55:30 56:55 57:30 58:58 59:26 60:58 61:25 62:58 63:25 64:62 65:31 66:58 67:27 68:58 69:27 70:58 71:27 72:58 73:27 74:58 75:27 76:58 77:27 78:58 79:26 80:62 81:31 82:58 83:28 84:58 85:27 86:58 87:28 88:58 89:28 90:58 91:28 92:58 93:28 94:58 95:28 96:58 97:28 98:58 99:28 100:58 101:28 102:58 103:28 104:58 105:28 106:58 107:28 108:58 109:28 110:58 111:28 112:58 113:28 114:58 115:28 116:58 117:28 118:58 119:28 120:58 121:28 122:58 123:28 124:58 125:28 126:58 127:28 128:-1 
-3.024830329901567e-10 0:80 1:24 2:74 3:25 4:74 5:24 6:74 7:22 8:79 9:24 10:79 11:25 12:87 13:23 14:79 15:24 16:79 17:22 18:74 19:23 20:74 21:23 22:74 23:22 24:79 25:23 26:79 27:24 28:80 29:20 30:74 31:24 32:68 33:25 34:68 35:24 36:63 37:21 38:63 39:21 40:63 41:21 42:63 43:21 44:56 45:17 46:63 47:21 48:65 49:28 50:65 51:28 52:57 53:24 54:52 55:22 56:52 57:23 58:45 59:25 60:48 61:21 62:52 63:22 64:65 65:30 66:63 67:29 68:52 69:30 70:48 71:26 72:45 73:22 74:39 75:28 76:38 77:25 78:38 79:24 80:66 81:25 82:56 83:22 84:52 85:28 86:48 87:22 88:38 89:22 90:38 91:22 92:35 93:24 94:35 95:24 96:80 97:19 98:70 99:12 100:55 101:11 102:42 103:10 104:43 105:14 106:35 107:12 108:25 109:12 110:30 111:18 112:90 113:10 114:83 115:7 116:75 117:4 118:50 119:6 120:30 121:4 122:30 123:4 124:20 125:6 126:24 127:9 128:-1 
-5.289202786390958e-09 0:37 1:38 2:38 3:32 4:38 5:32 6:39 7:30 8:35 9:28 10:26 11:30 12:26 13:30 14:23 15:25 16:35 17:42 18:34 19:32 20:35 21:27 22:35 23:22 24:30 25:21 26:23 27:26 28:23 29:25 30:23 31:24 32:32 33:33 34:35 35:29 36:35 37:22 38:30 39:19 40:30 41:20 42:23 43:25 44:23 45:24 46:21 47:19 48:30 49:24 50:35 51:21 52:34 53:15 54:30 55:15 56:30 57:15 58:21 59:19 60:30 61:14 62:25 63:11 64:30 65:17 66:30 67:17 68:30 69:14 70:25 71:11 72:25 73:12 74:25 75:11 76:24 77:8 78:20 79:5 80:30 81:14 82:30 83:14 84:25 85:11 86:24 87:9 88:24 89:9 90:20 91:6 92:30 93:3 94:0 95:0 96:25 97:11 98:35 99:11 100:36 101:9 102:36 103:9 104:30 105:4 106:0 107:0 108:110 109:5 110:114 111:8 112:36 113:9 114:36 115:9 116:50 117:6 118:30 119:4 120:75 121:4 122:110 123:6 124:114 125:9 126:115 127:10 128:-1 
-2.922747034988179e-10 0:60 1:23 2:54 3:26 4:51 5:30 6:46 7:33 8:44 9:38 10:42 11:36 12:41 13:43 14:42 15:36 16:65 17:22 18:57 19:22 20:54 21:28 22:46 23:30 24:46 25:34 26:42 27:36 28:41 29:43 30:37 31:36 32:68 33:19 34:66 35:20 36:57 37:24 38:48 39:29 40:46 41:33 42:42 43:36 44:42 45:35 46:42 47:35 48:74 49:18 50:73 51:15 52:63 53:19 54:52 55:23 56:46 57:35 58:43 59:36 60:42 61:36 62:42 63:33 64:80 65:15 66:80 67:13 68:66 69:14 70:56 71:16 72:48 73:46 74:46 75:54 76:46 77:37 78:42 79:35 80:79 81:23 82:87 83:16 84:79 85:14 86:66 87:13 88:63 89:17 90:48 91:38 92:46 93:50 94:43 95:42 96:80 97:36 98:85 99:24 100:85 101:17 102:87 103:13 104:79 105:14 106:73 107:16 108:51 109:20 110:40 111:38 112:74 113:33 114:80 115:29 116:85 117:27 118:90 119:23 120:87 121:16 122:87 123:13 124:83 125:6 126:36 127:9 128:-1 
-1.393041779172189e-10 0:50 1:7 2:0 3:0 4:0 5:0 6:165 7:4 8:140 9:4 10:140 11:5 12:173 13:9 14:13 15:19 16:36 17:9 18:20 19:6 20:165 21:4 22:173 23:8 24:156 25:7 26:145 27:9 28:160 29:10 30:11 31:15 32:43 33:12 34:30 35:3 36:165 37:3 38:145 39:9 40:141 41:9 42:142 43:15 44:150 45:10 46:0 47:10 48:51 49:13 50:42 51:8 52:75 53:3 54:126 55:7 56:133 57:9 58:130 59:12 60:145 61:8 62:20 63:5 64:60 65:22 66:63 67:18 68:60 69:11 70:80 71:8 72:96 73:7 74:114 75:7 76:110 77:4 78:30 79:3 80:58 81:29 82:60 83:22 84:65 85:21 86:66 87:17 88:70 89:10 90:83 91:7 92:83 93:7 94:55 95:11 96:55 97:36 98:58 99:32 100:56 101:29 102:57 103:22 104:52 105:25 106:51 107:15 108:51 109:13 110:51 111:13 112:56 113:31 114:56 115:32 116:54 117:33 118:48 119:33 120:45 121:36 122:40 123:24 124:40 125:19 126:48 127:18 128:-1 
-2.362293893724277e-11 0:19 1:16 2:13 3:12 4:173 5:6 6:156 7:8 8:133 9:12 10:133 11:11 12:124 13:9 14:124 15:8 16:13 17:17 18:11 19:14 20:170 21:10 22:156 23:8 24:133 25:12 26:130 27:15 28:125 29:13 30:120 31:9 32:13 33:16 34:11 35:13 36:170 37:9 38:160 39:10 40:141 41:12 42:133 43:13 44:124 45:13 46:120 47:11 48:8 49:17 50:6 51:16 52:170 53:14 54:160 55:10 56:156 57:9 58:132 59:10 60:126 61:11 62:114 63:13 64:5 65:20 66:3 67:20 68:177 69:17 70:170 71:11 72:170 73:12 74:165 75:4 76:0 77:0 78:75 79:4 80:3 81:22 82:177 83:24 84:170 85:20 86:170 87:11 88:170 89:12 90:20 91:6 92:30 93:4 94:42 95:10 96:170 97:27 98:170 99:18 100:163 101:12 102:170 103:8 104:173 105:7 106:20 107:6 108:36 109:10 110:35 111:13 112:150 113:17 114:150 115:10 116:150 117:8 118:145 119:7 120:156 121:7 122:165 123:4 124:30 125:4 126:35 127:12 128:-1 
-4.371272189364595e-08 0:62 1:30 2:62 3:29 4:62 5:27 6:62 7:27 8:62 9:28 10:66 11:28 12:62 13:24 14:62 15:24 16:62 17:27 18:62 19:27 20:62 21:27 22:62 23:27 24:66 25:28 26:66 27:28 28:62 29:25 30:62 31:25 32:67 33:29 34:67 35:30 36:66 37:27 38:66 39:28 40:66 41:29 42:66 43:29 44:66 45:29 46:66 47:30 48:67 49:30 50:67 51:31 52:66 53:29 54:66 55:29 56:66 57:29 58:62 59:31 60:66 61:30 62:62 63:32 64:66 65:37 66:66 67:38 68:63 69:33 70:63 71:34 72:62 73:32 74:58 75:35 76:62 77:32 78:58 79:35 80:66 81:39 82:66 83:39 84:63 85:34 86:60 87:35 88:58 89:34 90:58 91:35 92:58 93:35 94:57 95:37 96:66 97:40 98:63 99:40 100:63 101:40 102:63 103:39 104:60 105:35 106:59 107:37 108:57 109:36 110:55 111:41 112:63 113:39 114:63 115:39 116:63 117:39 118:63 119:40 120:59 121:38 122:59 123:38 124:55 125:41 126:55 127:41 128:-1 
-1.369657520870646e-08 0:55 1:32 2:55 3:32 4:55 5:32 6:55 7:32 8:58 9:28 10:66 11:30 12:66 13:30 14:69 15:28 16:55 17:31 18:55 19:31 20:55 21:31 22:55 23:31 24:55 25:31 26:62 27:31 28:66 29:29 30:66 31:27 32:53 33:31 34:53 35:31 36:53 37:31 38:53 39:30 40:55 41:31 42:62 43:30 44:62 45:29 46:62 47:28 48:53 49:31 50:53 51:31 52:53 53:31 54:53 55:30 56:55 57:30 58:58 59:26 60:62 61:29 62:62 63:31 64:53 65:31 66:56 67:26 68:56 69:25 70:56 71:25 72:58 73:26 74:58 75:27 76:62 77:30 78:58 79:27 80:53 81:31 82:56 83:25 84:56 85:24 86:56 87:25 88:58 89:28 90:58 91:28 92:62 93:32 94:58 95:28 96:56 97:25 98:58 99:26 100:58 101:26 102:58 103:27 104:58 105:28 106:55 107:32 108:55 109:33 110:55 111:33 112:58 113:25 114:58 115:25 116:58 117:28 118:58 119:29 120:58 121:29 122:55 123:33 124:54 125:36 126:55 127:32 128:-1 
-1.045167153862778e-08 0:66 1:17 2:63 3:22 4:57 5:27 6:54 7:31 8:51 9:33 10:48 11:41 12:46 13:44 14:44 15:38 16:87 17:14 18:87 19:15 20:79 21:16 22:74 23:17 24:65 25:21 26:51 27:30 28:48 29:38 30:49 31:34 32:93 33:15 34:93 35:14 36:87 37:12 38:79 39:14 40:68 41:17 42:54 43:23 44:49 45:29 46:51 47:30 48:80 49:15 50:79 51:19 52:74 53:20 54:74 55:20 56:65 57:24 58:57 59:22 60:51 61:29 62:54 63:24 64:66 65:18 66:63 67:19 68:60 69:24 70:60 71:24 72:56 73:29 74:54 75:28 76:54 77:26 78:54 79:24 80:51 81:30 82:49 83:33 84:48 85:39 86:46 87:42 88:48 89:38 90:53 91:33 92:60 93:23 94:57 95:20 96:44 97:36 98:43 99:40 100:45 101:45 102:42 103:48 104:46 105:40 106:51 107:29 108:54 109:26 110:57 111:20 112:46 113:32 114:44 115:36 116:43 117:40 118:41 119:40 120:44 121:36 122:46 123:31 124:46 125:28 126:46 127:27 128:-1 
-1.107947389408293e-08 0:37 1:49 2:37 3:49 4:37 5:45 6:38 7:40 8:38 9:40 10:38 11:41 12:37 13:34 14:38 15:39 16:35 17:41 18:35 19:42 20:38 21:41 22:38 23:40 24:38 25:39 26:37 27:43 28:38 29:40 30:37 31:43 32:35 33:26 34:38 35:30 36:37 37:33 38:38 39:38 40:38 41:37 42:37 43:41 44:37 45:42 46:37 47:42 48:40 49:17 50:45 51:22 52:43 53:26 54:43 55:29 56:42 57:32 58:41 59:37 60:41 61:38 62:41 63:39 64:56 65:13 66:52 67:18 68:48 69:22 70:46 71:25 72:46 73:28 74:46 75:29 76:46 77:30 78:44 79:40 80:54 81:21 82:54 83:21 84:51 85:26 86:51 87:27 88:51 89:26 90:54 91:22 92:54 93:22 94:57 95:20 96:54 97:34 98:54 99:33 100:54 101:34 102:55 103:31 104:56 105:24 106:62 107:22 108:68 109:17 110:74 111:19 112:50 113:71 114:51 115:68 116:55 117:49 118:58 119:36 120:62 121:27 122:71 123:29 124:85 125:19 126:92 127:18 128:-1 
-5.534519397519945e-09 0:42 1:35 2:41 3:41 4:40 5:43 6:40 7:41 8:40 9:44 10:40 11:52 12:40 13:47 14:40 15:43 16:48 17:24 18:46 19:27 20:46 21:25 22:46 23:20 24:46 25:22 26:48 27:24 28:46 29:27 30:46 31:31 32:54 33:25 34:54 35:25 36:60 37:20 38:57 39:15 40:63 41:14 42:66 43:14 44:63 45:16 46:57 47:22 48:53 49:33 50:53 51:37 52:55 53:36 54:56 55:23 56:65 57:18 58:73 59:14 60:80 61:15 62:73 63:16 64:48 65:44 66:50 67:50 68:52 69:45 70:53 71:35 72:60 73:24 74:73 75:17 76:80 77:17 78:79 79:18 80:43 81:42 82:43 83:39 84:44 85:34 86:44 87:35 88:46 89:28 90:66 91:19 92:79 93:21 94:79 95:21 96:40 97:43 98:41 99:36 100:41 101:36 102:42 103:34 104:46 105:33 106:57 107:21 108:65 109:23 110:68 111:22 112:37 113:42 114:38 115:36 116:38 117:36 118:37 119:33 120:42 121:34 122:44 123:37 124:49 125:33 126:51 127:30 128:-1 
-7.590242607351799e-11 0:55 1:9 2:43 3:11 4:34 5:15 6:30 7:19 8:30 9:25 10:26 11:32 12:32 13:32 14:35 15:43 16:74 17:14 18:66 19:13 20:56 21:11 22:48 23:14 24:40 25:13 26:30 27:17 28:30 29:25 30:32 31:33 32:77 33:36 34:74 35:36 36:74 37:31 38:69 39:24 40:65 41:18 42:51 43:12 44:34 45:14 46:35 47:19 48:80 49:51 50:77 51:51 52:77 53:38 54:76 55:26 56:74 57:20 58:70 59:10 60:42 61:8 62:34 63:12 64:80 65:35 66:80 67:33 68:79 69:26 70:80 71:17 72:80 73:12 74:90 75:9 76:83 77:6 78:42 79:7 80:84 81:28 82:84 83:25 84:85 85:19 86:87 87:15 88:90 89:9 90:96 91:9 92:83 93:7 94:51 95:12 96:92 97:23 98:98 99:24 100:95 101:17 102:96 103:15 104:80 105:11 106:83 107:9 108:42 109:11 110:48 111:21 112:95 113:27 114:101 115:25 116:103 117:20 118:104 119:17 120:101 121:11 122:96 123:9 124:66 125:10 126:48 127:21 128:-1 
