svm_type c_svc
kernel_type polynomial
degree 3
gamma 0.00520833
coef0 0
nr_class 2
total_sv 24
rho -0.941211
label 1 -1
nr_sv 17 7
SV
7.980903670865664e-13 0:109 1:160 2:153 3:112 4:155 5:150 6:105 7:148 8:143 9:129 10:162 11:161 12:131 13:164 14:163 15:91 16:141 17:137 18:80 19:130 20:126 21:64 22:134 23:123 24:93 25:149 26:146 27:88 28:139 29:132 30:65 31:116 32:109 33:74 34:124 35:120 36:87 37:137 38:133 39:64 40:124 41:116 42:52 43:112 44:104 45:47 46:118 47:104 48:41 49:97 50:102 51:28 52:74 53:81 54:28 55:74 56:81 57:46 58:100 59:91 60:61 61:115 62:106 63:69 64:123 65:114 66:73 67:127 68:118 69:74 70:125 71:117 72:56 73:109 74:115 75:56 76:110 77:114 78:61 79:115 80:119 81:50 82:108 83:100 84:37 85:95 86:87 87:92 88:141 89:133 90:87 91:136 92:128 93:83 94:122 95:124 96:100 97:141 98:143 99:96 100:145 101:143 102:89 103:138 104:136 105:62 106:121 107:116 108:80 109:139 110:134 111:125 112:180 113:175 114:92 115:147 116:142 117:42 118:102 119:107 120:78 121:141 122:131 123:96 124:150 125:141 126:99 127:153 128:144 129:92 130:143 131:136 132:112 133:163 134:156 135:137 136:182 137:185 138:126 139:171 140:174 141:85 142:131 143:138 144:74 145:152 146:144 147:107 148:162 149:157 150:100 151:155 152:150 153:120 154:158 155:156 156:138 157:176 158:174 159:144 160:176 161:177 162:142 163:174 164:175 165:114 166:149 167:149 168:143 169:194 170:200 171:118 172:166 173:173 174:86 175:134 176:141 177:95 178:145 179:147 180:108 181:158 182:160 183:125 184:172 185:169 186:102 187:149 188:146 189:61 190:112 191:110 192:-1 
2.277755083861371e-13 0:68 1:109 2:111 3:81 4:122 5:124 6:88 7:132 8:131 9:50 10:94 11:93 12:65 13:113 14:114 15:105 16:153 17:154 18:57 19:122 20:120 21:65 22:130 23:128 24:77 25:124 26:121 27:91 28:138 29:135 30:108 31:144 32:148 33:120 34:156 35:160 36:141 37:173 38:182 39:147 40:179 41:188 42:93 43:137 44:144 45:62 46:106 47:113 48:66 49:117 50:115 51:78 52:129 53:127 54:104 55:139 56:139 57:145 58:180 59:180 60:168 61:193 62:202 63:164 64:189 65:198 66:121 67:155 68:164 69:89 70:123 71:132 72:39 73:89 74:78 75:20 76:70 77:59 78:15 79:53 80:36 81:4 82:42 83:25 84:46 85:70 86:68 87:114 88:138 89:136 90:113 91:143 92:151 93:125 94:155 95:163 96:39 97:78 98:72 99:27 100:66 101:60 102:11 103:46 104:33 105:0 106:35 107:22 108:14 109:49 110:43 111:58 112:93 113:87 114:66 115:105 116:99 117:89 118:128 119:122 120:21 121:68 122:52 123:33 124:80 125:64 126:25 127:73 128:61 129:11 130:59 131:47 132:27 133:81 134:65 135:49 136:103 137:87 138:33 139:87 140:63 141:48 142:102 143:78 144:56 145:93 146:80 147:82 148:119 149:106 150:80 151:118 152:109 153:57 154:95 155:86 156:72 157:118 158:106 159:96 160:142 161:130 162:72 163:125 164:112 165:69 166:122 167:109 168:70 169:107 170:107 171:86 172:123 173:123 174:100 175:136 176:126 177:93 178:129 179:119 180:92 181:138 182:124 183:102 184:148 185:134 186:78 187:136 188:120 189:75 190:133 191:117 192:-1 
2.945913512249858e-14 0:10 1:82 2:85 3:19 4:91 5:94 6:55 7:126 8:127 9:60 10:131 11:132 12:90 13:156 14:150 15:97 16:163 17:157 18:9 19:70 20:60 21:2 22:63 23:53 24:52 25:125 26:126 27:41 28:114 29:115 30:34 31:113 32:115 33:38 34:117 35:119 36:77 37:155 38:155 39:107 40:185 41:185 42:66 43:135 44:134 45:37 46:106 47:105 48:108 49:162 50:159 51:91 52:145 53:142 54:74 55:130 56:134 57:66 58:122 59:126 60:82 61:145 62:148 63:112 64:175 65:178 66:122 67:177 68:177 69:114 70:169 71:169 72:91 73:152 74:148 75:97 76:158 77:154 78:125 79:173 80:174 81:120 82:168 83:169 84:98 85:149 86:147 87:96 88:147 89:145 90:116 91:171 92:164 93:119 94:174 95:167 96:98 97:154 98:151 99:99 100:155 101:152 102:119 103:167 104:168 105:126 106:174 107:175 108:110 109:158 110:160 111:92 112:140 113:142 114:88 115:151 116:149 117:103 118:166 119:164 120:135 121:172 122:172 123:124 124:161 125:161 126:119 127:158 128:160 129:131 130:170 131:172 132:112 133:160 134:167 135:94 136:142 137:149 138:77 139:140 140:144 141:97 142:160 143:164 144:116 145:157 146:152 147:112 148:153 149:148 150:118 151:156 152:154 153:141 154:179 155:177 156:137 157:174 158:181 159:134 160:171 161:178 162:115 163:160 164:171 165:107 166:152 167:163 168:84 169:136 170:132 171:74 172:126 173:122 174:71 175:120 176:118 177:116 178:165 179:163 180:120 181:164 182:171 183:113 184:157 185:164 186:106 187:157 188:170 189:88 190:139 191:152 192:-1 
6.03571570880447e-13 0:97 1:133 2:129 3:111 4:147 5:143 6:106 7:136 8:144 9:58 10:88 11:96 12:15 13:41 14:60 15:69 16:95 17:114 18:116 19:141 20:145 21:115 22:140 23:144 24:83 25:118 26:110 27:96 28:131 29:123 30:107 31:140 32:139 33:86 34:119 35:118 36:31 37:68 38:81 39:76 40:113 41:126 42:100 43:147 44:145 45:75 46:122 47:120 48:39 49:86 50:70 51:40 52:87 53:71 54:80 55:129 56:106 57:87 58:136 59:113 60:56 61:96 62:100 63:96 64:136 65:140 66:125 67:161 68:159 69:104 70:140 71:138 72:65 73:108 74:103 75:81 76:124 77:119 78:65 79:99 80:102 81:94 82:128 83:131 84:114 85:140 86:146 87:111 88:137 89:143 90:119 91:140 92:147 93:99 94:120 95:127 96:91 97:127 98:123 99:116 100:152 101:148 102:37 103:69 104:72 105:80 106:112 107:115 108:139 109:166 110:170 111:119 112:146 113:150 114:104 115:127 116:136 117:54 118:77 119:86 120:133 121:161 122:162 123:132 124:160 125:161 126:70 127:100 128:108 129:42 130:72 131:80 132:74 133:107 134:114 135:81 136:114 137:121 138:78 139:107 140:117 141:47 142:76 143:86 144:110 145:139 146:136 147:100 148:129 149:126 150:83 151:120 152:120 153:49 154:86 155:86 156:23 157:69 158:76 159:34 160:80 161:87 162:51 163:98 164:103 165:49 166:96 167:101 168:33 169:71 170:54 171:76 172:114 173:97 174:107 175:141 176:123 177:113 178:147 179:129 180:107 181:138 182:137 183:96 184:127 185:126 186:99 187:133 188:129 189:93 190:127 191:123 192:-1 
2.010843229820545e-12 0:115 1:154 2:156 3:115 4:154 5:156 6:128 7:165 8:165 9:127 10:164 11:164 12:127 13:163 14:161 15:132 16:168 17:166 18:130 19:164 20:160 21:123 22:157 23:153 24:111 25:152 26:154 27:116 28:157 29:159 30:133 31:170 32:170 33:130 34:167 35:167 36:122 37:158 38:154 39:129 40:165 41:161 42:127 43:165 44:156 45:116 46:154 47:145 48:111 49:150 50:152 51:121 52:160 53:162 54:137 55:170 56:169 57:129 58:162 59:161 60:107 61:144 62:138 63:112 64:149 65:143 66:110 67:154 68:147 69:102 70:146 71:139 72:129 73:158 74:163 75:138 76:167 77:172 78:108 79:142 80:138 81:81 82:115 83:111 84:60 85:113 86:100 87:82 88:135 89:122 90:90 91:144 92:135 93:72 94:126 95:117 96:97 97:129 98:125 99:120 100:152 101:148 102:105 103:140 104:134 105:94 106:129 107:123 108:104 109:141 110:135 111:118 112:155 113:149 114:113 115:153 116:152 117:94 118:134 119:133 120:36 121:92 122:89 123:57 124:113 125:110 126:88 127:138 128:134 129:102 130:152 131:148 132:137 133:171 134:167 135:143 136:177 137:173 138:128 139:168 140:167 141:106 142:146 143:145 144:50 145:105 146:105 147:35 148:90 149:90 150:87 151:138 152:130 153:102 154:153 155:145 156:120 157:159 158:153 159:129 160:168 161:162 162:132 163:175 164:172 165:120 166:163 167:160 168:85 169:129 170:130 171:68 172:112 173:113 174:102 175:145 176:142 177:113 178:156 179:153 180:109 181:151 182:144 183:112 184:154 185:147 186:121 187:168 188:160 189:118 190:165 191:157 192:-1 
8.694001493009332e-13 0:84 1:126 2:119 3:93 4:135 5:128 6:101 7:140 8:135 9:92 10:131 11:126 12:86 13:121 14:113 15:118 16:153 17:145 18:134 19:173 20:160 21:115 22:154 23:141 24:83 25:127 26:120 27:79 28:123 29:116 30:88 31:137 32:129 33:82 34:131 35:123 36:44 37:96 38:92 39:60 40:112 41:108 42:85 43:141 44:132 45:94 46:150 47:141 48:72 49:125 50:118 51:60 52:113 53:106 54:79 55:131 56:127 57:89 58:141 59:137 60:78 61:128 62:130 63:54 64:104 65:106 66:48 67:109 68:105 69:76 70:137 71:133 72:59 73:118 74:113 75:60 76:119 77:114 78:78 79:136 80:135 81:89 82:147 83:146 84:90 85:138 86:145 87:66 88:114 89:121 90:52 91:108 92:113 93:77 94:133 95:138 96:91 97:141 98:137 99:85 100:135 101:131 102:91 103:139 104:141 105:92 106:140 107:142 108:90 109:135 110:145 111:77 112:122 113:132 114:73 115:121 116:128 117:88 118:136 119:143 120:139 121:173 122:169 123:125 124:159 125:155 126:112 127:144 128:147 129:111 130:143 131:146 132:103 133:143 134:149 135:104 136:144 137:150 138:94 139:145 140:145 141:91 142:142 143:142 144:123 145:156 146:163 147:107 148:140 149:147 150:104 151:136 152:145 153:110 154:142 155:151 156:106 157:146 158:150 159:113 160:153 161:157 162:96 163:147 164:147 165:65 166:116 167:116 168:104 169:144 170:150 171:96 172:136 173:142 174:101 175:138 176:146 177:106 178:143 179:151 180:105 181:148 182:151 183:113 184:156 185:159 186:100 187:147 188:152 189:53 190:100 191:105 192:-1 
6.402643998600772e-13 0:23 1:57 2:66 3:52 4:86 5:95 6:106 7:143 8:158 9:102 10:139 11:154 12:68 13:124 14:121 15:73 16:129 17:126 18:49 19:118 20:104 21:50 22:119 23:105 24:39 25:83 26:89 27:74 28:118 29:124 30:89 31:135 32:136 33:97 34:143 35:144 36:101 37:152 38:145 39:71 40:122 41:115 42:34 43:96 44:88 45:46 46:108 47:100 48:52 49:108 50:112 51:62 52:118 53:122 54:69 55:128 56:123 57:68 58:127 59:122 60:68 61:126 62:118 63:0 64:47 65:39 66:21 67:77 68:74 69:61 70:117 71:114 72:63 73:126 74:129 75:66 76:129 77:132 78:78 79:139 80:142 81:70 82:131 83:134 84:60 85:123 86:121 87:42 88:105 89:103 90:44 91:107 92:111 93:60 94:123 95:127 96:67 97:130 98:134 99:80 100:143 101:147 102:108 103:156 104:158 105:104 106:152 107:154 108:90 109:138 110:139 111:124 112:172 113:173 114:99 115:155 116:160 117:80 118:136 119:141 120:67 121:127 122:139 123:71 124:131 125:143 126:83 127:135 128:137 129:92 130:144 131:146 132:90 133:140 134:142 135:133 136:183 137:185 138:114 139:165 140:171 141:94 142:145 143:151 144:77 145:130 146:143 147:82 148:135 149:148 150:88 151:135 152:140 153:97 154:144 155:149 156:114 157:154 158:153 159:126 160:166 161:165 162:121 163:164 164:167 165:121 166:164 167:167 168:109 169:150 170:158 171:115 172:156 173:164 174:105 175:144 176:152 177:96 178:135 179:143 180:62 181:107 182:104 183:69 184:114 185:111 186:115 187:161 188:155 189:141 190:187 191:181 192:-1 
1.392058537708635e-12 0:101 1:135 2:131 3:107 4:142 5:136 6:102 7:137 8:131 9:102 10:139 11:133 12:102 13:139 14:133 15:82 16:120 17:131 18:38 19:76 20:87 21:20 22:54 23:76 24:56 25:105 26:103 27:93 28:137 29:130 30:92 31:136 32:129 33:82 34:121 35:116 36:82 37:121 38:116 39:65 40:109 41:110 42:35 43:79 44:80 45:47 46:95 47:96 48:73 49:124 50:117 51:90 52:131 53:126 54:82 55:123 56:118 57:62 58:98 59:96 60:79 61:115 62:113 63:96 64:131 65:131 66:73 67:108 68:108 69:55 70:96 71:91 72:110 73:150 74:141 75:96 76:129 77:128 78:85 79:118 80:117 81:63 82:102 83:104 84:72 85:111 86:113 87:87 88:133 89:127 90:78 91:124 92:118 93:75 94:119 95:112 96:99 97:131 98:126 99:58 100:96 101:94 102:69 103:107 104:105 105:75 106:116 107:118 108:82 109:123 110:125 111:79 112:132 113:119 114:39 115:92 116:79 117:48 118:104 119:88 120:102 121:137 122:131 123:62 124:110 125:111 126:43 127:91 128:92 129:72 130:120 131:121 132:86 133:134 134:135 135:97 136:146 137:138 138:64 139:113 140:105 141:53 142:104 143:96 144:129 145:165 146:155 147:106 148:146 149:144 150:82 151:122 152:120 153:84 154:129 155:126 156:101 157:146 158:143 159:126 160:162 161:158 162:116 163:152 164:148 165:113 166:148 167:142 168:100 169:158 170:123 171:110 172:154 173:140 174:100 175:144 176:130 177:93 178:133 179:131 180:90 181:130 182:128 183:107 184:144 185:138 186:132 187:169 188:163 189:120 190:155 191:142 192:-1 
7.464732505985687e-13 0:42 1:97 2:77 3:131 4:166 5:158 6:189 7:224 8:216 9:197 10:208 11:212 12:159 13:170 14:174 15:113 16:126 17:138 18:68 19:81 20:93 21:46 22:75 23:85 24:116 25:170 26:159 27:186 28:211 29:215 30:194 31:219 32:223 33:176 34:188 35:190 36:145 37:157 38:159 39:95 40:117 41:122 42:70 43:92 44:97 45:45 46:84 47:86 48:181 49:219 50:217 51:202 52:218 53:221 54:185 55:201 56:204 57:164 58:170 59:175 60:129 61:135 62:140 63:69 64:96 65:93 66:76 67:103 68:100 69:57 70:100 71:97 72:200 73:210 74:218 75:175 76:182 77:191 78:174 79:181 80:190 81:140 82:148 83:155 84:77 85:85 86:92 87:9 88:26 89:27 90:43 91:60 92:61 93:29 94:53 95:53 96:183 97:191 98:198 99:168 100:171 101:185 102:162 103:165 104:179 105:73 106:86 107:90 108:37 109:50 110:54 111:43 112:73 113:68 114:59 115:89 116:84 117:35 118:67 119:62 120:188 121:191 122:199 123:169 124:168 125:182 126:117 127:116 128:130 129:14 130:24 131:32 132:33 133:43 134:51 135:84 136:118 137:108 138:90 139:124 140:114 141:94 142:130 143:120 144:161 145:162 146:176 147:83 148:95 149:103 150:17 151:29 152:37 153:40 154:78 155:69 156:68 157:106 158:97 159:71 160:124 161:103 162:72 163:125 164:104 165:86 166:128 167:113 168:98 169:108 170:121 171:24 172:47 173:56 174:0 175:17 176:26 177:67 178:109 179:102 180:88 181:130 182:123 183:82 184:128 185:122 186:65 187:111 188:105 189:59 190:94 191:94 192:-1 
1.242532542993849e-12 0:87 1:126 2:115 3:26 4:61 5:53 6:57 7:92 8:84 9:154 10:171 11:177 12:194 13:211 14:217 15:197 16:200 17:208 18:188 19:191 20:199 21:169 22:168 23:182 24:95 25:139 26:132 27:76 28:110 29:106 30:102 31:136 32:132 33:164 34:177 35:189 36:165 37:178 38:190 39:167 40:168 41:182 42:161 43:162 44:176 45:83 46:95 47:103 48:74 49:119 50:109 51:88 52:117 53:108 54:120 55:149 56:140 57:163 58:176 59:188 60:174 61:187 62:199 63:169 64:179 65:192 66:98 67:108 68:121 69:24 70:47 71:56 72:10 73:51 74:33 75:70 76:100 77:82 78:125 79:155 80:137 81:180 82:189 83:200 84:191 85:200 86:211 87:163 88:169 89:182 90:33 91:39 92:52 93:4 94:16 95:31 96:77 97:104 98:88 99:145 100:155 101:155 102:171 103:181 104:181 105:194 106:190 107:212 108:146 109:142 110:164 111:61 112:64 113:93 114:17 115:20 116:49 117:40 118:58 119:69 120:150 121:168 122:158 123:200 124:201 125:209 126:199 127:200 128:208 129:166 130:167 131:175 132:61 133:62 134:70 135:12 136:19 137:22 138:34 139:41 140:44 141:80 142:95 143:88 144:188 145:201 146:205 147:190 148:195 149:204 150:157 151:162 152:171 153:71 154:87 155:90 156:25 157:41 158:44 159:16 160:44 161:39 162:26 163:54 164:49 165:26 166:64 167:42 168:196 169:203 170:212 171:150 172:160 173:168 174:96 175:106 176:114 177:34 178:56 179:67 180:57 181:79 182:90 183:57 184:95 185:99 186:45 187:83 188:87 189:51 190:90 191:77 192:-1 
2.980634116954671e-13 0:89 1:113 2:106 3:156 4:166 5:174 6:172 7:182 8:190 9:178 10:187 11:198 12:153 13:162 14:173 15:77 16:100 17:102 18:33 19:56 20:58 21:75 22:114 23:108 24:161 25:181 26:179 27:180 28:188 29:201 30:179 31:187 32:200 33:158 34:173 35:179 36:95 37:110 38:116 39:60 40:92 41:88 42:81 43:113 44:109 45:74 46:117 47:112 48:175 49:193 50:196 51:178 52:193 53:199 54:160 55:175 56:181 57:113 58:142 59:147 60:59 61:88 62:93 63:53 64:98 65:95 66:81 67:126 68:123 69:55 70:106 71:98 72:143 73:161 74:164 75:132 76:139 77:155 78:51 79:58 80:74 81:9 82:9 83:39 84:14 85:14 86:44 87:11 88:26 89:32 90:28 91:43 92:49 93:76 94:111 95:105 96:148 97:162 98:172 99:104 100:119 101:125 102:24 103:39 104:45 105:7 106:19 107:21 108:20 109:32 110:34 111:13 112:26 113:32 114:15 115:28 116:34 117:106 118:131 119:127 120:136 121:145 122:156 123:48 124:61 125:65 126:9 127:22 128:26 129:9 130:23 131:31 132:48 133:62 134:70 135:31 136:55 137:68 138:40 139:64 140:77 141:108 142:143 143:137 144:81 145:89 146:102 147:9 148:21 149:29 150:49 151:61 152:69 153:61 154:86 155:95 156:67 157:92 158:101 159:46 160:85 161:87 162:51 163:90 164:92 165:88 166:131 167:121 168:24 169:39 170:38 171:59 172:89 173:90 174:73 175:103 176:104 177:71 178:108 179:115 180:59 181:96 182:103 183:58 184:98 185:96 186:64 187:104 188:102 189:73 190:112 191:107 192:-1 
2.354908905254705e-13 0:86 1:144 2:156 3:71 4:129 5:141 6:95 7:144 8:149 9:117 10:166 11:171 12:121 13:166 14:163 15:83 16:128 17:125 18:107 19:157 20:166 21:142 22:192 23:201 24:87 25:151 26:166 27:76 28:140 29:155 30:76 31:137 32:154 33:89 34:150 35:167 36:108 37:156 38:163 39:90 40:138 41:145 42:101 43:149 44:151 45:126 46:174 47:176 48:120 49:166 50:180 51:123 52:169 53:183 54:110 55:150 56:169 57:105 58:145 59:164 60:106 61:149 62:159 63:109 64:152 65:162 66:104 67:148 68:155 69:102 70:146 71:153 72:86 73:150 74:165 75:93 76:157 77:172 78:60 79:128 80:138 81:82 82:150 83:160 84:113 85:173 86:178 87:96 88:156 89:161 90:96 91:142 92:156 93:98 94:144 95:158 96:74 97:147 98:161 99:78 100:151 101:165 102:54 103:137 104:141 105:66 106:149 107:153 108:105 109:175 110:178 111:86 112:156 113:159 114:71 115:130 116:146 117:65 118:124 119:140 120:94 121:161 122:165 123:83 124:150 125:154 126:80 127:159 128:161 129:58 130:137 131:139 132:49 133:128 134:130 135:83 136:162 137:164 138:103 139:167 140:174 141:98 142:162 143:169 144:63 145:148 146:140 147:57 148:142 149:134 150:82 151:164 152:157 153:79 154:161 155:154 156:79 157:152 158:153 159:79 160:152 161:153 162:103 163:166 164:169 165:115 166:178 167:181 168:49 169:134 170:125 171:68 172:153 173:144 174:100 175:166 176:160 177:109 178:175 179:169 180:119 181:176 182:177 183:84 184:141 185:142 186:63 187:133 188:136 189:85 190:155 191:158 192:-1 
8.68555656124958e-13 0:46 1:125 2:129 3:58 4:130 5:133 6:86 7:158 8:161 9:108 10:166 11:165 12:81 13:139 14:138 15:104 16:159 17:160 18:137 19:192 20:193 21:111 22:164 23:170 24:70 25:135 26:139 27:85 28:144 29:140 30:107 31:166 32:162 33:129 34:177 35:179 36:128 37:176 38:178 39:123 40:173 41:175 42:133 43:183 44:185 45:103 46:160 47:161 48:133 49:174 50:182 51:153 52:189 53:187 54:153 55:189 56:187 57:143 58:183 59:182 60:142 61:182 62:181 63:125 64:180 65:181 66:124 67:179 68:180 69:81 70:152 71:151 72:71 73:129 74:141 75:95 76:144 77:149 78:117 79:166 80:171 81:121 82:166 83:163 84:83 85:128 86:125 87:107 88:157 89:166 90:142 91:192 92:201 93:109 94:168 95:171 96:76 97:140 98:155 99:76 100:137 101:154 102:89 103:150 104:167 105:108 106:156 107:163 108:90 109:138 110:145 111:101 112:149 113:151 114:126 115:174 116:176 117:114 118:166 119:168 120:123 121:169 122:183 123:110 124:150 125:169 126:105 127:145 128:164 129:106 130:149 131:159 132:109 133:152 134:162 135:104 136:148 137:155 138:102 139:146 140:153 141:107 142:159 143:168 144:93 145:157 146:172 147:60 148:128 149:138 150:82 151:150 152:160 153:113 154:173 155:178 156:96 157:156 158:161 159:96 160:142 161:156 162:98 163:144 164:158 165:119 166:174 167:188 168:78 169:151 170:165 171:54 172:137 173:141 174:66 175:149 176:153 177:105 178:175 179:178 180:86 181:156 182:159 183:71 184:130 185:146 186:65 187:124 188:140 189:109 190:175 191:196 192:-1 
1.23629810471743e-12 0:81 1:130 2:149 3:74 4:123 5:142 6:96 7:145 8:143 9:104 10:153 11:151 12:121 13:164 14:159 15:129 16:172 17:167 18:106 19:153 20:150 21:67 22:114 23:111 24:105 25:148 26:164 27:90 28:133 29:149 30:66 31:129 32:133 33:62 34:125 35:129 36:47 37:123 38:121 39:79 40:155 41:153 42:114 43:175 44:165 45:115 46:176 47:166 48:103 49:146 50:156 51:81 52:124 53:134 54:58 55:120 56:133 57:58 58:120 59:133 60:41 61:117 62:128 63:48 64:124 65:135 66:82 67:153 68:154 69:93 70:164 71:165 72:107 73:144 74:152 75:91 76:128 77:136 78:98 79:135 80:148 81:113 82:150 83:163 84:104 85:149 86:160 87:78 88:123 89:134 90:43 91:107 92:115 93:34 94:98 95:106 96:106 97:151 98:161 99:89 100:134 101:144 102:97 103:134 104:147 105:109 106:146 107:159 108:124 109:161 110:174 111:105 112:142 113:155 114:70 115:122 116:132 117:64 118:116 119:126 120:75 121:134 122:143 123:82 124:141 125:150 126:79 127:127 128:136 129:75 130:123 131:132 132:104 133:145 134:153 135:115 136:156 137:164 138:111 139:151 140:155 141:110 142:150 143:154 144:36 145:96 146:109 147:63 148:123 149:136 150:39 151:109 152:119 153:27 154:97 155:107 156:37 157:95 158:100 159:74 160:132 161:137 162:114 163:159 164:149 165:115 166:160 167:150 168:55 169:104 170:115 171:83 172:132 173:143 174:67 175:127 176:139 177:65 178:125 179:137 180:61 181:116 182:124 183:59 184:114 185:122 186:80 187:127 188:119 189:111 190:158 191:150 192:-1 
4.033829164644573e-12 0:108 1:149 2:157 3:95 4:136 5:144 6:99 7:141 8:147 9:105 10:147 11:153 12:124 13:164 14:163 15:123 16:163 17:162 18:104 19:147 20:144 21:87 22:130 23:127 24:91 25:142 26:148 27:90 28:141 29:147 30:91 31:137 32:144 33:82 34:128 35:135 36:89 37:137 38:138 39:96 40:144 41:145 42:98 43:148 44:144 45:100 46:150 47:146 48:71 49:125 50:142 51:94 52:148 53:165 54:86 55:142 56:152 57:53 58:109 59:119 60:43 61:106 62:110 63:66 64:129 65:133 66:95 67:148 68:148 69:98 70:151 71:151 72:79 73:128 74:146 75:88 76:137 77:155 78:96 79:144 80:159 81:84 82:132 83:147 84:68 85:120 86:130 87:70 88:122 89:132 90:112 91:158 92:165 93:113 94:159 95:166 96:77 97:134 98:148 99:73 100:130 101:144 102:80 103:136 104:154 105:82 106:138 107:156 108:75 109:131 110:136 111:74 112:130 113:135 114:120 115:164 116:165 117:127 118:171 119:172 120:108 121:153 122:163 123:102 124:147 125:157 126:98 127:143 128:154 129:90 130:135 131:146 132:80 133:130 134:132 135:70 136:120 137:122 138:88 139:135 140:132 141:116 142:163 143:160 144:106 145:153 146:158 147:103 148:150 149:155 150:98 151:145 152:150 153:83 154:130 155:135 156:75 157:130 158:125 159:67 160:122 161:117 162:75 163:127 164:123 165:98 166:150 167:146 168:76 169:139 170:143 171:78 172:141 173:145 174:85 175:140 176:140 177:78 178:133 179:133 180:74 181:133 182:129 183:74 184:133 185:129 186:86 187:137 188:135 189:95 190:146 191:144 192:-1 
2.9027901735336e-12 0:103 1:147 2:154 3:115 4:159 5:166 6:91 7:135 8:149 9:63 10:107 11:121 12:6 13:50 14:49 15:27 16:71 17:70 18:76 19:123 20:107 21:112 22:159 23:143 24:97 25:148 26:154 27:107 28:158 29:164 30:57 31:117 32:130 33:38 34:98 35:111 36:11 37:73 38:80 39:36 40:98 41:105 42:44 43:106 44:98 45:64 46:126 47:118 48:111 49:151 50:163 51:120 52:160 53:172 54:84 55:129 56:139 57:96 58:141 59:151 60:97 61:147 62:149 63:102 64:152 65:154 66:86 67:134 68:136 69:84 70:132 71:134 72:99 73:147 74:156 75:105 76:153 77:162 78:85 79:130 80:140 81:93 82:138 83:148 84:96 85:144 86:151 87:91 88:139 89:146 90:87 91:135 92:142 93:86 94:134 95:141 96:84 97:141 98:142 99:81 100:138 101:139 102:52 103:119 104:123 105:56 106:123 107:127 108:58 109:129 110:136 111:59 112:130 113:137 114:77 115:137 116:144 117:74 118:134 119:141 120:84 121:135 122:141 123:82 124:133 125:139 126:68 127:128 128:135 129:74 130:134 131:141 132:78 133:136 134:141 135:74 136:132 137:137 138:83 139:131 140:138 141:80 142:128 143:135 144:80 145:122 146:115 147:84 148:126 149:119 150:108 151:145 152:145 153:115 154:152 155:152 156:115 157:151 158:154 159:98 160:134 161:137 162:88 163:125 164:132 165:88 166:125 167:132 168:39 169:92 170:85 171:63 172:116 173:109 174:97 175:147 176:136 177:104 178:154 179:143 180:107 181:147 182:146 183:87 184:127 185:126 186:75 187:119 188:125 189:77 190:121 191:127 192:-1 
5.161130240720105e-13 0:97 1:136 2:151 3:92 4:138 5:145 6:78 7:124 8:131 9:31 10:80 11:78 12:1 13:50 14:48 15:58 16:104 17:98 18:83 19:129 20:123 21:91 22:120 23:124 24:93 25:131 26:142 27:95 28:134 29:142 30:98 31:137 32:145 33:118 34:151 35:150 36:120 37:153 38:152 39:126 40:153 41:157 42:123 43:150 44:154 45:86 46:112 47:126 48:67 49:106 50:114 51:74 52:117 53:120 54:85 55:128 56:131 57:66 58:105 59:100 60:72 61:111 62:106 63:114 64:146 65:141 66:106 67:138 68:133 69:80 70:109 71:121 72:84 73:120 74:124 75:84 76:121 77:121 78:79 79:116 80:116 81:16 82:53 83:47 84:27 85:64 86:58 87:107 88:141 89:131 90:97 91:131 92:121 93:87 94:116 95:121 96:95 97:136 98:151 99:62 100:111 101:109 102:25 103:74 104:72 105:16 106:68 107:57 108:38 109:90 110:79 111:77 112:120 113:115 114:50 115:93 116:88 117:62 118:96 119:92 120:66 121:113 122:124 123:53 124:106 125:119 126:46 127:99 128:112 129:38 130:90 131:99 132:46 133:98 134:107 135:64 136:109 137:112 138:46 139:91 140:94 141:58 142:92 143:95 144:56 145:96 146:102 147:79 148:124 149:135 150:95 151:140 152:151 153:72 154:120 155:122 156:67 157:115 158:117 159:66 160:110 161:111 162:59 163:103 164:104 165:74 166:111 167:111 168:35 169:86 170:78 171:69 172:124 173:119 174:76 175:131 176:126 177:42 178:101 179:96 180:56 181:115 182:110 183:59 184:110 185:108 186:51 187:102 188:100 189:56 190:103 191:100 192:-1 
-8.970392093281266e-13 0:232 1:233 2:230 3:215 4:216 5:213 6:216 7:216 8:216 9:231 10:231 11:231 12:219 13:221 14:216 15:191 16:193 17:188 18:162 19:174 20:163 21:166 22:178 23:167 24:230 25:231 26:228 27:220 28:221 29:218 30:210 31:211 32:208 33:212 34:213 35:210 36:186 37:193 38:183 39:161 40:168 41:158 42:128 43:151 44:132 45:144 46:167 47:148 48:220 49:222 50:217 51:202 52:204 53:199 54:190 55:193 56:184 57:172 58:175 59:166 60:157 61:166 62:149 63:145 64:154 65:137 66:110 67:136 68:108 69:120 70:146 71:118 72:225 73:224 74:215 75:219 76:218 77:209 78:198 79:201 80:193 81:176 82:179 83:171 84:150 85:165 86:150 87:133 88:148 89:133 90:95 91:133 92:111 93:100 94:138 95:116 96:227 97:230 98:222 99:218 100:221 101:213 102:182 103:190 104:182 105:159 106:167 107:159 108:117 109:150 110:136 111:99 112:132 113:118 114:63 115:128 116:113 117:64 118:129 119:114 120:179 121:187 122:181 123:159 124:167 125:161 126:131 127:150 128:136 129:123 130:142 131:128 132:117 133:150 134:129 135:130 136:163 137:142 138:126 139:162 140:152 141:117 142:153 143:143 144:161 145:177 146:167 147:139 148:155 149:145 150:131 151:157 152:144 153:133 154:159 155:146 156:134 157:161 158:150 159:139 160:166 161:155 162:137 163:166 164:157 165:130 166:159 167:150 168:183 169:193 170:187 171:171 172:181 173:175 174:157 175:177 176:169 177:153 178:173 179:165 180:137 181:166 182:157 183:131 184:160 185:151 186:120 187:155 188:142 189:117 190:152 191:139 192:-1 
-7.422890706478453e-12 0:44 1:87 2:144 3:44 4:86 5:145 6:45 7:87 8:146 9:46 10:88 11:149 12:46 13:88 14:149 15:44 16:87 17:150 18:45 19:88 20:151 21:41 22:88 23:153 24:47 25:88 26:145 27:44 28:86 29:145 30:44 31:86 32:145 33:45 34:86 35:149 36:45 37:86 38:149 39:43 40:85 41:151 42:44 43:86 44:152 45:41 46:87 47:154 48:47 49:88 50:143 51:44 52:87 53:144 54:45 55:88 56:145 57:45 58:86 59:149 60:44 61:85 62:148 63:43 64:85 65:151 66:45 67:87 68:153 69:45 70:90 71:155 72:49 73:88 74:143 75:49 76:87 77:145 78:48 79:86 80:144 81:45 82:87 83:148 84:45 85:87 86:148 87:45 88:88 89:151 90:45 91:88 92:151 93:45 94:90 95:155 96:50 97:87 98:142 99:50 100:86 101:144 102:50 103:86 104:144 105:46 106:85 107:147 108:46 109:85 110:147 111:46 112:86 113:152 114:47 115:87 116:153 117:46 118:88 119:154 120:50 121:86 122:144 123:50 124:86 125:144 126:50 127:86 128:144 129:47 130:86 131:148 132:47 133:86 134:148 135:46 136:87 137:150 138:47 139:88 140:151 141:46 142:88 143:154 144:51 145:87 146:145 147:51 148:87 149:145 150:51 151:87 152:145 153:51 154:85 155:148 156:52 157:86 158:149 159:51 160:87 161:151 162:50 163:86 164:150 165:47 166:87 167:153 168:53 169:87 170:143 171:51 172:87 173:145 174:52 175:88 176:146 177:51 178:86 179:146 180:51 181:86 182:146 183:50 184:87 185:149 186:50 187:87 188:149 189:47 190:87 191:153 192:-1 
-4.624992002515531e-12 0:55 1:88 2:140 3:60 4:93 5:145 6:62 7:98 8:149 9:62 10:98 11:149 12:64 13:99 14:153 15:65 16:100 17:154 18:58 19:101 20:158 21:58 22:101 23:158 24:55 25:90 26:144 27:58 28:93 29:147 30:55 31:97 32:150 33:55 34:97 35:150 36:52 37:97 38:154 39:54 40:99 41:156 42:50 43:99 44:159 45:51 46:100 47:160 48:61 49:91 50:146 51:62 52:92 53:147 54:56 55:95 56:150 57:56 58:95 59:150 60:51 61:96 62:154 63:53 64:98 65:156 66:50 67:99 68:159 69:50 70:99 71:159 72:46 73:92 74:146 75:48 76:94 77:148 78:47 79:94 80:152 81:46 82:93 83:151 84:45 85:92 86:157 87:48 88:95 89:160 90:44 91:96 92:160 93:46 94:98 95:162 96:47 97:93 98:147 99:48 100:94 101:148 102:47 103:94 104:152 105:46 106:93 107:151 108:45 109:93 110:155 111:47 112:95 113:157 114:46 115:96 116:158 117:48 118:98 119:160 120:45 121:94 122:147 123:46 124:95 125:148 126:44 127:94 128:150 129:44 130:94 131:150 132:43 133:94 134:154 135:45 136:96 137:156 138:43 139:96 140:157 141:45 142:98 143:159 144:47 145:93 146:147 147:48 148:94 149:148 150:46 151:94 152:150 153:46 154:94 155:150 156:45 157:94 158:154 159:46 160:95 161:155 162:44 163:94 164:158 165:45 166:95 167:159 168:48 169:93 170:145 171:49 172:94 173:146 174:48 175:93 176:150 177:47 178:92 179:149 180:46 181:92 182:153 183:48 184:94 185:155 186:44 187:94 188:156 189:45 190:95 191:157 192:-1 
-2.774063183243687e-12 0:150 1:153 2:145 3:150 4:152 5:147 6:149 7:151 8:146 9:152 10:152 11:147 12:153 13:153 14:148 15:156 16:153 17:149 18:158 19:155 20:151 21:164 22:160 23:152 24:147 25:152 26:148 27:148 28:149 29:146 30:149 31:150 32:147 33:153 34:151 35:144 36:155 37:153 38:146 39:157 40:153 41:146 42:159 43:155 44:148 45:160 46:156 47:149 48:151 49:152 50:149 51:149 52:150 53:147 54:149 55:150 56:147 57:151 58:151 59:146 60:151 61:151 62:146 63:152 64:152 65:147 66:154 67:154 68:149 69:157 70:153 71:151 72:152 73:154 74:149 75:150 76:151 77:148 78:150 79:151 80:148 81:150 82:151 83:148 84:150 85:151 86:148 87:150 88:151 89:148 90:152 91:153 92:150 93:153 94:152 95:149 96:150 97:155 98:151 99:149 100:154 101:150 102:147 103:152 104:148 105:150 106:152 107:147 108:150 109:152 110:147 111:152 112:154 113:149 114:153 115:155 116:150 117:155 118:155 119:150 120:153 121:155 122:150 123:151 124:153 125:148 126:150 127:152 128:147 129:148 130:149 131:146 132:149 133:150 134:147 135:151 136:151 137:151 138:153 139:153 140:153 141:154 142:154 143:154 144:154 145:154 146:154 147:152 148:153 149:150 150:150 151:151 152:148 153:149 154:150 155:147 156:149 157:150 158:147 159:149 160:150 161:147 162:149 163:150 164:147 165:152 166:151 167:148 168:154 169:154 170:154 171:153 172:153 173:153 174:150 175:150 176:150 177:149 178:149 179:149 180:149 181:149 182:149 183:148 184:148 185:148 186:147 187:147 188:147 189:146 190:145 191:142 192:-1 
-5.256877864421441e-13 0:48 1:88 2:141 3:46 4:91 5:143 6:49 7:94 8:146 9:44 10:94 11:150 12:47 13:97 14:153 15:43 16:96 17:156 18:39 19:92 20:152 21:38 22:90 23:154 24:49 25:90 26:140 27:47 28:92 29:144 30:49 31:94 32:146 33:45 34:96 35:149 36:44 37:95 38:148 39:29 40:84 41:145 42:12 43:67 44:128 45:16 46:59 47:130 48:48 49:89 50:139 51:46 52:90 53:144 54:44 55:88 56:142 57:35 58:79 59:140 60:30 61:74 62:135 63:58 64:95 65:150 66:74 67:111 68:166 69:100 70:126 71:160 72:29 73:76 74:128 75:29 76:75 77:136 78:27 79:73 80:134 81:33 82:70 83:124 84:53 85:90 86:144 87:102 88:120 89:157 90:116 91:134 92:171 93:151 94:156 95:172 96:29 97:61 98:124 99:77 100:98 101:147 102:100 103:121 104:170 105:129 106:144 107:164 108:138 109:153 110:173 111:145 112:152 113:161 114:139 115:146 116:155 117:145 118:150 119:153 120:100 121:117 122:150 123:123 124:133 125:154 126:126 127:136 128:157 129:142 130:146 131:158 132:145 133:149 134:161 135:150 136:152 137:156 138:147 139:149 140:153 141:151 142:151 143:151 144:150 145:157 146:166 147:147 148:151 149:156 150:142 151:146 152:151 153:144 154:146 155:150 156:145 157:147 158:151 159:153 160:153 161:153 162:153 163:153 164:153 165:154 166:155 167:152 168:154 169:158 170:157 171:158 172:158 173:158 174:153 175:153 176:153 177:153 178:153 179:153 180:154 181:154 182:154 183:153 184:155 185:150 186:153 187:155 188:150 189:152 190:154 191:149 192:-1 
-1.162944677021769e-12 0:42 1:86 2:140 3:44 4:88 5:142 6:41 7:87 8:148 9:44 10:90 11:151 12:40 13:92 14:156 15:44 16:96 17:160 18:40 19:99 20:162 21:43 22:102 23:165 24:47 25:87 26:140 27:48 28:88 29:141 30:46 31:91 32:143 33:49 34:94 35:146 36:44 37:94 38:150 39:47 40:97 41:153 42:43 43:96 44:156 45:39 46:92 47:152 48:48 49:89 50:139 51:49 52:90 53:140 54:47 55:92 56:144 57:49 58:94 59:146 60:45 61:96 62:149 63:44 64:95 65:148 66:29 67:84 68:145 69:12 70:67 71:128 72:47 73:88 74:138 75:48 76:89 77:139 78:46 79:90 80:144 81:44 82:88 83:142 84:35 85:79 86:140 87:30 88:74 89:135 90:58 91:95 92:150 93:74 94:111 95:166 96:34 97:81 98:133 99:29 100:76 101:128 102:29 103:75 104:136 105:27 106:73 107:134 108:33 109:70 110:124 111:53 112:90 113:144 114:102 115:120 116:157 117:116 118:134 119:171 120:15 121:47 122:110 123:29 124:61 125:124 126:77 127:98 128:147 129:100 130:121 131:170 132:129 133:144 134:164 135:138 136:153 137:173 138:145 139:152 140:161 141:139 142:146 143:155 144:85 145:102 146:135 147:100 148:117 149:150 150:123 151:133 152:154 153:126 154:136 155:157 156:142 157:146 158:158 159:145 160:149 161:161 162:150 163:152 164:156 165:147 166:149 167:153 168:152 169:159 170:168 171:150 172:157 173:166 174:147 175:151 176:156 177:142 178:146 179:151 180:144 181:146 182:150 183:145 184:147 185:151 186:153 187:153 188:153 189:153 190:153 191:153 192:-1 
-1.243991552042055e-12 0:198 1:208 2:202 3:178 4:195 5:188 6:175 7:192 8:185 9:175 10:196 11:184 12:173 13:194 14:182 15:176 16:197 17:185 18:171 19:192 20:180 21:167 22:189 23:174 24:185 25:197 26:191 27:191 28:203 29:197 30:193 31:205 32:199 33:191 34:206 35:199 36:183 37:198 38:191 39:176 40:197 41:185 42:161 43:182 44:170 45:146 46:176 47:156 48:181 49:193 50:188 51:197 52:207 53:201 54:202 55:212 56:206 57:204 58:214 59:208 60:202 61:212 62:206 63:183 64:200 65:193 66:166 67:183 68:176 69:151 70:180 71:164 72:197 73:204 74:200 75:202 76:212 77:206 78:202 79:212 80:206 81:191 82:206 83:199 84:185 85:200 86:193 87:173 88:196 89:185 90:173 91:196 92:185 93:168 94:196 95:183 96:191 97:201 98:195 99:190 100:206 101:196 102:188 103:204 104:194 105:174 106:194 107:184 108:169 109:189 110:179 111:157 112:187 113:175 114:158 115:188 116:176 117:154 118:187 119:173 120:186 121:198 122:193 123:174 124:194 125:184 126:170 127:190 128:180 129:148 130:183 131:170 132:148 133:183 134:170 135:144 136:181 137:168 138:142 139:179 140:166 141:136 142:176 143:161 144:167 145:187 146:179 147:140 148:175 149:167 150:122 151:157 152:149 153:101 154:154 155:141 156:113 157:166 158:153 159:118 160:173 161:153 162:111 163:166 164:146 165:114 166:161 167:145 168:154 169:178 170:171 171:131 172:170 173:157 174:115 175:154 176:141 177:100 178:157 179:139 180:109 181:166 182:148 183:108 184:167 185:149 186:105 187:164 188:146 189:110 190:164 191:147 192:-1 
