svm_type c_svc
kernel_type polynomial
degree 5
gamma 0.0078125
coef0 0
nr_class 2
total_sv 8
rho -0.999807
label 1 -1
nr_sv 2 6
SV
2.196479279447098e-14 0:0 1:0 2:0 3:0 4:0 5:0 6:0 7:0 8:0 9:0 10:0 11:0 12:0 13:0 14:0 15:0 16:0 17:0 18:0 19:0 20:0 21:0 22:0 23:0 24:0 25:0 26:0 27:0 28:0 29:0 30:0 31:0 32:0 33:0 34:0 35:0 36:0 37:0 38:0 39:0 40:0 41:0 42:0 43:0 44:0 45:0 46:0 47:0 48:0 49:0 50:0 51:0 52:0 53:0 54:0 55:0 56:0 57:0 58:0 59:0 60:0 61:0 62:0 63:0 64:0 65:0 66:0 67:0 68:0 69:0 70:0 71:0 72:0 73:0 74:0 75:0 76:0 77:0 78:0 79:0 80:0 81:0 82:0 83:0 84:0 85:0 86:0 87:0 88:0 89:0 90:0 91:0 92:0 93:0 94:0 95:0 96:0 97:0 98:0 99:0 100:0 101:0 102:0 103:0 104:0 105:0 106:0 107:0 108:0 109:0 110:0 111:0 112:0 113:0 114:0 115:0 116:0 117:0 118:0 119:0 120:0 121:0 122:0 123:0 124:0 125:0 126:0 127:0 128:-1 
1.378406463026616e-16 0:89 1:34 2:91 3:40 4:89 5:38 6:89 7:38 8:89 9:37 10:89 11:38 12:87 13:43 14:87 15:42 16:91 17:38 18:91 19:43 20:91 21:43 22:91 23:43 24:87 25:43 26:87 27:44 28:86 29:44 30:86 31:42 32:91 33:37 34:91 35:41 36:91 37:44 38:91 39:47 40:87 41:50 42:87 43:48 44:86 45:43 46:82 47:42 48:94 49:44 50:90 51:43 52:90 53:45 54:90 55:45 56:86 57:46 58:86 59:45 60:85 61:43 62:83 63:44 64:92 65:44 66:89 67:45 68:90 69:43 70:86 71:44 72:86 73:43 74:85 75:42 76:83 77:42 78:80 79:45 80:89 81:44 82:86 83:48 84:87 85:43 86:87 87:43 88:87 89:42 90:84 91:42 92:82 93:43 94:80 95:44 96:88 97:47 98:86 99:47 100:86 101:47 102:85 103:48 104:84 105:45 106:82 107:44 108:80 109:44 110:77 111:46 112:88 113:48 114:85 115:47 116:84 117:49 118:84 119:52 120:85 121:49 122:82 123:49 124:80 125:48 126:78 127:49 128:-1 
-3.178652657687313e-18 0:34 1:64 2:21 3:121 4:5 5:57 6:178 7:18 8:178 9:17 10:6 11:11 12:24 13:5 14:42 15:6 16:30 17:78 18:16 19:134 20:3 21:23 22:174 23:20 24:174 25:17 26:6 27:11 28:36 29:5 30:55 31:7 32:38 33:74 34:35 35:29 36:11 37:12 38:174 39:16 40:174 41:16 42:0 43:6 44:36 45:5 46:55 47:7 48:48 49:61 50:43 51:21 52:24 53:7 54:177 55:11 56:177 57:11 58:6 59:5 60:50 61:3 62:70 63:7 64:51 65:45 66:48 67:138 68:35 69:10 70:11 71:9 72:177 73:10 74:20 75:3 76:50 77:3 78:70 79:7 80:49 81:72 82:48 83:65 84:40 85:15 86:13 87:8 88:6 89:5 90:20 91:3 92:50 93:3 94:80 95:10 96:46 97:197 98:48 99:28 100:40 101:10 102:24 103:5 104:24 105:5 106:30 107:2 108:50 109:3 110:80 111:10 112:46 113:191 114:48 115:19 116:43 117:8 118:36 119:5 120:24 121:5 122:30 123:2 124:66 125:5 126:80 127:10 128:-1 
-7.12324767375961e-16 0:25 1:7 2:25 3:7 4:36 5:5 6:30 7:2 8:42 9:5 10:55 11:6 12:51 13:8 14:48 15:11 16:30 17:9 18:34 19:9 20:35 21:7 22:36 23:5 24:36 25:5 26:36 27:5 28:36 29:5 30:35 31:7 32:34 33:9 34:34 35:9 36:34 37:9 38:25 39:7 40:25 41:7 42:24 43:5 44:24 45:5 46:24 47:5 48:35 49:12 50:30 51:11 52:30 53:11 54:21 55:11 56:19 57:9 58:19 59:9 60:24 61:5 62:36 63:5 64:43 65:8 66:34 67:9 68:21 69:11 70:21 71:11 72:19 73:9 74:25 75:7 76:36 77:5 78:42 79:5 80:87 81:11 82:50 83:3 84:19 85:9 86:21 87:11 88:35 89:7 90:43 91:8 92:55 93:7 94:55 95:7 96:94 97:25 98:90 99:13 100:30 101:2 102:25 103:7 104:43 105:8 106:51 107:8 108:55 109:7 110:55 111:7 112:96 113:47 114:95 115:31 116:87 117:11 118:55 119:6 120:42 121:5 122:42 123:5 124:35 125:7 126:35 127:7 128:-1 
-2.846261364489543e-15 0:66 1:5 2:30 3:2 4:24 5:6 6:35 7:7 8:35 9:7 10:35 11:7 12:35 13:7 14:35 15:7 16:83 17:4 18:30 19:2 20:36 21:5 22:35 23:7 24:35 25:7 26:35 27:7 28:35 29:7 30:35 31:7 32:83 33:4 34:50 35:3 36:36 37:5 38:35 39:7 40:35 41:7 42:35 43:7 44:35 45:7 46:35 47:7 48:50 49:3 50:50 51:3 52:42 53:5 54:35 55:7 56:35 57:7 58:35 59:7 60:35 61:7 62:35 63:7 64:50 65:3 66:50 67:3 68:42 69:5 70:35 71:7 72:35 73:7 74:35 75:7 76:35 77:7 78:35 79:7 80:30 81:2 82:55 83:7 84:55 85:6 86:43 87:8 88:35 89:7 90:35 91:7 92:35 93:7 94:35 95:7 96:30 97:2 98:55 99:7 100:51 101:8 102:43 103:8 104:35 105:7 106:35 107:7 108:35 109:7 110:35 111:7 112:36 113:5 114:51 115:8 116:48 117:11 118:43 119:8 120:35 121:7 122:35 123:7 124:34 125:9 126:35 127:7 128:-1 
-1.435257148052404e-15 0:35 1:7 2:19 3:9 4:30 5:9 6:40 7:10 8:48 9:11 10:55 11:7 12:60 13:8 14:83 15:4 16:35 17:7 18:21 19:11 20:30 21:9 22:40 23:10 24:52 25:12 26:60 27:8 28:60 29:8 30:66 31:5 32:35 33:7 34:21 35:11 36:30 37:9 38:40 39:10 40:52 41:12 42:55 43:7 44:55 45:6 46:66 47:5 48:35 49:7 50:21 51:11 52:30 53:9 54:40 55:10 56:48 57:11 58:51 59:8 60:55 61:6 62:66 63:5 64:43 65:8 66:30 67:9 68:30 69:9 70:40 71:10 72:48 73:11 74:43 75:8 76:43 77:8 78:55 79:6 80:43 81:8 82:30 83:9 84:30 85:9 86:40 87:10 88:40 89:10 90:35 91:7 92:35 93:7 94:55 95:7 96:43 97:8 98:30 99:9 100:30 101:9 102:34 103:9 104:40 105:10 106:35 107:7 108:36 109:5 110:55 111:7 112:40 113:10 114:30 115:9 116:30 117:9 118:34 119:9 120:34 121:9 122:24 123:5 124:36 125:5 126:55 127:6 128:-1 
-2.101992841090184e-16 0:26 1:15 2:30 3:9 4:36 5:5 6:83 7:4 8:87 9:12 10:76 11:33 12:74 13:74 14:77 15:75 16:30 17:13 18:30 19:9 20:25 21:6 22:30 23:2 24:50 25:3 26:51 27:8 28:65 29:16 30:72 31:49 32:40 33:10 34:40 35:10 36:34 37:9 38:43 39:8 40:43 41:8 42:35 43:12 44:38 45:12 46:52 47:14 48:51 49:8 50:43 51:8 52:40 53:10 54:40 55:10 56:35 57:12 58:30 59:11 60:30 61:11 62:34 63:9 64:36 65:5 66:36 67:5 68:35 69:7 70:34 71:9 72:35 73:12 74:34 75:9 76:34 77:9 78:25 79:6 80:36 81:5 82:36 83:5 84:35 85:7 86:34 87:9 88:34 89:9 90:43 91:8 92:36 93:5 94:25 95:7 96:51 97:8 98:55 99:6 100:55 101:6 102:35 103:7 104:36 105:5 106:50 107:3 108:50 109:3 110:36 111:5 112:51 113:8 114:56 115:9 116:60 117:8 118:42 119:5 120:36 121:5 122:50 123:3 124:50 125:3 126:42 127:5 128:-1 
-1.689541222408903e-14 0:35 1:7 2:35 3:7 4:40 5:10 6:35 7:7 8:24 9:5 10:20 11:3 12:0 13:0 14:96 15:5 16:36 17:5 18:43 19:8 20:40 21:10 22:40 23:10 24:19 25:9 26:13 27:8 28:13 29:8 30:20 31:3 32:50 33:3 34:42 35:5 36:51 37:8 38:40 39:10 40:19 41:9 42:13 43:10 44:19 45:9 46:25 47:7 48:30 49:2 50:36 51:5 52:51 53:8 54:40 55:10 56:25 57:7 58:19 59:9 60:30 61:9 62:34 63:9 64:6 65:5 66:19 67:9 68:34 69:9 70:38 71:12 72:40 73:10 74:40 75:10 76:51 77:8 78:51 79:8 80:11 81:9 82:19 83:9 84:30 85:9 86:38 87:12 88:48 89:11 90:48 91:11 92:51 93:8 94:43 95:8 96:25 97:7 98:30 99:9 100:35 101:12 102:35 103:12 104:40 105:10 106:43 107:8 108:34 109:9 110:25 111:7 112:35 113:7 114:34 115:9 116:34 117:9 118:34 119:9 120:43 121:8 122:35 123:7 124:25 125:7 126:25 127:7 128:-1 
