svm_type c_svc
kernel_type polynomial
degree 5
gamma 0.0078125
coef0 0
nr_class 2
total_sv 4
rho -1.37916
label 1 -1
nr_sv 3 1
SV
3.483598306997675e-20 0:51 1:106 2:55 3:93 4:57 5:85 6:60 7:93 8:59 9:101 10:55 11:107 12:52 13:124 14:51 15:131 16:52 17:104 18:56 19:91 20:59 21:89 22:60 23:92 24:60 25:96 26:58 27:99 28:53 29:117 30:51 31:123 32:55 33:112 34:59 35:97 36:61 37:101 38:62 39:104 40:60 41:108 42:56 43:108 44:53 45:120 46:49 47:134 48:56 49:119 50:59 51:112 52:60 53:109 54:61 55:113 56:59 57:113 58:56 59:107 60:52 61:110 62:49 63:127 64:58 65:126 66:59 67:124 68:61 69:124 70:61 71:119 72:61 73:115 74:57 75:108 76:53 77:108 78:50 79:119 80:58 81:124 82:59 83:121 84:61 85:123 86:61 87:116 88:59 89:107 90:57 91:111 92:53 93:120 94:51 95:116 96:60 97:113 98:59 99:117 100:59 101:113 102:59 103:109 104:58 105:104 106:58 107:105 108:54 109:120 110:52 111:117 112:62 113:108 114:60 115:106 116:58 117:108 118:58 119:104 120:58 121:105 122:55 123:112 124:52 125:114 126:50 127:126 128:-1 
2.008725521471956e-18 0:51 1:45 2:51 3:45 4:50 5:49 6:47 7:52 8:46 9:57 10:47 11:52 12:47 13:52 14:46 15:46 16:53 17:42 18:53 19:42 20:51 21:46 22:50 23:50 24:48 25:48 26:48 27:48 28:48 29:48 30:48 31:46 32:53 33:42 34:54 35:44 36:54 37:44 38:54 39:44 40:53 41:42 42:51 43:46 44:51 45:46 46:51 47:46 48:53 49:43 50:56 51:40 52:56 53:40 54:56 55:40 56:56 57:40 58:53 59:42 60:53 61:42 62:53 63:42 64:55 65:40 66:55 67:40 68:55 69:41 70:55 71:41 72:55 73:40 74:55 75:40 76:53 77:42 78:50 79:41 80:55 81:41 82:55 83:41 84:55 85:41 86:55 87:41 88:55 89:40 90:55 91:39 92:55 93:39 94:50 95:41 96:55 97:42 98:57 99:37 100:57 101:36 102:55 103:43 104:55 105:42 106:51 107:40 108:51 109:40 110:50 111:44 112:55 113:43 114:57 115:38 116:55 117:43 118:55 119:43 120:55 121:42 122:51 123:40 124:50 125:44 126:50 127:44 128:-1 
1.9868296225537e-19 0:59 1:66 2:59 3:70 4:59 5:66 6:59 7:64 8:61 9:60 10:63 11:59 12:61 13:56 14:63 15:54 16:55 17:73 18:55 19:82 20:56 21:77 22:57 23:73 24:59 25:66 26:60 27:65 28:61 29:62 30:59 31:56 32:50 33:83 34:50 35:98 36:51 37:103 38:54 39:96 40:54 41:85 42:55 43:75 44:53 45:73 46:55 47:72 48:46 49:87 50:46 51:103 52:49 53:112 54:50 55:115 56:50 57:98 58:51 59:88 60:50 61:88 62:51 63:91 64:43 65:79 66:42 67:90 68:44 69:97 70:45 71:103 72:47 73:101 74:47 75:101 76:49 77:100 78:47 79:96 80:42 81:74 82:42 83:83 84:43 85:88 86:44 87:92 88:46 89:93 90:47 91:94 92:47 93:94 94:47 95:99 96:44 97:85 98:44 99:83 100:44 101:88 102:47 103:81 104:48 105:84 106:49 107:85 108:50 109:78 110:53 111:79 112:46 113:87 114:46 115:91 116:46 117:101 118:47 119:93 120:49 121:91 122:49 123:85 124:53 125:75 126:53 127:74 128:-1 
-2.242244466797302e-18 0:80 1:36 2:83 3:32 4:86 5:34 6:85 7:46 8:83 9:46 10:83 11:45 12:83 13:45 14:83 15:44 16:80 17:38 18:83 19:33 20:82 21:37 22:82 23:43 24:80 25:46 26:80 27:46 28:80 29:47 30:83 31:44 32:87 33:40 34:86 35:38 36:86 37:38 38:80 39:42 40:77 41:40 42:77 43:41 44:77 45:42 46:80 47:41 48:83 49:45 50:86 51:42 52:82 53:42 54:80 55:42 56:77 57:40 58:80 59:40 60:80 61:40 62:80 63:41 64:80 65:48 66:80 67:46 68:80 69:43 70:83 71:38 72:83 73:37 74:83 75:37 76:83 77:36 78:82 79:40 80:80 81:45 82:80 83:46 84:82 85:44 86:82 87:38 88:86 89:38 90:86 91:39 92:86 93:38 94:82 95:39 96:87 97:42 98:87 99:39 100:86 101:41 102:85 103:42 104:82 105:47 106:83 107:45 108:82 109:39 110:82 111:39 112:83 113:47 114:83 115:41 116:86 117:42 118:84 119:47 120:82 121:52 122:82 123:46 124:83 125:41 126:82 127:38 128:-1 
