svm_type c_svc
kernel_type polynomial
degree 5
gamma 0.0078125
coef0 0
nr_class 2
total_sv 7
rho -1.84658
label 1 -1
nr_sv 3 4
SV
3.21450161585953e-17 0:66 1:38 2:66 3:35 4:60 5:26 6:73 7:40 8:80 9:87 10:84 11:151 12:84 13:89 14:81 15:68 16:56 17:31 18:56 19:32 20:48 21:39 22:63 23:39 24:74 25:63 26:76 27:77 28:76 29:61 30:72 31:61 32:56 33:29 34:52 35:41 36:48 37:39 38:56 39:32 40:68 41:45 42:74 43:49 44:69 45:49 46:69 47:61 48:60 49:25 50:60 51:26 52:55 53:24 54:60 55:28 56:70 57:25 58:73 59:38 60:68 61:45 62:67 63:53 64:70 65:22 66:70 67:23 68:55 69:23 70:55 71:23 72:70 73:26 74:60 75:29 76:63 77:44 78:62 79:61 80:70 81:21 82:70 83:21 84:55 85:22 86:55 87:23 88:55 89:23 90:60 91:29 92:57 93:56 94:58 95:64 96:80 97:22 98:80 99:21 100:66 101:18 102:66 103:18 104:66 105:18 106:70 107:22 108:63 109:38 110:62 111:53 112:90 113:21 114:90 115:22 116:96 117:18 118:96 119:18 120:103 121:24 122:101 123:24 124:79 125:33 126:76 127:51 128:-1 
8.46574874428198e-16 0:54 1:36 2:54 3:36 4:54 5:36 6:54 7:36 8:57 9:36 10:57 11:36 12:59 13:38 14:59 15:38 16:57 17:35 18:57 19:35 20:57 21:36 22:57 23:36 24:57 25:36 26:60 27:36 28:61 29:42 30:61 31:42 32:57 33:36 34:57 35:36 36:57 37:36 38:57 39:37 40:59 41:39 42:60 43:37 44:63 45:41 46:61 47:43 48:55 49:33 50:57 51:36 52:57 53:36 54:59 55:38 56:59 57:38 58:60 59:36 60:60 61:37 62:59 63:39 64:55 65:33 66:54 67:37 68:57 69:36 70:59 71:38 72:59 73:38 74:60 75:36 76:60 77:36 78:59 79:38 80:55 81:33 82:55 83:33 84:58 85:35 86:60 87:36 88:60 89:36 90:60 91:36 92:60 93:36 94:59 95:39 96:55 97:33 98:58 99:35 100:58 101:35 102:60 103:36 104:60 105:36 106:60 107:36 108:60 109:36 110:59 111:39 112:55 113:33 114:58 115:35 116:58 117:35 118:60 119:36 120:60 121:36 122:63 123:40 124:63 125:41 126:63 127:41 128:-1 
5.135716919993869e-16 0:63 1:36 2:60 3:37 4:60 5:37 6:58 7:35 8:58 9:35 10:58 11:35 12:57 13:37 14:57 15:37 16:62 17:33 18:62 19:33 20:62 21:33 22:62 23:33 24:62 25:33 26:62 27:33 28:58 29:35 30:58 31:35 32:62 33:33 34:62 35:33 36:62 37:33 38:62 39:33 40:62 41:33 42:62 43:33 44:62 45:33 46:55 47:33 48:58 49:35 50:55 51:33 52:55 53:33 54:58 55:35 56:58 57:35 58:58 59:35 60:58 61:35 62:58 63:35 64:58 65:35 66:55 67:34 68:55 69:33 70:58 71:35 72:58 73:35 74:58 75:35 76:58 77:35 78:58 79:35 80:55 81:34 82:55 83:34 84:55 85:34 86:55 87:33 88:55 89:34 90:55 91:34 92:58 93:35 94:58 95:35 96:55 97:34 98:55 99:34 100:55 101:33 102:55 103:33 104:55 105:34 106:55 107:34 108:58 109:35 110:58 111:35 112:55 113:34 114:55 115:34 116:55 117:33 118:55 119:33 120:55 121:34 122:55 123:34 124:58 125:35 126:62 127:33 128:-1 
-3.656823340171972e-17 0:69 1:37 2:69 3:39 4:69 5:38 6:70 7:44 8:73 9:50 10:75 11:40 12:75 13:37 14:77 15:36 16:72 17:29 18:70 19:30 20:69 21:32 22:74 23:41 24:75 25:49 26:78 27:48 28:80 29:44 30:80 31:45 32:74 33:30 34:74 35:31 36:72 37:28 38:74 39:38 40:78 41:54 42:78 43:68 44:80 45:59 46:82 47:53 48:73 49:39 50:73 51:40 52:74 53:46 54:75 55:57 56:77 57:68 58:78 59:91 60:78 61:75 62:80 63:61 64:73 65:59 66:73 67:70 68:73 69:78 70:76 71:86 72:76 73:78 74:77 75:78 76:77 77:74 78:78 79:64 80:75 81:69 82:73 83:78 84:74 85:88 86:74 87:87 88:74 89:72 90:74 91:60 92:75 93:62 94:76 95:69 96:76 97:71 98:76 99:70 100:75 101:82 102:74 103:70 104:75 105:60 106:75 107:53 108:76 109:61 110:78 111:85 112:82 113:61 114:80 115:52 116:80 117:50 118:78 119:60 120:80 121:68 122:80 123:66 124:80 125:64 126:82 127:50 128:-1 
-1.142389782880298e-15 0:55 1:32 2:58 3:33 4:58 5:33 6:59 7:37 8:59 9:37 10:59 11:37 12:59 13:37 14:59 15:37 16:55 17:32 18:58 19:33 20:58 21:33 22:57 23:35 24:59 25:36 26:59 27:36 28:59 29:36 30:59 31:36 32:55 33:32 34:55 35:31 36:58 37:33 38:57 39:34 40:55 41:39 42:55 43:39 44:55 45:39 46:57 47:34 48:55 49:31 50:55 51:31 52:55 53:31 54:57 55:34 56:57 57:34 58:57 59:33 60:57 61:33 62:58 63:31 64:58 65:26 66:58 67:26 68:58 69:27 70:58 71:31 72:60 73:33 74:62 75:29 76:62 77:29 78:62 79:29 80:58 81:25 82:58 83:25 84:58 85:25 86:62 87:29 88:63 89:31 90:66 91:28 92:66 93:28 94:66 95:28 96:58 97:27 98:58 99:26 100:58 101:26 102:62 103:30 104:62 105:30 106:62 107:30 108:62 109:30 110:66 111:29 112:58 113:28 114:58 115:28 116:58 117:28 118:62 119:31 120:62 121:31 122:62 123:31 124:62 125:31 126:66 127:30 128:-1 
-2.034754492842653e-16 0:52 1:34 2:52 3:34 4:53 5:32 6:55 7:31 8:55 9:30 10:58 11:26 12:62 13:30 14:62 15:30 16:52 17:34 18:53 19:32 20:55 21:31 22:58 23:27 24:62 25:29 26:66 27:26 28:67 29:30 30:67 31:30 32:53 33:32 34:58 35:29 36:58 37:29 38:62 39:26 40:66 41:28 42:70 43:30 44:72 45:33 46:72 47:34 48:53 49:33 50:58 51:28 52:58 53:29 54:66 55:31 56:67 57:34 58:69 59:38 60:69 61:40 62:69 63:40 64:58 65:29 66:58 67:29 68:58 69:29 70:62 71:34 72:63 73:36 74:66 75:41 76:67 77:44 78:67 79:43 80:58 81:29 82:58 83:29 84:62 85:32 86:63 87:34 88:63 89:35 90:66 91:39 92:64 93:42 94:64 95:42 96:58 97:28 98:62 99:31 100:62 101:31 102:60 103:35 104:60 105:34 106:63 107:37 108:61 109:38 110:61 111:39 112:62 113:25 114:66 115:29 116:62 117:31 118:63 119:32 120:60 121:34 122:60 123:33 124:63 125:37 126:63 127:38 128:-1 
-9.858117019897168e-18 0:69 1:25 2:62 3:23 4:58 5:26 6:58 7:27 8:53 9:31 10:52 11:34 12:50 13:38 14:48 15:44 16:71 17:23 18:71 19:24 20:67 21:22 22:62 23:26 24:58 25:28 26:55 27:32 28:54 29:35 30:51 31:39 32:71 33:25 34:71 35:26 36:69 37:23 38:67 39:24 40:62 41:25 42:58 43:28 44:55 45:31 46:54 47:34 48:71 49:30 50:71 51:30 52:71 53:31 54:69 55:29 56:69 57:27 58:66 59:28 60:62 61:24 62:58 63:26 64:66 65:30 66:69 67:30 68:66 69:31 70:66 71:28 72:69 73:26 74:69 75:27 76:67 77:23 78:62 79:24 80:58 81:33 82:58 83:34 84:62 85:32 86:62 87:31 88:66 89:28 90:69 91:27 92:67 93:22 94:67 95:22 96:51 97:40 98:55 99:42 100:57 101:37 102:58 103:35 104:62 105:33 106:66 107:30 108:67 109:23 110:69 111:21 112:48 113:46 114:48 115:52 116:50 117:46 118:51 119:43 120:55 121:36 122:58 123:31 124:67 125:25 126:67 127:22 128:-1 
