svm_type c_svc
kernel_type polynomial
degree 5
gamma 0.0078125
coef0 0
nr_class 2
total_sv 7
rho 0.94842
label 1 -1
nr_sv 2 5
SV
1.516569141247568e-17 0:18 1:79 2:17 3:76 4:17 5:77 6:17 7:77 8:17 9:75 10:17 11:79 12:17 13:79 14:17 15:77 16:18 17:84 18:17 19:81 20:18 21:81 22:18 23:81 24:17 25:75 26:18 27:81 28:17 29:83 30:17 31:82 32:18 33:86 34:17 35:82 36:18 37:80 38:18 39:80 40:18 41:78 42:18 43:80 44:17 45:82 46:17 47:81 48:17 49:82 50:17 51:77 52:17 53:76 54:17 55:76 56:17 57:76 58:17 59:75 60:17 61:77 62:17 63:80 64:16 65:74 66:16 67:74 68:17 69:73 70:17 71:74 72:17 73:73 74:17 75:73 76:16 77:74 78:17 79:77 80:15 81:73 82:15 83:73 84:15 85:74 86:15 87:75 88:15 89:75 90:15 91:75 92:15 93:75 94:15 95:75 96:15 97:70 98:15 99:70 100:15 101:70 102:15 103:71 104:15 105:73 106:15 107:73 108:15 109:73 110:15 111:76 112:15 113:74 114:15 115:74 116:15 117:74 118:15 119:75 120:14 121:78 122:14 123:81 124:14 125:83 126:14 127:80 128:-1 
2.257004514586237e-17 0:19 1:81 2:19 3:81 4:18 5:79 6:18 7:79 8:18 9:78 10:18 11:78 12:17 13:74 14:17 15:75 16:19 17:74 18:19 19:74 20:17 21:74 22:18 23:76 24:18 25:78 26:18 27:77 28:17 29:74 30:17 31:76 32:18 33:67 34:18 35:67 36:17 37:70 38:17 39:72 40:17 41:74 42:18 43:78 44:17 45:75 46:17 47:76 48:17 49:67 50:17 51:67 52:17 53:67 54:17 55:67 56:17 57:76 58:17 59:77 60:17 61:79 62:17 63:81 64:17 65:67 66:17 67:68 68:17 69:69 70:16 71:72 72:17 73:75 74:17 75:81 76:17 77:82 78:17 79:83 80:18 81:70 82:18 83:71 84:17 85:75 86:17 87:75 88:16 89:77 90:15 91:79 92:16 93:83 94:16 95:83 96:18 97:81 98:18 99:83 100:17 101:80 102:17 103:81 104:17 105:83 106:16 107:84 108:16 109:83 110:16 111:84 112:18 113:93 114:18 115:93 116:17 117:87 118:17 119:89 120:17 121:91 122:17 123:84 124:17 125:83 126:17 127:85 128:-1 
-2.877715461301409e-19 0:27 1:148 2:26 3:158 4:30 5:86 6:35 7:48 8:38 9:28 10:30 11:16 12:26 13:18 14:21 15:26 16:26 17:138 18:27 19:121 20:29 21:88 22:33 23:54 24:35 25:27 26:30 27:17 28:23 29:16 30:22 31:19 32:26 33:131 34:27 35:118 36:27 37:109 38:30 39:53 40:32 41:25 42:30 43:17 44:30 45:15 46:23 47:19 48:26 49:125 50:27 51:126 52:27 53:144 54:28 55:58 56:28 57:25 58:30 59:17 60:30 61:16 62:35 63:22 64:27 65:100 66:26 67:103 68:26 69:117 70:28 71:75 72:28 73:28 74:30 75:15 76:35 77:14 78:38 79:21 80:25 81:105 82:25 83:99 84:26 85:110 86:29 87:82 88:33 89:36 90:34 91:18 92:38 93:13 94:45 95:20 96:22 97:117 98:23 99:108 100:26 101:105 102:31 103:93 104:37 105:53 106:43 107:21 108:48 109:12 110:60 111:10 112:22 113:116 114:22 115:118 116:25 117:105 118:31 119:88 120:36 121:94 122:42 123:34 124:52 125:14 126:60 127:9 128:-1 
-2.688267620796076e-17 0:24 1:69 2:24 3:70 4:26 5:58 6:28 7:40 8:27 9:33 10:26 11:34 12:22 13:36 14:20 15:42 16:24 17:38 18:24 19:57 20:24 21:85 22:24 23:54 24:22 25:41 26:22 27:38 28:22 29:40 30:21 31:42 32:21 33:16 34:20 35:24 36:20 37:29 38:17 39:30 40:19 41:32 42:20 43:39 44:22 45:44 46:24 47:53 48:13 49:8 50:19 51:9 52:13 53:10 54:14 55:16 56:15 57:24 58:19 59:35 60:22 61:47 62:24 63:58 64:36 65:7 66:24 67:7 68:13 69:8 70:8 71:12 72:13 73:19 74:15 75:27 76:17 77:47 78:21 79:53 80:42 81:7 82:42 83:7 84:24 85:6 86:13 87:10 88:14 89:15 90:11 91:22 92:15 93:29 94:19 95:38 96:60 97:9 98:55 99:8 100:43 101:9 102:25 103:7 104:13 105:10 106:14 107:16 108:11 109:18 110:15 111:26 112:70 113:7 114:70 115:7 116:55 117:7 118:42 119:5 120:25 121:7 122:19 123:9 124:8 125:14 126:16 127:24 128:-1 
-3.6560518487255e-18 0:35 1:110 2:35 3:107 4:35 5:110 6:36 7:97 8:37 9:82 10:39 11:67 12:37 13:58 14:37 15:51 16:33 17:109 18:34 19:82 20:33 21:65 22:34 23:58 24:35 25:47 26:37 27:47 28:37 29:43 30:37 31:51 32:30 33:75 34:30 35:53 36:29 37:43 38:33 39:40 40:33 41:42 42:34 43:44 44:35 45:48 46:35 47:61 48:29 49:48 50:29 51:42 52:28 53:41 54:28 55:43 56:33 57:48 58:33 59:55 60:34 61:68 62:35 63:79 64:28 65:38 66:28 67:44 68:29 69:52 70:29 71:56 72:33 73:76 74:33 75:86 76:34 77:99 78:33 79:106 80:28 81:42 82:29 83:54 84:29 85:55 86:30 87:71 88:33 89:88 90:33 91:100 92:33 93:112 94:34 95:120 96:29 97:57 98:30 99:64 100:30 101:67 102:31 103:93 104:34 105:95 106:33 107:108 108:34 109:119 110:34 111:123 112:33 113:76 114:31 115:85 116:31 117:89 118:31 119:92 120:33 121:104 122:33 123:112 124:34 125:119 126:34 127:132 128:-1 
-5.208714075078476e-18 0:41 1:69 2:39 3:75 4:36 5:88 6:36 7:109 8:35 9:122 10:34 11:140 12:34 13:143 14:32 15:145 16:41 17:72 18:41 19:74 20:39 21:83 22:38 23:105 24:36 25:118 26:35 27:126 28:35 29:136 30:34 31:132 32:41 33:76 34:40 35:76 36:40 37:83 38:40 39:88 40:38 41:102 42:38 43:113 44:36 45:116 46:35 47:122 48:40 49:88 50:40 51:74 52:40 53:76 54:40 55:78 56:40 57:87 58:38 59:98 60:38 61:104 62:36 63:116 64:40 65:92 66:40 67:82 68:40 69:77 70:40 71:84 72:40 73:90 74:40 75:96 76:40 77:103 78:38 79:110 80:40 81:83 82:40 83:86 84:40 85:88 86:40 87:92 88:39 89:102 90:39 91:103 92:39 93:104 94:36 95:110 96:42 97:86 98:40 99:97 100:40 101:99 102:39 103:103 104:36 105:105 106:36 107:110 108:36 109:115 110:35 111:126 112:40 113:90 114:40 115:103 116:39 117:102 118:36 119:99 120:36 121:107 122:35 123:118 124:35 125:124 126:34 127:132 128:-1 
-1.700522880443162e-18 0:40 1:107 2:42 3:98 4:43 5:92 6:45 7:71 8:43 9:45 10:42 11:33 12:37 13:32 14:33 15:46 16:38 17:123 18:39 19:118 20:42 21:106 22:43 23:99 24:45 25:64 26:44 27:43 28:42 29:33 30:37 31:31 32:36 33:128 34:36 35:128 36:38 37:117 38:40 39:121 40:41 41:99 42:42 43:69 44:43 45:44 46:42 47:35 48:35 49:132 50:35 51:132 52:36 53:138 54:38 55:160 56:39 57:105 58:40 59:62 60:43 61:46 62:43 63:40 64:35 65:126 66:35 67:117 68:35 69:121 70:35 71:133 72:35 73:87 74:36 75:54 76:40 77:42 78:42 79:48 80:36 81:131 82:35 83:132 84:35 85:98 86:35 87:78 88:34 89:53 90:35 91:44 92:37 93:50 94:40 95:57 96:38 97:149 98:38 99:159 100:36 101:134 102:35 103:64 104:35 105:45 106:34 107:36 108:34 109:42 110:37 111:63 112:37 113:163 114:38 115:199 116:38 117:176 118:37 119:59 120:37 121:40 122:38 123:34 124:37 125:45 126:35 127:58 128:-1 
