svm_type c_svc
kernel_type polynomial
degree 5
gamma 0.0078125
coef0 0
nr_class 2
total_sv 4
rho -0.99998
label 1 -1
nr_sv 3 1
SV
9.436968772322328e-20 0:30 1:32 2:0 3:0 4:0 5:0 6:0 7:0 8:0 9:0 10:0 11:0 12:0 13:0 14:50 15:45 16:0 17:0 18:0 19:0 20:0 21:0 22:0 23:0 24:0 25:0 26:0 27:0 28:0 29:0 30:50 31:45 32:0 33:0 34:0 35:0 36:0 37:0 38:0 39:0 40:0 41:0 42:0 43:0 44:0 45:0 46:50 47:45 48:0 49:0 50:0 51:0 52:0 53:0 54:0 55:0 56:0 57:0 58:0 59:0 60:0 61:0 62:0 63:0 64:0 65:0 66:0 67:0 68:0 69:0 70:0 71:0 72:0 73:0 74:0 75:0 76:0 77:0 78:0 79:0 80:0 81:0 82:0 83:0 84:0 85:0 86:0 87:0 88:0 89:0 90:0 91:0 92:0 93:0 94:0 95:0 96:0 97:0 98:0 99:0 100:0 101:0 102:0 103:0 104:0 105:0 106:0 107:0 108:0 109:0 110:0 111:0 112:0 113:0 114:0 115:0 116:0 117:0 118:0 119:0 120:0 121:0 122:0 123:0 124:0 125:0 126:0 127:0 128:-1 
5.67791522601535e-18 0:0 1:0 2:0 3:0 4:0 5:0 6:0 7:0 8:0 9:0 10:0 11:0 12:0 13:0 14:0 15:0 16:0 17:0 18:0 19:0 20:0 21:0 22:0 23:0 24:0 25:0 26:0 27:0 28:0 29:0 30:0 31:0 32:0 33:0 34:0 35:0 36:0 37:0 38:0 39:0 40:0 41:0 42:0 43:0 44:0 45:0 46:0 47:0 48:0 49:0 50:0 51:0 52:0 53:0 54:0 55:0 56:0 57:0 58:0 59:0 60:0 61:0 62:0 63:0 64:0 65:0 66:0 67:0 68:0 69:0 70:0 71:0 72:0 73:0 74:0 75:0 76:0 77:0 78:0 79:0 80:0 81:0 82:0 83:0 84:0 85:0 86:0 87:0 88:0 89:0 90:0 91:0 92:0 93:0 94:0 95:0 96:0 97:0 98:0 99:0 100:0 101:0 102:0 103:0 104:0 105:0 106:0 107:0 108:0 109:0 110:0 111:0 112:0 113:0 114:0 115:0 116:0 117:0 118:0 119:0 120:0 121:0 122:0 123:0 124:0 125:0 126:0 127:0 128:-1 
2.600452288271297e-19 0:32 1:88 2:35 3:90 4:32 5:85 6:35 7:79 8:32 9:78 10:35 11:90 12:37 13:99 14:42 15:104 16:35 17:82 18:37 19:82 20:34 21:67 22:38 23:74 24:34 25:74 26:38 27:83 28:43 29:79 30:46 31:92 32:38 33:72 34:43 35:74 36:39 37:69 38:43 39:74 40:39 41:78 42:43 43:78 44:45 45:68 46:46 47:87 48:39 49:64 50:43 51:64 52:43 53:67 54:43 55:76 56:43 57:83 58:43 59:87 60:48 61:79 62:51 63:97 64:39 65:63 66:43 67:64 68:43 69:67 70:43 71:78 72:43 73:85 74:43 75:97 76:46 77:89 78:49 79:96 80:38 81:67 82:43 83:73 84:38 85:75 86:43 87:87 88:42 89:100 90:42 91:96 92:44 93:97 94:48 95:98 96:35 97:82 98:38 99:93 100:35 101:101 102:38 103:109 104:37 105:112 106:40 107:109 108:40 109:109 110:43 111:113 112:35 113:101 114:35 115:111 116:35 117:122 118:35 119:122 120:35 121:123 122:37 123:118 124:37 125:118 126:40 127:127 128:-1 
-6.032330142565703e-18 0:80 1:28 2:80 3:31 4:80 5:35 6:80 7:28 8:80 9:25 10:85 11:25 12:90 13:23 14:90 15:22 16:79 17:36 18:79 19:35 20:76 21:40 22:80 23:27 24:80 25:24 26:80 27:23 28:85 29:22 30:90 31:20 32:77 33:49 34:76 35:40 36:71 37:35 38:74 39:27 40:74 41:26 42:80 43:23 44:85 45:22 46:90 47:24 48:74 49:46 50:72 51:39 52:71 53:31 54:69 55:27 56:69 57:26 58:74 59:25 60:85 61:21 62:90 63:20 64:72 65:40 66:71 67:38 68:67 69:27 70:65 71:25 72:68 73:23 74:74 75:21 76:80 77:21 78:90 79:20 80:71 81:38 82:67 83:31 84:65 85:25 86:63 87:21 88:63 89:21 90:66 91:19 92:79 93:19 94:90 95:21 96:69 97:29 98:65 99:25 100:57 101:23 102:52 103:25 104:56 105:17 106:60 107:13 108:80 109:16 110:93 111:19 112:68 113:25 114:63 115:21 116:63 117:22 118:56 119:17 120:60 121:14 122:73 123:15 124:79 125:19 126:90 127:21 128:-1 
