svm_type c_svc
kernel_type polynomial
degree 5
gamma 0.0078125
coef0 0
nr_class 2
total_sv 9
rho 1.05902
label 1 -1
nr_sv 3 6
SV
1.504734448259353e-18 0:22 1:130 2:21 3:130 4:21 5:132 6:20 7:131 8:20 9:132 10:20 11:133 12:20 13:133 14:20 15:132 16:21 17:134 18:21 19:133 20:22 21:134 22:21 23:129 24:22 25:128 26:21 27:129 28:22 29:131 30:22 31:130 32:21 33:135 34:21 35:134 36:22 37:134 38:23 39:125 40:23 41:125 42:23 43:127 44:22 45:127 46:23 47:129 48:21 49:133 50:21 51:127 52:22 53:125 54:23 55:118 56:23 57:123 58:23 59:127 60:22 61:127 62:23 63:130 64:21 65:131 66:21 67:126 68:22 69:124 70:23 71:116 72:23 73:116 74:23 75:122 76:22 77:126 78:22 79:132 80:21 81:132 82:21 83:127 84:22 85:126 86:22 87:121 88:22 89:121 90:22 91:125 92:22 93:131 94:21 95:135 96:22 97:132 98:21 99:130 100:22 101:130 102:22 103:123 104:22 105:123 106:22 107:122 108:21 109:127 110:21 111:133 112:22 113:132 114:22 115:133 116:22 117:129 118:22 119:132 120:22 121:125 122:22 123:124 124:20 125:126 126:21 127:131 128:-1 
6.751269248304918e-19 0:26 1:132 2:26 3:134 4:26 5:131 6:26 7:131 8:24 9:133 10:24 11:135 12:23 13:137 14:23 15:138 16:26 17:134 18:26 19:134 20:26 21:133 22:26 23:130 24:26 25:131 26:24 27:133 28:23 29:135 30:23 31:137 32:26 33:135 34:26 35:134 36:26 37:133 38:26 39:131 40:25 41:126 42:23 43:126 44:23 45:127 46:23 47:133 48:26 49:134 50:26 51:134 52:26 53:131 54:26 55:130 56:25 57:124 58:23 59:124 60:23 61:125 62:23 63:131 64:26 65:131 66:26 67:131 68:25 69:125 70:25 71:124 72:23 73:124 74:23 75:122 76:23 77:123 78:23 79:124 80:26 81:132 82:26 83:131 84:26 85:127 86:26 87:126 88:23 89:122 90:23 91:120 92:23 93:122 94:22 95:125 96:26 97:132 98:26 99:132 100:26 101:127 102:26 103:127 104:24 105:128 106:24 107:126 108:23 109:122 110:22 111:126 112:26 113:127 114:26 115:129 116:26 117:124 118:26 119:124 120:24 121:124 122:24 123:124 124:22 125:125 126:22 127:125 128:-1 
1.338017597563758e-19 0:111 1:81 2:113 3:73 4:113 5:73 6:113 7:67 8:113 9:65 10:116 11:71 12:116 13:70 14:116 15:74 16:106 17:93 18:116 19:81 20:116 21:79 22:116 23:76 24:113 25:83 26:116 27:77 28:113 29:80 30:115 31:87 32:106 33:89 34:116 35:78 36:116 37:76 38:113 39:85 40:111 41:100 42:115 43:88 44:111 45:96 46:111 47:107 48:106 49:91 50:116 51:81 52:116 53:79 54:113 55:87 56:110 57:94 58:110 59:90 60:110 61:90 62:109 63:101 64:108 65:99 66:113 67:73 68:113 69:73 70:112 71:87 72:112 73:80 74:112 75:74 76:108 77:82 78:108 79:83 80:108 81:103 82:116 83:83 84:113 85:73 86:113 87:68 88:113 89:67 90:116 91:71 92:113 93:64 94:111 95:69 96:108 97:108 98:116 99:87 100:116 101:85 102:120 103:65 104:120 105:65 106:122 107:73 108:120 109:64 110:120 111:62 112:110 113:112 114:113 115:100 116:116 117:91 118:122 119:78 120:125 121:87 122:125 123:83 124:124 125:69 126:124 127:67 128:-1 
-8.00024306380965e-19 0:33 1:41 2:32 3:35 4:32 5:33 6:32 7:27 8:32 9:29 10:29 11:39 12:26 13:51 14:26 15:74 16:34 17:24 18:34 19:26 20:34 21:25 22:34 23:26 24:32 25:31 26:26 27:31 28:26 29:36 30:24 31:45 32:51 33:12 34:38 35:20 36:35 37:24 38:32 39:26 40:26 41:34 42:26 43:34 44:26 45:31 46:23 47:32 48:51 49:13 50:38 51:20 52:34 53:27 54:32 55:25 56:32 57:28 58:26 59:29 60:30 61:29 62:26 63:35 64:37 65:36 66:37 67:35 68:37 69:34 70:35 71:30 72:35 73:31 74:32 75:28 76:35 77:26 78:30 79:23 80:34 81:87 82:34 83:76 84:37 85:60 86:37 87:56 88:37 89:52 90:37 91:46 92:35 93:33 94:35 95:28 96:32 97:136 98:34 99:152 100:36 101:134 102:38 103:116 104:38 105:91 106:39 107:80 108:37 109:74 110:34 111:64 112:31 113:154 114:32 115:164 116:35 117:167 118:36 119:169 120:38 121:129 122:38 123:105 124:36 125:105 126:36 127:98 128:-1 
-1.227269502150291e-19 0:24 1:135 2:26 3:155 4:25 5:139 6:26 7:145 8:26 9:165 10:26 11:173 12:26 13:173 14:26 15:173 16:26 17:85 18:25 19:101 20:22 21:116 22:22 23:141 24:22 25:188 26:22 27:204 28:23 29:180 30:23 31:178 32:26 33:60 34:26 35:75 36:21 37:104 38:21 39:132 40:21 41:168 42:22 43:171 44:22 45:168 46:22 47:170 48:30 49:46 50:29 51:56 52:23 53:84 54:22 55:96 56:22 57:105 58:21 59:108 60:22 61:132 62:23 63:163 64:33 65:36 66:30 67:45 68:26 69:56 70:24 71:73 72:24 73:74 74:23 75:75 76:22 77:102 78:23 79:143 80:35 81:38 82:34 83:41 84:29 85:39 86:27 87:48 88:24 89:59 90:24 91:65 92:24 93:82 94:24 95:115 96:38 97:76 98:38 99:41 100:35 101:32 102:32 103:30 104:28 105:38 106:27 107:48 108:26 109:64 110:26 111:83 112:38 113:81 114:37 115:36 116:39 117:24 118:35 119:23 120:32 121:27 122:26 123:39 124:26 125:46 126:24 127:56 128:-1 
-2.106667482421231e-19 0:26 1:60 2:26 3:58 4:27 5:59 6:30 7:59 8:30 9:63 10:28 11:68 12:24 13:77 14:22 15:67 16:25 17:45 18:26 19:54 20:26 21:62 22:29 23:71 24:33 25:51 26:29 27:46 28:26 29:52 30:22 31:64 32:26 33:43 34:28 35:45 36:28 37:44 38:33 39:47 40:33 41:41 42:29 43:39 44:27 45:40 46:24 47:55 48:26 49:42 50:28 51:41 52:28 53:36 54:32 55:33 56:32 57:33 58:29 59:36 60:29 61:33 62:28 63:48 64:32 65:46 66:32 67:36 68:32 69:39 70:32 71:34 72:32 73:35 74:26 75:33 76:28 77:29 78:26 79:36 80:34 81:53 82:32 83:38 84:32 85:40 86:32 87:47 88:32 89:39 90:26 91:32 92:26 93:27 94:23 95:28 96:33 97:62 98:29 99:50 100:29 101:51 102:29 103:57 104:28 105:47 106:26 107:39 108:26 109:41 110:21 111:22 112:30 113:78 114:28 115:75 116:28 117:73 118:27 119:64 120:26 121:62 122:25 123:58 124:26 125:65 126:21 127:28 128:-1 
-9.527801809514659e-19 0:27 1:154 2:27 3:156 4:27 5:156 6:27 7:151 8:27 9:148 10:26 11:157 12:25 13:149 14:24 15:155 16:27 17:153 18:27 19:155 20:27 21:149 22:27 23:145 24:26 25:134 26:26 27:142 28:24 29:153 30:24 31:153 32:28 33:160 34:28 35:160 36:27 37:147 38:27 39:139 40:26 41:131 42:26 43:143 44:25 45:160 46:23 47:164 48:28 49:160 50:28 51:160 52:27 53:145 54:27 55:141 56:26 57:139 58:26 59:155 60:25 61:173 62:23 63:171 64:28 65:165 66:28 67:158 68:27 69:147 70:27 71:151 72:27 73:152 74:26 75:167 76:24 77:167 78:24 79:158 80:27 81:162 82:28 83:156 84:27 85:149 86:27 87:155 88:27 89:152 90:27 91:158 92:26 93:150 94:24 95:147 96:27 97:151 98:28 99:154 100:27 101:151 102:29 103:149 104:29 105:142 106:27 107:138 108:27 109:140 110:26 111:146 112:25 113:147 114:27 115:150 116:27 117:149 118:28 119:138 120:30 121:120 122:30 123:122 124:27 125:135 126:28 127:154 128:-1 
-9.169906354843893e-21 0:44 1:143 2:45 3:120 4:45 5:95 6:41 7:53 8:40 9:40 10:37 11:36 12:35 13:55 14:33 15:78 16:42 17:156 18:42 19:157 20:43 21:97 22:39 23:53 24:37 25:43 26:34 27:35 28:34 29:46 30:33 31:67 32:41 33:177 34:42 35:158 36:40 37:119 38:39 39:59 40:37 41:44 42:34 43:37 44:34 45:49 46:33 47:75 48:39 49:180 50:39 51:157 52:38 53:107 54:37 55:56 56:37 57:49 58:35 59:38 60:34 61:55 62:33 63:98 64:38 65:162 66:38 67:173 68:39 69:112 70:36 71:49 72:37 73:41 74:37 75:34 76:35 77:50 78:33 79:77 80:38 81:160 82:38 83:168 84:39 85:124 86:39 87:50 88:40 89:40 90:37 91:34 92:37 93:36 94:35 95:57 96:36 97:166 98:38 99:172 100:39 101:155 102:40 103:55 104:43 105:44 106:43 107:33 108:43 109:26 110:37 111:40 112:36 113:155 114:39 115:154 116:39 117:172 118:42 119:61 120:44 121:37 122:46 123:27 124:46 125:23 126:41 127:33 128:-1 
-2.182950407017924e-19 0:109 1:50 2:111 3:47 4:111 5:47 6:114 7:47 8:114 9:48 10:112 11:51 12:112 13:51 14:110 15:52 16:109 17:49 18:111 19:47 20:111 21:47 22:114 23:47 24:114 25:48 26:112 27:50 28:112 29:51 30:110 31:52 32:110 33:52 34:110 35:52 36:110 37:52 38:112 39:50 40:112 41:50 42:112 43:50 44:112 45:50 46:110 47:52 48:110 49:52 50:110 51:52 52:110 53:53 54:112 55:50 56:112 57:50 58:112 59:50 60:112 61:50 62:110 63:53 64:111 65:54 66:111 67:54 68:111 69:55 70:112 71:52 72:112 73:52 74:112 75:52 76:112 77:52 78:112 79:53 80:111 81:55 82:111 83:55 84:111 85:55 86:112 87:52 88:112 89:52 90:112 91:52 92:112 93:53 94:112 95:53 96:112 97:52 98:112 99:52 100:112 101:53 102:111 103:54 104:111 105:54 106:112 107:53 108:112 109:53 110:114 111:51 112:112 113:49 114:112 115:49 116:112 117:50 118:112 119:51 120:112 121:51 122:112 123:53 124:112 125:53 126:114 127:51 128:-1 
