svm_type c_svc
kernel_type sigmoid
gamma 0.00520833
coef0 0
nr_class 2
total_sv 10
rho -1
label 1 -1
nr_sv 5 5
SV
1 0:69 1:127 2:132 3:68 4:126 5:131 6:29 7:110 8:99 9:25 10:106 11:95 12:18 13:103 14:89 15:59 16:144 17:130 18:102 19:175 20:163 21:75 22:148 23:136 24:49 25:119 26:122 27:36 28:106 29:109 30:19 31:105 32:93 33:50 34:136 35:124 36:76 37:156 38:143 39:60 40:140 41:127 42:84 43:155 44:141 45:85 46:156 47:142 48:36 49:119 50:116 51:6 52:89 53:86 54:31 55:118 56:104 57:81 58:168 59:154 60:127 61:193 62:188 63:112 64:178 65:173 66:111 67:172 68:162 69:124 70:185 71:175 72:72 73:158 74:154 75:35 76:121 77:117 78:40 79:126 80:122 81:77 82:163 83:159 84:118 85:188 86:191 87:104 88:174 89:177 90:84 91:155 92:148 93:95 94:166 95:159 96:129 97:194 98:198 99:115 100:180 101:184 102:90 103:153 104:170 105:65 106:128 107:145 108:80 109:154 110:159 111:85 112:159 113:164 114:34 115:119 116:105 117:0 118:76 119:62 120:101 121:169 122:164 123:92 124:160 125:155 126:92 127:148 128:158 129:55 130:111 131:121 132:49 133:112 134:116 135:98 136:161 137:165 138:78 139:151 140:145 141:27 142:100 143:94 144:0 145:49 146:25 147:0 148:37 149:13 150:7 151:41 152:37 153:45 154:79 155:75 156:37 157:88 158:101 159:99 160:150 161:163 162:87 163:159 164:162 165:64 166:136 167:139 168:46 169:112 170:93 171:42 172:108 173:89 174:67 175:122 176:117 177:61 178:116 179:111 180:24 181:78 182:95 183:75 184:129 185:146 186:93 187:160 188:166 189:89 190:156 191:162 192:-1 
1 0:141 1:176 2:183 3:97 4:151 5:155 6:72 7:126 8:130 9:23 10:91 11:80 12:8 13:76 14:65 15:17 16:86 17:66 18:1 19:70 20:50 21:11 22:62 23:62 24:137 25:171 26:167 27:127 28:167 29:165 30:112 31:152 32:150 33:42 34:99 35:79 36:15 37:72 38:52 39:22 40:84 41:50 42:6 43:68 44:34 45:16 46:62 47:48 48:134 49:165 50:164 51:146 52:188 53:187 54:140 55:182 56:181 57:38 58:90 59:73 60:0 61:43 62:26 63:8 64:55 65:26 66:13 67:60 68:31 69:9 70:49 71:27 72:133 73:167 74:176 75:148 76:184 77:195 78:155 79:191 80:202 81:42 82:91 83:89 84:1 85:50 86:48 87:39 88:97 89:75 90:66 91:124 92:102 93:53 94:113 95:79 96:125 97:162 98:170 99:146 100:184 101:182 102:157 103:195 104:193 105:44 106:93 107:91 108:6 109:55 110:53 111:44 112:98 113:81 114:55 115:109 116:92 117:69 118:119 119:102 120:75 121:122 122:119 123:119 124:167 125:148 126:160 127:208 128:189 129:110 130:144 131:140 132:27 133:61 134:57 135:10 136:34 137:26 138:0 139:22 140:14 141:34 142:64 143:59 144:13 145:63 146:46 147:69 148:119 149:87 150:129 151:179 152:147 153:153 154:181 155:176 156:71 157:99 158:94 159:5 160:18 161:30 162:84 163:97 164:109 165:104 166:136 167:137 168:7 169:60 170:47 171:60 172:107 173:91 174:104 175:151 176:135 177:125 178:157 179:158 180:51 181:83 182:84 183:0 184:20 185:18 186:152 187:172 188:170 189:171 190:205 191:208 192:-1 
1 0:71 1:113 2:91 3:34 4:76 5:54 6:71 7:109 8:87 9:96 10:134 11:112 12:51 13:98 14:75 15:52 16:99 17:76 18:81 19:144 20:121 21:65 22:128 23:105 24:21 25:88 26:52 27:33 28:100 29:64 30:31 31:95 32:63 33:26 34:90 35:58 36:62 37:130 38:91 39:85 40:153 41:114 42:88 43:147 44:129 45:58 46:117 47:99 48:60 49:117 50:97 51:92 52:149 53:129 54:87 55:140 56:112 57:70 58:123 59:95 60:111 61:161 62:129 63:112 64:162 65:130 66:92 67:136 68:129 69:75 70:119 71:112 72:66 73:129 74:112 75:87 76:150 77:133 78:83 79:140 80:115 81:76 82:133 83:108 84:118 85:163 86:140 87:110 88:155 89:132 90:91 91:133 92:126 93:119 94:161 95:154 96:58 97:121 98:98 99:36 100:99 101:76 102:28 103:91 104:61 105:50 106:113 107:83 108:78 109:140 110:106 111:69 112:131 113:97 114:68 115:119 116:111 117:140 118:191 119:183 120:64 121:121 122:96 123:52 124:109 125:84 126:57 127:114 128:88 129:62 130:119 131:93 132:36 133:94 134:65 135:76 136:134 137:105 138:107 139:149 140:127 141:136 142:178 143:156 144:73 145:127 146:103 147:78 148:132 149:108 150:77 151:126 152:105 153:62 154:111 155:90 156:36 157:80 158:60 159:114 160:158 161:138 162:156 163:194 164:172 165:140 166:178 167:156 168:56 169:112 170:90 171:65 172:121 173:99 174:70 175:113 176:103 177:61 178:104 179:94 180:67 181:102 182:96 183:105 184:140 185:134 186:113 187:152 188:146 189:90 190:129 191:123 192:-1 
1 0:115 1:154 2:149 3:102 4:141 5:136 6:82 7:133 8:125 9:54 10:105 11:97 12:64 13:113 14:111 15:49 16:98 17:96 18:55 19:101 20:95 21:64 22:110 23:104 24:136 25:164 26:165 27:103 28:131 29:132 30:129 31:161 32:156 33:108 34:140 35:135 36:50 37:95 38:92 39:24 40:69 41:66 42:25 43:73 44:74 45:42 46:90 47:91 48:132 49:162 50:170 51:82 52:112 53:120 54:97 55:139 56:132 57:100 58:142 59:135 60:49 61:95 62:96 63:16 64:62 65:63 66:21 67:66 68:69 69:37 70:82 71:85 72:90 73:130 74:121 75:25 76:65 77:56 78:80 79:131 80:103 81:90 82:141 83:113 84:76 85:117 86:119 87:62 88:103 89:105 90:37 91:78 92:80 93:36 94:77 95:79 96:75 97:113 98:91 99:24 100:62 101:40 102:56 103:106 104:74 105:90 106:140 107:108 108:109 109:153 110:146 111:112 112:156 113:149 114:94 115:129 116:123 117:41 118:76 119:70 120:38 121:93 122:67 123:0 124:42 125:16 126:35 127:75 128:53 129:97 130:137 131:115 132:130 133:161 134:145 135:128 136:159 137:143 138:103 139:135 140:123 141:42 142:74 143:62 144:65 145:123 146:109 147:15 148:73 149:59 150:47 151:85 152:70 153:69 154:107 155:92 156:94 157:127 158:106 159:78 160:111 161:90 162:77 163:118 164:100 165:77 166:118 167:100 168:80 169:130 170:126 171:56 172:106 173:102 174:35 175:77 176:70 177:6 178:48 179:41 180:18 181:59 182:27 183:33 184:74 185:42 186:85 187:121 188:98 189:101 190:137 191:114 192:-1 
1 0:129 1:168 2:170 3:93 4:132 5:134 6:10 7:49 8:43 9:49 10:88 11:82 12:131 13:171 14:162 15:145 16:185 17:176 18:121 19:172 20:170 21:106 22:157 23:155 24:87 25:139 26:135 27:28 28:80 29:76 30:0 31:40 32:26 33:27 34:71 35:57 36:106 37:145 38:139 39:137 40:176 41:170 42:112 43:170 44:162 45:98 46:156 47:148 48:64 49:129 50:127 51:20 52:85 53:83 54:0 55:55 56:42 57:0 58:53 59:40 60:53 61:113 62:99 63:110 64:170 65:156 66:112 67:174 68:166 69:107 70:169 71:161 72:103 73:159 74:163 75:109 76:165 77:169 78:74 79:128 80:125 81:19 82:73 83:70 84:9 85:60 86:52 87:116 88:167 89:159 90:141 91:189 92:190 93:141 94:189 95:190 96:130 97:174 98:181 99:135 100:179 101:186 102:111 103:158 104:163 105:83 106:130 107:135 108:50 109:108 110:113 111:121 112:179 113:184 114:128 115:186 116:191 117:113 118:171 119:176 120:125 121:171 122:178 123:123 124:169 125:176 126:108 127:155 128:160 129:106 130:153 131:158 132:109 133:157 134:164 135:128 136:176 137:183 138:111 139:168 140:176 141:95 142:152 143:160 144:83 145:145 146:145 147:80 148:142 149:142 150:72 151:134 152:134 153:86 154:148 155:148 156:119 157:177 158:176 159:95 160:153 161:152 162:64 163:127 164:131 165:103 166:166 167:170 168:78 169:135 170:143 171:59 172:116 173:124 174:90 175:145 176:159 177:89 178:144 179:158 180:97 181:160 182:164 183:75 184:138 185:142 186:46 187:112 188:114 189:113 190:179 191:181 192:-1 
-1 0:236 1:232 2:224 3:231 4:228 5:224 6:222 7:219 8:215 9:181 10:173 11:163 12:164 13:156 14:146 15:216 16:207 17:193 18:238 19:229 20:215 21:237 22:229 23:226 24:197 25:173 26:151 27:220 28:194 29:178 30:224 31:198 32:182 33:176 34:163 35:143 36:162 37:149 38:129 39:233 40:226 41:207 42:246 43:239 44:220 45:239 46:235 47:233 48:142 49:118 50:96 51:192 52:169 53:144 54:221 55:198 56:173 57:188 58:175 59:161 60:185 61:172 62:158 63:239 64:238 65:222 66:240 67:239 68:223 69:233 70:234 71:231 72:151 73:132 74:122 75:192 76:170 77:156 78:235 79:213 80:199 81:180 82:166 83:161 84:196 85:182 86:177 87:241 88:237 89:229 90:227 91:223 92:215 93:207 94:204 95:200 96:173 97:153 98:140 99:220 100:205 101:190 102:251 103:236 104:221 105:160 106:156 107:148 108:166 109:162 110:154 111:223 112:219 113:204 114:157 115:153 116:138 117:117 118:105 119:100 120:225 121:211 122:200 123:239 124:235 125:228 126:237 127:233 128:226 129:154 130:156 131:151 132:155 133:157 134:152 135:196 136:195 137:186 138:110 139:109 140:100 141:45 142:34 143:20 144:250 145:236 146:212 147:202 148:194 149:184 150:120 151:112 152:102 153:146 154:149 155:133 156:196 157:199 158:183 159:224 160:225 161:222 162:192 163:193 164:190 165:173 166:171 167:164 168:255 169:238 170:212 171:187 172:189 173:177 174:121 175:123 176:111 177:173 178:184 179:169 180:198 181:209 182:194 183:223 184:223 185:216 186:190 187:190 188:183 189:186 190:175 191:161 192:-1 
-1 0:129 1:131 2:126 3:161 4:157 5:142 6:167 7:163 8:148 9:173 10:162 11:148 12:203 13:192 14:178 15:149 16:145 17:130 18:97 19:93 20:78 21:159 22:156 23:139 24:113 25:123 26:110 27:136 28:139 29:123 30:161 31:164 32:148 33:198 34:194 35:179 36:201 37:197 38:182 39:160 40:159 41:150 42:139 43:138 44:129 45:190 46:188 47:181 48:229 49:230 50:214 51:214 52:214 53:207 54:217 55:217 56:210 57:231 58:233 59:228 60:231 61:233 62:228 63:229 64:230 65:227 66:230 67:231 68:228 69:228 70:229 71:226 72:239 73:238 74:222 75:224 76:220 77:218 78:213 79:209 80:207 81:215 82:211 83:203 84:177 85:173 86:165 87:170 88:163 89:151 90:175 91:168 92:156 93:180 94:167 95:160 96:227 97:222 98:211 99:229 100:222 101:216 102:225 103:218 104:212 105:201 106:193 107:183 108:67 109:59 110:49 111:35 112:22 113:7 114:32 115:19 116:4 117:82 118:57 119:45 120:192 121:172 122:164 123:233 124:221 125:197 126:251 127:239 128:215 129:235 130:226 131:227 132:92 133:83 134:84 135:47 136:29 137:36 138:80 139:62 140:69 141:104 142:90 143:72 144:189 145:176 146:162 147:216 148:206 149:190 150:241 151:231 152:215 153:230 154:225 155:221 156:51 157:46 158:42 159:42 160:41 161:30 162:89 163:88 164:77 165:109 166:111 167:91 168:195 169:190 170:173 171:221 172:212 173:200 174:209 175:200 176:188 177:155 178:132 179:127 180:51 181:28 182:23 183:66 184:44 185:36 186:80 187:58 188:50 189:112 190:113 191:97 192:-1 
-1 0:184 1:179 2:167 3:140 4:135 5:123 6:166 7:166 8:146 9:166 10:166 11:146 12:169 13:166 14:155 15:163 16:160 17:149 18:173 19:167 20:152 21:185 22:179 23:164 24:145 25:148 26:132 27:156 28:159 29:143 30:211 31:217 32:199 33:176 34:182 35:164 36:143 37:135 38:132 39:132 40:124 41:121 42:124 43:110 44:86 45:141 46:127 47:103 48:151 49:163 50:158 51:145 52:157 53:152 54:174 55:183 56:166 57:114 58:123 59:106 60:69 61:64 62:45 63:112 64:107 65:88 66:133 67:120 68:105 69:160 70:147 71:132 72:186 73:198 74:193 75:143 76:155 77:150 78:83 79:102 80:90 81:29 82:48 83:36 84:55 85:66 86:49 87:108 88:119 89:102 90:151 91:146 92:135 93:129 94:124 95:113 96:215 97:218 98:210 99:212 100:215 101:207 102:181 103:190 104:188 105:168 106:177 107:175 108:184 109:190 110:189 111:155 112:161 113:160 114:145 115:140 116:129 117:116 118:111 119:100 120:221 121:217 122:209 123:236 124:232 125:224 126:236 127:236 128:229 129:237 130:237 131:230 132:233 133:234 134:231 135:172 136:173 137:170 138:159 139:155 140:148 141:172 142:168 143:161 144:181 145:179 146:166 147:204 148:202 149:189 150:238 151:240 152:220 153:238 154:240 155:220 156:222 157:220 158:213 159:180 160:178 161:171 162:192 163:184 164:176 165:206 166:198 167:190 168:180 169:175 170:163 171:202 172:197 173:185 174:225 175:219 176:211 177:234 178:228 179:220 180:223 181:216 182:210 183:139 184:132 185:126 186:131 187:118 188:96 189:146 190:133 191:111 192:-1 
-1 0:161 1:155 2:147 3:174 4:163 5:149 6:187 7:176 8:162 9:169 10:158 11:138 12:176 13:165 14:145 15:216 16:205 17:185 18:231 19:220 20:200 21:207 22:195 23:184 24:186 25:175 26:161 27:208 28:195 29:181 30:205 31:192 32:178 33:177 34:159 35:146 36:166 37:148 38:135 39:206 40:185 41:167 42:239 43:218 44:200 45:233 46:221 47:210 48:226 49:218 50:215 51:225 52:213 53:210 54:206 55:194 56:191 57:199 58:182 59:173 60:174 61:157 62:148 63:190 64:168 65:154 66:220 67:198 68:184 69:230 70:220 71:204 72:235 73:236 74:233 75:226 76:225 77:222 78:207 79:206 80:203 81:214 82:205 83:199 84:193 85:184 86:178 87:181 88:168 89:154 90:196 91:183 92:169 93:219 94:208 95:194 96:234 97:205 98:177 99:235 100:225 101:209 102:242 103:232 104:216 105:228 106:222 107:220 108:211 109:205 110:203 111:204 112:196 113:193 114:190 115:182 116:179 117:186 118:174 119:171 120:176 121:159 122:123 123:227 124:206 125:181 126:250 127:229 128:204 129:236 130:224 131:219 132:222 133:210 134:205 135:207 136:202 137:198 138:183 139:178 140:174 141:165 142:162 143:151 144:72 145:53 146:17 147:112 148:82 149:52 150:159 151:129 152:99 153:188 154:160 155:143 156:184 157:156 158:139 159:157 160:135 161:127 162:170 163:148 164:140 165:174 166:163 167:149 168:120 169:105 170:90 171:102 172:89 173:82 174:108 175:95 176:88 177:135 178:126 179:107 180:134 181:125 182:106 183:137 184:131 185:102 186:164 187:158 188:129 189:180 190:174 191:146 192:-1 
-1 0:180 1:173 2:167 3:169 4:162 5:156 6:166 7:163 8:146 9:195 10:192 11:175 12:213 13:214 14:198 15:224 16:225 17:209 18:203 19:204 20:195 21:148 22:149 23:140 24:156 25:159 26:145 27:131 28:134 29:120 30:144 31:151 32:124 33:198 34:205 35:178 36:233 37:231 38:218 39:221 40:219 41:206 42:204 43:198 44:190 45:179 46:173 47:165 48:154 49:160 50:143 51:113 52:119 53:102 54:150 55:159 56:127 57:207 58:216 59:184 60:236 61:230 62:215 63:189 64:183 65:168 66:182 67:172 68:156 69:203 70:193 71:177 72:209 73:212 74:204 75:189 76:192 77:184 78:185 79:181 80:173 81:211 82:207 83:199 84:233 85:224 86:210 87:195 88:186 89:172 90:191 91:182 92:168 93:229 94:220 95:206 96:239 97:235 98:233 99:232 100:228 101:226 102:214 103:203 104:196 105:216 106:205 107:198 108:221 109:207 110:189 111:200 112:186 113:168 114:210 115:199 116:185 117:247 118:236 119:222 120:226 121:222 122:215 123:209 124:205 125:198 126:200 127:180 128:166 129:179 130:159 131:145 132:170 133:143 134:110 135:197 136:170 137:137 138:240 139:220 140:193 141:255 142:241 143:214 144:211 145:211 146:206 147:183 148:183 149:178 150:194 151:185 152:166 153:147 154:138 155:119 156:127 157:102 158:69 159:187 160:162 161:129 162:230 163:209 164:178 165:246 166:225 167:194 168:212 169:213 170:210 171:182 172:183 173:180 174:193 175:194 176:185 177:120 178:121 179:112 180:69 181:62 182:37 183:105 184:98 185:73 186:133 187:115 188:68 189:172 190:154 191:107 192:-1 
